1.04868550176651,-0.400231959974807,1.19411944840087,0.37112768293981,0.407607184367243,0.974406907067257,-0.058410245621103,0.861720996531062,-0.697289937004473,0.288745630275689
0.780851230996702,-0.385625911150141,0.521197785903895,0.227355218174513,0.570108875984051,0.641264469468391,-0.550005547283289,0.704020733064469,-0.485835206192113,-0.564624069351107
0.641508860173782,-0.547853845193786,-0.0837963779291727,-0.598519277943214,-0.0176936289553186,0.299736072026697,-0.720806973276096,0.838546432681384,-0.694832082103484,-1.1347963143232
0.453617824645585,-0.800218437567977,0.680481285019809,-0.0817425564315311,0.136600984019496,0.907560581453863,0.277681757890043,0.369299896611357,-1.2612076244466,-0.235580577039418
0.9375378888571,0.106089899023496,0.361952953161411,0.0866458570850104,0.287505142450131,0.518643961944196,-0.0568713993180541,0.914572679421399,-0.819334262480869,-0.542846610940901
0.072618589217492,-0.508256583638408,0.0529909363676931,-0.0833505617114778,0.32876510840668,0.840627630393069,0.241528632022801,1.46887646021992,-0.535518426476183,-0.230683087727884
0.418128968995121,-0.560676709509493,0.481836096774802,-0.361658955037022,0.268461466472641,1.02286681305317,-0.591785394072596,0.844842909452549,-1.26849322864902,0.255630872630187
0.988470535005621,-0.569856752710938,0.579449458375014,0.0524858035061103,0.942717430544337,1.07873469382667,0.0925091018849432,0.812624010822735,-0.504400575619434,-0.112857482859189
0.477414666907266,-0.350070946913715,0.340660847822412,-0.728938426526792,0.153406998190608,0.842243699485113,0.57970017943981,1.61927077133596,-0.8629034591344,0.30267094091659
0.455961557031158,-0.135136201351255,0.348259692949228,-0.610206965083316,0.325539248468278,1.431289714434,-0.153672430456411,0.875105198782956,-0.764453597246357,0.14604828031587
0.71412433201489,0.172080298127982,1.10415175557492,-0.450578940043742,-0.146278142561417,0.713333569837492,0.105464253750478,0.670790050438273,-1.70869785382341,-0.00126411437927479
0.820477657910972,-0.860790115654528,0.908062819275128,-0.272720160543931,0.360608965154476,0.722903694280007,-0.0380933302347725,0.934621875590527,-1.3996534494603,0.116331256601749
0.501520272777397,-0.973783637077419,0.29868739371633,-0.746751262129265,0.341306423675357,0.48686962381838,0.248266133026858,1.09372339420068,-0.477587111708313,-0.550501412590419
0.580820263198384,-0.456421559255616,0.397971689501117,-0.723515148483079,0.355466388318943,1.00137090607561,1.04058696300038,1.08225853691064,-0.836588782430235,0.319857382317535
1.52679956144814,-0.380019846296235,0.178895839222542,0.19585491814952,0.0241773531157256,0.366964481836805,0.296834271811182,1.27264057229366,-0.853124499137247,-0.1455227994751
0.568203889266497,-0.505039608327338,0.22966171299149,-0.458810930832583,0.453846353226684,0.916767421462333,-0.289249306432287,0.636782731121865,-0.766989444600346,-0.0718743308109247
0.527509838345806,-0.300122202927472,1.07439964900365,-0.522643129778907,-0.393850142545201,0.634641395817855,-0.608769559301941,0.584401571961667,-0.738836231146397,-0.191875351944105
-0.0499805376090242,-0.755206604338488,0.454064521099828,-0.300570207899536,0.11476448554696,0.801839521108885,0.0786090293200438,0.59091218705157,-0.245672403736718,-0.320473117409049
0.783969965054009,-1.13697107432562,0.37092136355096,-0.21693947947394,-0.303102317560057,1.39134815864904,0.716649944331124,0.661778187617849,-0.866944821388973,0.595211432162584
0.216805596876051,-0.966122608207363,-0.448206351366735,-0.418226822448497,0.27236405532139,1.3130036705664,0.630075355154023,1.19113154749634,-0.00413257371905566,-0.119480725380947
0.722103190738106,-0.27553401683593,-0.0890931756404821,0.162957018552379,0.836383876452119,0.717358187793345,-0.639766638392074,0.627678442877275,-0.418620509500601,-0.118700623133471
1.21739872546353,-0.589601377208521,0.604714522093001,0.393876150686361,0.150179234223133,0.21669241279934,0.0493178440713884,1.27970037955521,-1.47459840056935,0.00821958091006208
0.0583081125959126,-0.698838607818418,1.12728881818367,-0.563916860537096,0.128489642743366,0.878981557321749,0.559400451120481,1.08131644057893,-0.786198540263588,-0.271717026702325
0.754614613089885,-0.403236695421786,0.789921533010692,-0.553451539873483,0.0409262840180492,0.96642377624606,-0.5000556559175,0.348100989934368,-0.985859573625461,-0.127432241511396
1.4376756395785,-0.510008559658673,0.0056749891014065,-0.503857170028139,0.037902291748945,0.422821587369495,0.231475196091629,1.1595234231064,-0.653960324623873,-0.172991506134247
0.643804506240014,-0.296729367754176,0.430258973038516,-0.359004189821955,0.624263372501158,0.275056908559287,0.4019657629851,0.894913840104188,-0.946079372312954,-0.709488099869413
0.238020178942966,0.157413677565823,0.285241256969419,0.39852451569389,0.185098400547672,0.752707713424178,-0.270121239643996,0.875605377796159,-0.853615685491876,-0.730903180301685
0.893571600494332,-0.654813749943132,0.559492466971075,0.493122968978649,0.168356680300292,0.640751866103621,-0.00818418087453899,1.27357772521509,-0.91395847111536,-0.0540238674942236
1.05716186028107,-0.222619175625175,0.379567540129062,0.195597640623151,-0.652158475243674,0.670348202976823,-0.333284826937538,0.737137272111293,-0.317357060608293,-0.287803752094526
0.0249302300788598,-0.440487821969395,0.509361795296167,-0.154503155890005,0.107279618461252,1.1113009107607,0.335102579587324,1.29004743805276,-0.451585746246982,-0.212063805293685
0.336883768695238,-0.561250044283245,0.37655364936169,0.616887026233724,0.132588671999479,0.566490489367625,-0.268241621265423,1.02222839317689,-1.25447460080677,-0.345951992988634
-0.269384330647797,-0.8866241782161,0.856745351524308,-0.68137024175657,0.181271012236152,0.959187426399686,0.0246819131693919,0.971998341004488,-0.383439404907063,-0.373537492308013
0.49908700238251,-0.659804616552535,0.270980569169465,-0.203841584361803,-0.237480651566238,0.726572479700625,-0.323882235466843,0.987774883243086,-0.716960790818881,-0.732919794830143
0.206433831967844,0.128603410767211,-0.0485576023525204,0.100217217108928,-0.136122435901734,0.583487251749251,-0.200101011719114,0.735376430848297,-0.78339278973175,0.00955666390640229
0.857472168344102,0.286309340333715,0.11576087566776,0.224800107095407,0.35504567873939,0.395075845312054,-0.0541138697154168,0.192182958411977,-0.390129864009654,-0.132979331306737
0.566919613926828,-0.0952477502859605,0.0438688963217679,-0.127269192031134,-0.0105078317827221,0.492064140224357,0.0635673449496596,0.54414086848355,-0.356367757471715,-0.316665628854957
0.124512668871028,-0.437412260576679,0.40314986313299,-0.432089306927946,0.241709329264242,0.721794440616079,0.0343464831417562,0.237269369035492,-0.0573954766029214,-0.033720081624012
1.06919412055059,-0.270979234806756,0.605357421139247,0.586822579506483,-0.0341537572218912,0.673333315548587,-0.205563622102376,0.471490251575075,-0.468656842230954,-0.434265816448301
-0.179833144545572,0.0623034204362568,0.556551224372479,-0.146049594650012,-0.0277852849338936,0.798260955168303,-0.143154382205291,0.767412349946899,-1.32921414287403,-0.55257886531093
0.890467455203421,-0.199228178416763,-0.184895932765531,0.0994574932455471,0.189796933639618,1.01801499686492,-0.354022415770882,0.73006541999784,-0.410553788268191,0.0855394996185512
0.302759933342287,-0.257303296453077,0.6579249927361,-0.122529562066443,0.152044307536573,0.251067515762706,-0.35759733750271,1.03952942267663,-0.517940765223413,-0.743543244451579
0.220721732980007,-0.325277480833038,0.699938693816645,-0.949952228797825,0.414769453013779,0.288890146987421,-0.545994362565713,1.17398100198179,-1.09828968316172,-0.634943411903345
0.333616344643644,-0.559190059262919,0.321737373223958,0.533009914136919,0.240549603019111,0.966272793166332,0.000612181034188108,0.635712185347459,-0.329628710380209,-0.447304150921338
0.378877897375927,-0.482198210951436,0.119689489377056,0.20405416077108,0.376930773192909,0.560711039986405,0.486634659632833,1.11797029840519,-0.792061865581683,-0.392015109361294
0.537266278193025,-0.712145645315752,0.191894227032201,-0.409893192618051,0.536441462583136,1.02971515805041,0.0698518773041915,0.906611498541551,-1.10588125425903,0.0458844390628857
0.0480387444595304,-0.536142905888955,0.415088281378735,-0.474974276358249,0.23038693308849,1.18616963457727,0.216287338850311,0.789953750227687,-0.407163451700162,-0.441650944419381
0.555248766901677,-0.767623134578751,0.964058716923208,-0.665344567611341,-0.0640276624170024,1.09062331258653,0.165900956199308,0.675447765059066,-0.378494179351553,-0.222474253261518
0.554420659021604,-1.24136721350939,0.317895743622537,-0.0862243294010781,0.309149023194019,0.91923443487561,0.0121163728082716,1.29955058376399,-0.604049052518732,0.0027273762036369
0.730071245802993,-0.414368577678622,-0.0658337913701317,0.119357506148977,0.463792088259143,0.401773182585782,-0.221934112983676,1.06172539077309,-0.860219009939308,-0.417071947989624
0.788133368471743,-1.1160093687402,1.08932856040137,0.424283602442413,0.615335053191176,0.575028953701919,-0.531543345046368,1.33429927310375,-1.10696879915807,0.714534855056573
0.336396463731419,-0.159159538171961,-0.0872430051176985,0.349030597466549,0.287637445775807,0.687661607826694,-0.112427496496587,1.19228705519809,-1.14375909172632,-0.198254577005914
0.235220976500772,-0.879367887406646,0.263134202481528,-0.0597939695231487,0.303560409077887,0.995934341774622,0.106877174023371,1.09723772616483,-0.816927526970466,0.125236110171395
0.288443024882208,-0.143935712318752,0.452574535975089,-1.09586140268462,-0.405132693632608,0.6861033276541,-0.194960926091666,0.587684931717313,-1.0081473340844,-0.534027365979327
0.557882277071393,-0.418674945255744,0.252580762962095,0.418748089544507,-0.0203157932338441,0.395275970283546,-0.282008501131442,0.992793508649214,-1.03640426126783,-0.437921627986526
0.475576162287157,-0.726977084374106,0.426466478876895,-0.441029868814508,0.495396252007309,0.731864675144333,-0.427893730202189,0.670049025112683,-1.15417813129959,-0.377431489978743
0.273391487463373,-0.898668258100187,1.26816494972711,-0.903428268281171,-0.47810219905041,0.855193559070107,0.500195315603028,0.676960631469077,-1.42526468879651,-0.42644491886573
0.379484476746857,-0.41558211521744,0.0150514315092778,0.0214128685572152,0.621541003951848,0.901731707789422,0.489069158250104,1.34243681669832,-0.858509302198214,0.200604882994826
0.458973340637252,-0.624139487086182,0.609479961993901,-0.0641253979533322,0.579272201822027,0.675150479259583,0.14296392440373,1.00077646137622,-0.870590555358777,-0.111210542537942
0.426117423812637,-0.385046588618213,0.0156218295959254,-0.657142963000117,0.892601085420068,0.962194395867789,0.40572961580658,0.879917855863101,-0.964518443434788,-0.628942381781875
0.0502996583190598,-0.692889312440958,0.171836116237454,-0.878259799161984,0.326174851057758,1.29421942149511,0.56543661712019,0.722814436751033,-0.809469719805237,-0.403988941763483
0.53520878963026,-0.726668849303034,-0.0163525549991877,-0.730440716528235,0.533269629671874,1.06733234855892,0.31458552764283,0.645091105054508,-0.863716410063312,-0.299551964794786
0.531751880142114,-0.405861871046495,0.21813236029117,0.467438819625547,-0.160914585751074,0.887129297129203,-0.541384958585706,0.681518801578963,-0.898780028937499,-0.245415500250358
0.817713854309858,0.141766029594744,0.278445760503058,0.51908024921731,0.251723479675543,0.63904738572623,-0.179903050365755,0.870761817001262,-0.58410493858811,-0.403342643411024
1.11701753230059,-0.875813749754459,0.692345141402091,0.0309481857308957,0.253355930939116,0.397411894949186,0.201385762147359,1.36498856899158,-1.25807173729983,-0.157515383150361
0.786751183955499,-0.235151522530397,-0.125907877092531,-0.44144435213767,0.491637129908762,0.755735026931206,0.300198117238896,1.18856972887681,-0.698282382779445,-0.247323602319435
1.23864313255215,-0.123323053778587,0.445360069246644,0.598595992355642,0.207311978885476,0.755784321764511,0.212909413298131,0.638135074380275,-0.983546668039651,-0.0540344708443853
1.01695756116509,-0.318538126566639,1.17880013295441,-0.161885644927867,-0.099423873380156,0.610476198694538,-0.0504410470288083,0.441154136379825,-0.351297423999117,-0.616361969100911
0.360753927010464,0.0185664893522225,0.440194599232673,-0.354786820906704,0.204323066167084,0.55131355329244,-0.883727388948557,0.917194575266501,-1.32266957311159,-0.102517614794833
0.771488669529981,-0.370777028444367,0.704710538343767,0.676094979014208,-0.0217774632701082,0.35188836692419,0.41657355110824,1.33939561782973,-1.26137446168149,-0.200174719775019
0.754071410183579,-0.260925060766094,0.305313009086343,-0.0665082877605156,0.240684317530211,0.79509183079712,0.538723710928383,1.10769831481488,-1.12632049802998,0.353600967291002
0.919827122492329,-0.129104495759494,0.534964656497445,0.555000476946908,0.565331002191952,0.79845907493476,0.026271663920887,1.01065776177845,-0.70190090764756,-0.312822998047176
0.676127404298582,-0.473081279821018,0.468653445862665,0.134977592125651,-0.310710858540678,0.977982408244582,-0.176486158519069,0.791408275321175,-0.645364194703712,-0.18604394555577
1.07661693671035,-0.494524588352838,0.641524571619682,0.536287018952322,-0.0237087649118497,0.706620015910277,-0.211418502863802,0.827735211637005,-0.773920659710072,0.124711116319143
0.0317474563939728,0.0609528717337533,0.507045796188621,-0.45999403101586,0.417141164414965,0.702268124560297,-0.120555378101971,0.768951587355561,-0.0185676647046631,-0.574324722241016
0.442417593849788,-0.284925347453697,0.252279922318079,-0.32020364046273,0.22923656023814,0.446919730387117,-0.11630439351027,0.642618836994715,-0.790827035223244,-0.350373390499314
0.362480414410292,-0.561005453483119,0.782137803663611,-0.0961964864583106,0.0663128806748627,0.365017031617748,-0.110284598734348,0.931234478732932,-0.886397655955138,-0.749810332705421
0.73928662920207,-0.684899692972809,0.265273437276115,0.838967997710857,0.109846761413876,0.465958306795954,0.0556231503671352,1.05204135131998,-0.729972064195568,-0.469051456272614
0.896768607491585,0.157748717911957,0.396018664252553,0.387019896577121,0.455578985372636,0.566418118431714,-0.0477427066144306,0.560671208737382,-0.114953804453328,-0.132087755243473
0.784553699459457,-0.594270055353634,1.06140347240048,0.503342348312247,0.0516317040979381,0.549780131343837,0.112617516741167,1.19617766557362,-1.01889819607965,-0.250232931720902
0.673498997763132,-0.845176405270367,0.393284354099676,0.050895652704192,0.448719245477205,0.7204002343757,-0.226802816752936,0.226053169710961,-0.325822104068722,-0.624146004869184
0.801423181298722,-0.849865504667464,0.35342431145628,-0.515608444467781,0.990245705004574,0.771604749693656,-0.0340890366359059,0.643648976283442,-0.459701726241289,-0.269870887228619
1.01552271636554,-0.543615398443717,0.851015779609475,0.454943048211323,0.268497830524063,0.125612887587887,-0.365288710717669,1.40898528356456,-0.726116587228672,-0.190361576737312
1.07232977799321,-0.265945040055682,0.367655264792483,-0.060500736345849,0.706600488910197,1.11367416808926,-0.101743577969632,0.783538103529816,-1.03848569166582,0.244498121596202
0.908434182690143,-0.264046892784212,0.351436762361444,0.178514132266542,0.577033503405229,0.605363211128125,-0.161173084491921,0.340778267927544,-0.496385953177495,-0.213450654083066
0.879958374501925,-0.357603765693121,0.518600616351771,-0.215508691969769,0.387529155401644,0.660727116098301,-0.328031386371144,0.334949768125803,-0.972873594196213,0.0213619464283261
0.642780685865187,-0.330295984034175,0.324012609746006,-0.280297126872801,0.0200489758724913,1.45700933699242,0.24756545419112,1.25102646939513,-0.440335392339394,0.357305848314129
0.626027473909977,-0.636630452369899,0.42055655738935,0.30582487272355,0.470677992957226,0.742223714987756,-0.10930374784931,1.23822331633457,-0.891151665013814,-0.218535718531958
1.11552608265636,-0.381561297579435,0.195892944559091,0.595335140198898,0.593643442678906,0.411915852909874,0.300158154390845,0.839253621987365,-0.9964846492635,-0.330571827908609
-0.0201264179572187,-0.769095373484885,0.600599703148092,-0.076188326708001,0.523893096266167,0.989875356768013,-0.373824924931765,1.06740882553032,-1.26223401374829,0.0445896612291351
1.20440987605387,-0.507894988932611,0.465450167940425,-0.502268252698199,0.416033576492417,0.454938904326926,-0.352905714202675,0.435747970758623,-0.758638838996531,-0.00369617860808217
0.77218711676155,-0.677527035305836,0.498692028506545,-0.68218729436511,0.230752101384869,1.16329372968784,-0.369174872074684,0.918051390145988,-0.330038439045197,0.302296555107991
-0.118181644000827,-0.427578668508398,0.683087672237818,-0.791180463868831,0.172734434650581,0.493308204746054,-0.189756518885007,0.834431680956968,-1.16577255070951,-0.728898828085061
0.323815478870403,-0.300357250381994,0.39860909289412,-0.983500879293218,0.639669360476832,0.867899561066366,0.231615460390394,0.944408834577979,-0.744137702827642,-0.225845122173906
1.1313543629812,-0.337928155138793,1.00915292639998,0.527886730318003,0.0277204048382779,0.564064879910655,0.0853307864152676,0.479301213631421,-0.458375742178772,-0.474977299032076
1.06309769772366,-0.367747654326665,0.625262857596903,0.405228208463963,0.545489421013953,0.56291552421275,-0.1447577882462,1.04658566160699,-0.800015409904096,-0.207163825020867
0.506970725897994,-0.498832143359655,1.30246006677345,0.517908641044824,-0.120306645657982,0.829610970852152,-0.356178415929188,0.822038305353297,-1.31150200711228,-0.0322826799092635
0.564906797391101,-0.419201939424111,0.369741692793213,0.596100759171008,0.0228096083872395,0.468615967403347,0.595077177875422,1.47284340985626,-1.06199627666041,-0.267003476339559
0.577769762285547,-0.466281618561007,0.874013768434093,-0.0717858998682311,0.278480696120054,0.620078002910844,0.523368940444612,1.29524029237096,-1.36841167743562,-0.0786892356143541
0.667425633549136,-0.156874000999234,1.06820807666511,0.228237854490662,0.904511786752121,0.789376817154467,0.285983887341488,0.817854075817114,-0.722316165723987,-0.165253028321899
0.371440805063026,-1.22320181621174,0.609881827457656,-0.401530187826762,-0.0723391343896879,0.796535291739825,0.509873997449195,1.37247530065922,-0.923442209153828,-0.089782335107382
0.0914729128842908,-0.245106526802296,0.521442265083824,-0.064302239624333,0.0441242449175865,0.618309788342005,-0.374447063085957,1.20668139038172,-0.901426649110851,-0.372517067178091
0.838713840819871,-0.327591077889768,0.30960964685511,0.300903629366235,0.493246201660006,0.898518928452408,-0.484202302603503,0.280564053267817,-0.569781271411647,-0.792163443797353
0.373730500891603,0.183322485649011,0.1012641177519,0.252770293132923,0.221422034322154,0.466802404802497,0.322377407884076,0.429303136358424,-0.464931998059706,-0.252447822779504
0.232412513550658,-0.105125435754207,-0.0741573968098375,0.107705168205901,0.0612591456697607,0.245352008445824,-0.108564450405114,0.430349842363098,-0.273555088697229,0.211765194610142
0.573108623343574,-0.339561982913565,0.548500134900618,0.147442020804121,0.00414485415482034,0.676118302163705,-0.251990832021927,0.618327505265348,-0.165306384521776,-0.320492713991051
0.526655582942615,-0.61884194749156,-0.209357474989518,-0.0175966228672077,0.160130311923846,0.435090013038069,-0.632495088128302,0.948196691700692,-0.641815012127878,-0.599567208258365
1.0903169188307,-0.571658847509313,0.126179288629703,-0.331806212071715,0.593298610178913,0.744490115390751,-0.0709347450693928,0.762006795442086,-0.670719433524982,-0.298802787143121
0.304292388037007,-1.10756324480223,0.836537485884632,-0.118109257234232,0.646125274178175,0.553787230411515,0.216429162524149,0.364848736149804,-0.464863514771219,-0.596997582974451
0.535128768703235,-0.885362958438522,0.466751813602711,0.196118323188401,0.366564094524086,0.869310573869981,-0.935344163953353,0.704403506826889,-0.762210561267085,0.295491055732469
0.63246189097719,-0.0188181726135177,0.062787161694069,0.635718647333125,0.19970238403186,0.571153516859626,-0.0634610708088664,0.846696237672701,-0.190192827842992,-0.306912133276342
0.831649369332486,-0.11250417618968,0.284123058246561,0.131175803884395,-0.0522543888290174,0.684180640100283,0.258766858548208,1.12001854617161,-1.06233289831015,-0.0736711032457951
0.900496552601833,0.287227732811849,-0.149818362709556,0.138868094584621,0.17774365915564,0.595107409179889,-0.336515162105855,0.60118210118663,-0.243752092821423,-0.30347685291903
0.385850257217878,-0.721190878394091,0.0320772560075803,-0.292829693869459,0.385364082277256,0.797576284826338,0.111772062777304,0.988456713045986,-0.793018719336601,-0.301562002495926
0.493723175965647,-1.04279490375838,0.388687047711091,-0.142725087556359,0.165756659968617,1.55682537997169,-0.0646849404637141,0.640271339369203,-1.10185017883412,0.232472205481725
0.28756325703652,-0.842352898910758,0.318333926645488,-0.0615988810083688,0.225606127450757,0.904183413672745,-0.528921145155027,0.555414835048276,-0.876006804166903,-0.453434073853243
0.62834996079126,-1.00492826751988,-0.452254007193182,-0.49548347646011,0.311281495624939,1.06618447102354,0.0607397049710575,1.16581411389881,-0.811476961353435,0.355156821542615
1.01516010206739,-0.387207876108262,0.509056509311502,0.234709069686954,-0.392613850242361,0.481446194611431,-0.278301200408062,0.619617965543565,-1.58983577311957,-0.574014268540612
0.977461481502068,-0.218239506784952,0.603088864289963,0.753487811216589,-0.298423711650925,0.113804636366784,-0.30899691490213,1.09269923599415,-0.839360821816594,-0.455365720495419
0.0577937631673507,-0.569621024670574,0.297020238377934,-0.179838895020775,0.593964963246016,0.878292445430112,0.0762526229875931,0.758763309210216,-0.747514529943179,-0.163474199141544
0.546871369989705,0.0487917523338882,0.0538063248148059,0.139043520879914,-0.755756826019484,0.459578295240331,-0.205454875924825,0.754929518074511,-0.670165109265031,-0.310410432501772
0.884469767821525,-0.496305225436262,0.248043163219226,0.886443280084647,0.152846443951135,0.29429444707744,-0.774951865045774,1.1520693709573,-0.935274467730544,-0.361206204675637
0.68833896991379,-0.592033082183086,0.917751487500233,-0.961267064203224,-0.0788789965817252,0.348235070913264,-0.0518115149946395,0.397046682897855,-0.253053998031138,-0.120516986807654
0.715253401321841,-0.165124220208482,0.702407606804187,-0.142052435687568,0.154707176413856,0.404895829795745,-0.735278255124485,1.02008879976852,-0.802858356606058,0.214851168810696
0.469042922227008,-1.16990610825492,0.156080467879812,-0.170529222020549,0.510233181294442,1.29647763124448,0.509092515792453,0.985250334931435,-0.730498809639969,0.288792215125555
0.987891166440113,-0.470300749164632,0.0726654974205412,0.555176362007617,-0.12014264326387,0.373680230194219,0.181208795132825,0.898975674540839,-1.20965568514636,-0.746317592035006
1.1441456056228,-0.588878153912109,-0.148940175275602,-0.023076595211371,0.400893957824126,0.289432442060475,-0.0157120283405975,1.24171242947572,-1.3050199495376,0.141919639236205
0.25347471045858,-0.662578301380774,1.17224688844477,-0.455095027850778,0.167727029957489,0.373299538519996,0.393375281617043,1.75960802784652,-1.03907474482141,-0.110588190328405
0.535344694921012,-0.693909330250621,0.668370345648763,-0.532043683256624,0.484194868700802,0.83363484942296,-0.707566500242377,0.403983524766814,-0.806842127862799,-0.123475803114405
0.388333109794996,-0.692792110869806,0.876277362193802,0.00583286148559625,-0.205813611063316,0.729234967800644,-0.0195512592249877,1.11953664185447,-1.03598335185856,-0.123480049878023
0.0861399768819099,-0.356156467319984,0.220360308042383,-0.238253310324284,0.309522858505236,0.730043306709347,-0.225672815582612,0.867359651903121,-0.240008592914164,0.286823024479799
0.720473609412466,-0.0735234783674757,0.390473759914492,-0.560784425056406,0.761117405224333,0.864814273209405,0.735698168828726,1.19674429738556,-0.529472578975348,-0.00692263944181978
0.668115272163241,-0.402237055221445,0.836538422132937,0.217861563968152,0.805002707368142,0.996342013925156,0.350632835497929,1.11296327106526,-0.627437045552251,-0.0794294884399842
0.463354415301705,-0.0952477632505759,0.714212090008763,0.620692847535283,0.328438557377674,1.23363181570777,0.280596950416725,1.40796000856219,-0.254857822363046,-0.0322657667162227
0.163275176487615,-0.840192308668596,0.676826373612188,-0.210184570281507,0.425445474117495,1.17263269678976,0.0954056532769127,1.39972965270846,-0.550842394579538,0.0979331701129064
-0.190401539861715,-0.853496543070686,1.16287586622531,-0.091397872400718,0.404669970607967,0.645170863648693,0.249555777978024,1.10665956121587,-1.14535851190267,-0.128700232048534
0.667036212618464,-0.345828401674016,0.610699059888824,0.0643332530511923,1.19325513778121,0.584283837915239,0.234475814221213,1.33461555538831,-0.662728533391363,-0.375693826864047
0.400484302988701,-1.01823433142401,-0.0787152142495558,-0.720577295747531,0.878810968585817,1.06645884610092,0.303367901381066,0.945483098439992,-0.552813679664866,-0.152207469791294
0.669671997297598,0.34377238391105,0.367814748772889,0.216558237357303,-0.0440891978979008,0.590274412609502,-0.420710670104726,0.83503471735188,-0.0122600502003668,-0.511381679142007
0.35828850980603,-0.136350172402411,0.618422092291048,0.315064943748184,0.343301588466035,0.714028025375497,0.344584737916219,0.380007606200643,-0.941277267821369,-0.340338037421977
1.02826248061049,0.263413932479113,0.431031614202901,0.267468189033834,0.328492146738762,0.768238984477256,0.071271502419026,0.657970428988601,-0.339921982615188,-0.696102127469787
0.496363359762673,-0.192883854601932,0.533990075660054,0.183150591625374,0.634600114491608,0.782486584285684,-0.00948189876479051,0.990067610537748,-0.767584388680583,0.0215702233933558
0.715530520598945,0.0194090580335047,0.00479670707900527,0.263225199155022,0.836325293758766,0.643193885333261,-0.0880322344024025,0.904987368593293,-0.550573228391878,-0.246215224524296
1.65853756710236,0.369922104530973,0.719610264354437,0.146740846293603,0.687921098173789,1.11902471013429,0.51402093538577,0.897832425589143,-0.28455106746785,0.210193303661207
0.729599150756133,-0.815966843200386,1.40541748795265,0.399638816565151,0.0839354564356839,0.310965993603173,0.0913582756356956,0.745526150497832,-1.26041769405084,-0.413811503654863
0.263706917300633,-0.0218627184689767,0.337293340063829,0.380555886359035,-0.139039235372179,0.849419509760861,-0.652667609430951,0.562771702049731,-0.658937844226819,-0.27850054935639
0.31044597970758,-0.640170419629483,-0.0712936392188128,-0.204112207226324,0.198276944316559,0.576376542156857,0.352092537389414,0.513741822024853,-0.757529910858362,0.12643684293596
0.636784531850714,-0.395107077716473,0.65022814103224,0.16282385112883,-0.664956047663915,0.835014291837501,-0.373538514748157,0.846315869935274,-1.09114929552865,-0.186539525419289
1.160687087392,-0.260608412069409,0.0303608012790132,0.566267004040885,-0.223235219986025,0.542076096965596,-0.404564001382593,0.939936637492237,-0.865838296878804,-0.161494391376832
0.189975663503178,-0.24698045506243,0.453880917467545,-0.556024227654317,0.14068795620678,1.21341210927946,0.371318055448446,0.810984489055088,-0.465028596499961,0.153377406580641
0.561250107070532,-0.834578950685652,0.772065691020943,-0.84048308517214,0.477120819778099,0.176316267673469,-0.277108797091651,1.03630969251698,-1.02665211949826,-0.411017790404979
1.19459231321654,-0.113379025866462,1.0533366625666,-0.654627814658012,0.774207401196168,0.998641388650527,0.0427734806844958,0.466229282427828,-0.791069421750741,0.196181296380918
0.619591971721045,-0.681949803038278,0.549549330993042,-0.138077201992671,0.501784975024526,1.06948888055984,0.561025233021343,0.0923081249155183,-1.03388315999065,-0.64633971120014
0.878156550919002,-0.778616517066012,0.842961706938101,-0.00622727697396229,0.564544440963043,0.988180662343985,0.339461717868798,0.285544292835687,-0.987247375187507,-0.347220328727761
0.307398030004251,-0.707640483638874,0.517331516340187,-0.437662729991524,0.914879579555501,0.891146449850595,-0.0714451317680407,0.509566667619564,-1.09985164270864,-0.336315177405143
0.955236210492842,0.41908495621247,0.0937824168355314,0.623538107362576,0.403339494847344,0.591992887459209,0.386202667029302,0.872334903683278,-0.831795044040106,-0.399337804901781
-0.0834167946903132,-0.606008347085475,0.801643662257453,-0.946453307428761,-0.0594205580483125,0.533491171310167,-0.166004930666323,0.973061066287331,-1.49180761007965,-0.391556211944161
0.609836818819549,-0.659649416203634,0.578951835766277,-0.334247563080526,0.481419704937005,0.0640727958193481,0.0153315678873636,1.28229423024235,-1.00648227109124,-0.450025883420256
0.774925039167432,0.0878508269017435,0.485514868669227,0.140810520597941,0.350461217632505,0.314794697043793,-0.0645042999360494,0.643218807467915,-0.627144856742373,-0.393884768805066
0.649709998342352,-0.226495407434051,0.688969628146147,0.309480048248015,-0.26620457776995,0.8019304275599,0.189709190803769,0.762010498066248,-0.790402018439521,-0.579408168065028
-0.252998397181399,-0.3570415256525,0.349838277438779,-0.693227293100846,0.154504878924896,1.10407915274937,-0.40365101636296,0.695517384879391,-1.11635761600289,-0.514763388520489
0.93653663516525,-0.283031704178214,0.414796589155766,0.524786481750565,0.0433588497930259,0.277075993925025,-0.151575516296901,0.89850310217226,-1.15509465339633,-0.732973182106115
0.62048322217378,0.0532724801903221,0.11781865354976,-0.115044336703397,0.813602680332549,0.449139057897229,0.655457958044033,1.42364436615088,-0.737949815152423,-0.300813177268794
0.394106548951157,-0.423350177546258,0.481307655424402,0.283994135943757,0.601775327640773,1.04634679548166,-0.325544264140156,0.736267319490744,-0.795222299405661,-0.137884707667084
0.936961364214575,-0.422960504688684,0.608412072692638,0.284696326704332,0.410746220677228,0.634643949809069,-0.17809733166483,0.873421783269256,-0.873636076504695,-0.251928549160618
0.391026806191178,-0.513174451999529,0.273324151929037,-0.0161586332424345,0.674819497236091,1.21903110115873,0.393786159141351,0.816958483310753,-1.00133079903951,-0.037572552319614
0.421367514444325,-0.810064272614348,0.380671592118771,0.248012968087165,0.542227379632469,1.11527912681959,-0.048447180262903,0.920582367432378,-0.951229720141025,0.0240780012477089
0.482412557591635,-0.0859354196186813,0.385000785643469,0.347855727356632,0.123793216556597,0.888585189601873,0.0512066953499189,0.921309362905315,-0.450767310717471,-0.423998445330483
0.412032368396656,-0.69145437705008,0.685180140642676,-0.260368398323685,0.959924657293295,0.983446232700393,-0.504123487431087,0.667808249683838,-1.15681081813541,-0.160528416501806
0.738663414893305,-1.19180623869391,0.474880157644674,0.0869243367471179,0.587966294756053,1.24845827805981,-0.249988329260012,0.83963510210683,-0.895221825747075,0.139803759893679
0.62403280753857,-0.572732169365948,0.088180164018983,-0.0233949084108791,0.392368176758832,1.22308605394666,0.556883534604206,1.00677670982156,-1.06210424277945,0.173962585829125
0.33761060092782,-0.997673043626766,0.413708561650957,-0.64000980322771,0.84020624151649,0.901416600537039,-0.382894149542554,0.750705664506255,-0.861080946390006,0.414406470378528
0.75938719586713,-0.960934033144772,1.19324457263152,0.429082488576014,0.520891058024681,0.568254414788739,-0.460338018672326,1.23442364553245,-0.956909691080118,0.516162672637383
1.32394307120321,-0.748489722448436,0.7925991112674,-0.145538460323695,0.837828399566318,0.821034423781305,-0.41423013438832,0.442760862833191,-1.2877060890741,0.311875785012281
0.885497377964568,-0.884773465631995,1.19140107759667,0.634802792249469,0.387622130728101,0.587941542452911,-0.144660858919137,1.07544543799767,-1.14091631960003,0.161949476928627
0.0446642465805839,-1.01705802619822,0.482937030635593,-0.840815195386089,0.400390201104586,1.32466771371804,-0.205375356518855,0.32778277698878,-1.00716011510575,-0.20075745183325
0.484898066317211,-0.54891532347306,0.924185551229578,-0.0397730808918738,0.577590810160245,0.388645282169354,-0.546532268314602,1.18495934223726,-1.19840428065441,0.0159613806955344
-0.0848538850312714,-0.739002649878013,1.04332559426244,0.145251024781473,0.57166405166463,0.720066036335759,-0.271680890598723,0.974925285775972,-0.808117608517198,-0.752918433964708
0.507155967997811,-0.529472660134426,0.671007575318453,-0.0659041358354778,0.902592009136672,0.696920286086733,0.286947669391263,1.44787607119428,-0.903811454700765,0.135422570815667
-0.434704600180358,-0.215908850336567,1.01799097823465,-0.899198522576171,0.383752292207731,1.18099261113365,0.0377847219837122,0.621195890792434,-1.36929974199482,-0.29276193836865
-0.113168091179192,-0.462581745829284,1.08915298028407,-0.528313110056378,0.245471999170353,0.634162495205954,0.364797701279026,1.12078776909431,-1.27632208544365,-0.562254002746677
0.924728924656346,-1.14979940053959,0.813132640924228,0.609113794809379,0.365245875615166,0.487768089278256,-0.732070280312366,1.24644706590193,-0.953524397370473,0.640553413962531
-0.0570995863832212,-0.606425555704093,1.3929968540051,-0.386255817729061,0.264921227104497,0.605834767886512,-0.0803372848384903,1.11566602752056,-0.760339820639365,-0.744047706836951
-0.102533271786877,-0.634666991787312,0.970263647016225,0.110474868170067,0.714943527240606,0.46893360533835,-0.659741299601507,1.48084975547228,-1.03314857570941,-0.0796833342449338
0.761976212670654,-0.584225034019931,0.946525009892053,-0.509524400748171,0.340956928784077,0.733889536426656,-0.994839329017626,0.325780091096032,-0.892499472539478,0.26689564458442
0.254935407317967,-0.49192748013031,1.08834579576815,-0.155520985874852,0.665703222125,0.76895519944281,0.301274379447282,1.34360596879196,-0.504494829231138,-0.574309594571004
1.02146114965085,-0.791321045062363,0.871114345564433,0.0914008968231029,0.207318300556371,0.5775356780013,-0.178622957917859,0.591845865508864,-1.35544448303654,-0.131116798649443
0.195759098500912,-0.719869776557616,1.32329437526124,-0.242661366079753,0.248419697632056,0.425323139534952,0.37719447247838,1.32220753059518,-1.0214017546115,-0.369958189841052
0.0341654352485242,-0.343387992148791,0.888439673213553,-0.293087472825431,0.612882351004928,0.444806025354006,-0.341092544163859,1.0635507528418,-1.0590509343898,-0.563972677755093
0.698880917876822,-0.543991488162727,0.399325239788202,-0.184277194106374,0.595410418794272,1.35876674532575,-0.26231693895354,0.773501033110157,-0.711725394361039,0.0102110341194823
0.802177898016139,-0.560661184411791,0.29378675897034,-0.107315997597399,0.660370504898893,1.05169190080378,-0.00409205707890947,0.99585497215913,-0.992529959920901,0.0418269033960699
0.749544206012507,-0.575355413498423,0.745592029616582,-0.0974982569557565,0.556405330402265,0.822100596722543,0.232465496403966,1.37354704970028,-0.691858362326637,-0.0655285740495175
0.170847277251539,-0.60231230951997,1.18533913727949,-0.669602824788975,0.482038225806166,0.395590113475576,0.648166706338599,1.33971850260153,-0.588340868110596,-0.444204375930895
0.406077850809649,-0.581586698679108,0.790032039210411,0.179044141643008,0.337441441591447,0.677074851076251,0.380812831192481,1.09376835587021,-1.1029990084493,-0.180813234881403
0.660750730349992,-0.516254367317476,0.583030107692445,0.251707955500371,1.14542087921007,0.657062955319851,0.0647773308436081,0.978958802476133,-1.05688828695389,-0.176899344731804
0.245249222025464,-0.374737809218619,1.43609057884858,0.367280780635045,0.196583585023351,0.672472149253803,-0.48898577256739,0.810753532403023,-1.43740567573263,-0.0073450455064428
1.00189675521556,-0.380357486030866,0.154201547692214,0.0560552436096569,0.571057965919484,0.754881506806042,0.241599253692104,0.936670470524646,-1.14046465279435,-0.384531974629911
0.510905190501462,-0.672736880299069,0.681418544308454,-0.26676800882343,0.534338294784027,0.664828286186247,0.89675384825887,1.29639804863786,-0.736561963717713,-0.45593361241074
0.452155270302216,-0.603655067401705,0.5204352286543,-0.404168470939271,0.215015038754404,0.983455599301968,0.0108295599585087,0.795926723856584,-1.33788913115731,-0.0900234098542014
0.162707946373621,-0.898988608586097,0.586045627913665,0.271504906978107,0.736790385467542,0.678415443152128,-0.25778943642507,1.42455676917737,-0.917392632300769,-0.235171994806685
0.28350758656781,-0.016365200986409,0.821015709922617,-0.525989833934219,0.803217085419108,0.490557385224719,0.000545086951818954,1.26227261181128,-0.891487693263945,-0.583265601467108
0.725029482808321,-0.497865231959691,1.01565432335311,-0.688959000099459,0.410856350224183,1.06321157474215,-0.734593453639162,0.585339008385071,-0.275192547996906,0.188908174662273
0.613883413035989,-0.831311932425435,0.861831896670478,0.540533351163949,-0.0590788627111162,0.950374613598712,0.23238685377229,0.776477463327844,-1.0318721047919,0.0290929868484153
-0.121111011590666,-0.713440016596444,0.725998354238329,0.022171993207283,-0.119441744121797,0.795881155298501,0.0972891965616956,1.26273122822975,-1.23718241268443,-0.141546689372815
0.951737709326538,-0.583366210977501,1.00233631230676,0.494645882554411,0.0609770454200294,0.597871936433134,0.054752713547141,0.943181230784309,-1.05678702210995,-0.171656915115002
0.307480013794426,-0.4532836846479,1.14628991176921,0.145674851333594,0.373849138476769,0.662944797116338,0.040192418180472,1.33766666126739,-1.02225845572698,0.361420277497298
0.365745131638566,-0.469783931809888,0.495285946131848,-0.294089885032357,0.55829797355979,1.06908724825868,-0.276661869345398,0.585450443279239,-0.762066883977705,0.0827076986340821
0.55327904538186,-0.423878372174316,0.257328430207465,-0.226405358373134,0.411263037269276,1.48414982908408,0.299704518154621,0.570234861055129,-0.886882368052144,0.0596089118337925
0.880033818809819,-0.475910592914477,0.764561156180025,0.0167510389268046,0.270383247243574,1.26227229785884,0.339090493277405,0.603746993914033,-0.876126406996517,-0.33391735982525
0.209135978232783,-0.57570870511309,0.832370128749022,-0.532639246413061,0.675519443705197,1.04325715949712,0.127092612743357,0.403371750004702,-1.28580390110018,-0.00228781075404303
1.0989050148746,-0.668114000063543,0.836986733579614,0.438128973316603,0.228145350800231,0.564623923524241,-0.398290559667144,1.11774232886259,-0.866957643675045,0.00343419065122333
0.251495825719676,-0.568484220172205,0.557887575846206,0.0101935349541884,0.60775154041201,0.612622987599715,0.132702498568014,1.29742906935549,-0.961572264277803,-0.532799463668412
-0.141899823971628,-0.598509852699957,0.26622636453235,-0.333936811841057,-0.437025847737999,1.4430065031475,0.928611394652018,0.882686372254961,-0.477065206893661,-0.272292066253741
0.695843643233033,-0.155264099587561,0.143777253577692,-0.131967178851442,0.624037647554837,1.21095554180019,0.489253442375091,1.22821990248402,-0.654536297427677,0.308771399311295
0.610908843030373,-0.645528518827593,0.532899359039444,-0.493981860236059,0.717400166412391,0.494920087180263,0.247379076132009,0.242933339515465,-1.31153782902814,-0.574916788586401
1.05698296715741,-0.735505917690031,0.789954656452315,0.489520854265979,0.299882515685398,0.281705995911339,0.431727860405264,1.07614910926082,-0.811242487523951,-0.309326844083342
0.900395563555505,-0.142777205099251,0.568970188343776,0.0893863879904158,0.491660626952874,0.701451757376271,0.538296863122626,0.987484912239052,-1.16128196116386,-0.240715425722626
0.668829074250464,-0.0170188546468784,0.0947637643194304,-0.46742525477271,0.179707602438137,0.652345977823494,-0.343655563707037,0.969434568032866,-0.941300686820503,-0.141186997546985
0.715251879159428,-0.0499421841837167,0.782626126260102,-0.267307936469726,-0.318447424617037,0.601846946372205,0.135957662514536,1.04954044409866,-0.883201568889246,-0.453847631095421
0.729047040721038,0.104653966823308,1.24676303588388,-0.363672795889383,-0.380100103625409,0.388013093767111,-0.468906741356362,1.19685703102578,-0.67961341939836,0.143391509800407
1.12803980297754,0.258873853102648,-0.105726303530579,0.712591442681472,0.288742927315287,0.346878140492157,0.0885286922989543,1.22538050835639,-0.820999328773954,-0.00998977482906945
0.445468144265526,-0.645346296366422,0.0958942680539453,-0.557717987717471,0.438426490720533,1.12219163661597,0.795327973521392,0.844085094713951,-0.55809190358974,-0.151832043696612
0.585850157327289,-0.481012440236616,0.669268237719469,0.655054149640431,0.0419346092180348,0.635683532916677,-0.465003444680986,0.907151832779668,-1.48710898906892,0.384001255383312
0.737193707015081,-0.938923861175412,0.550491899635195,-0.0384963097619713,0.257318346351791,0.981398129039814,0.0232546264518547,0.977898058588547,-1.04513696304942,-0.104861064038613
0.359373682971155,-0.72676578907423,-0.0595020400560033,-0.384596300328703,0.514272771144288,1.0425091210143,0.0323599060951124,0.762031051032016,-1.16465256968124,0.214446774482134
1.09861560557453,-0.133582307274532,0.228669305079745,0.234020291620852,0.213210665746513,0.607429599744254,-0.0526610163104918,0.799081811861624,-0.262192682248485,-0.504133441460333
0.316156424231493,-0.583613582827591,0.840067861332222,0.756303983148599,-0.160885791006011,0.628937692985274,-0.572356631728233,1.02574968392103,-0.539271112239132,-0.569259217956069
-0.00413182517314013,-0.445389290437597,0.704320901917091,0.847117934525364,0.22856351679971,0.941542939853059,-0.330979021575443,0.567758258266128,-1.02710152586835,-0.124940876514924
0.135052645263455,-0.747664878240661,1.02739123515974,0.750501996834204,0.507781173403709,0.892152842336982,-0.440118178136386,0.603519578467756,-1.25432976027126,0.134886330122977
0.163945218086822,-0.55787013485937,0.540838351542329,0.82112727752298,0.228910758921871,0.88775017628977,-0.180511208971873,0.705814978931782,-0.622085094059814,-0.444727474138349
0.19232664313322,-0.38725119723674,0.843413811199066,1.06135242707784,0.158476813583318,1.12567563676685,-0.0926535380021841,0.464386787934034,-1.13783039601042,0.0367566046027848
0.591482637928118,-0.386089525924906,0.255618843652387,0.0420760602248438,-0.366361635928136,0.695670654209975,-0.0975990566306406,0.929517156411909,-0.471370574269962,-0.237471274649556
0.688833995999802,-0.0925223031705894,0.696366709092006,0.163448922401629,-0.00942098181194207,0.237347623585629,-0.22751988847239,1.11798513195199,-0.990315884005148,-0.185232708458761
0.34996719061896,-0.339190077644614,0.804877485278507,0.547549373875924,0.127492808278234,0.692675608177865,-0.582427322085425,0.826660556074886,-0.60882968522643,-0.541443710189614
0.639344596984882,-0.346336173210753,1.2462971309221,0.0210960404104766,0.46234066852446,0.258090765706879,0.030128228720953,1.38975538249822,-0.703017088588445,-0.200850396215522
0.512794875392589,-0.548507633638731,0.791567274278499,-0.388898035714416,-0.539558945857695,1.24401766097683,-0.05887224975996,0.186893743983478,-0.767646119329277,0.122978719516346
0.616735015364953,-0.017311096607289,-0.0520284870359827,-0.516044049192902,0.522796015374354,1.10210744087074,-0.0576884134752482,0.975538408736258,-0.719611133685134,-0.419204813903834
1.55603089483415,-0.460952030326227,1.25692006986397,0.144186415013016,-0.41277071319433,0.424033897003527,0.781704072399685,0.816603398773736,-0.799225021094421,-0.185769962349717
0.588964084282683,-0.621004762073594,0.866846340863799,-0.91323295922581,0.308044976491968,0.885145698045875,0.351264896710248,0.484076635214432,-1.18156545307856,-0.348843043143255
1.04007871024716,-0.877353967771299,0.224766710980909,0.289973385266156,0.251369824885107,0.408756251695037,-0.290602665518344,0.765709934811343,-1.10887401271248,-0.294997097917843
0.169341866812809,-0.401615117261389,1.0590953706204,-0.890858781973161,-0.289041973198897,0.595578463752213,-1.11677686785994,0.77813830838174,-0.229526140478872,-0.285627490917434
0.652198530069354,-0.398174238700935,0.106264833656346,0.393214914894972,0.118769926093687,0.669604735533128,0.0217626850712364,0.990558878479509,-1.0771799716045,-0.576119188747888
0.469458205773638,-0.230365089105651,0.219121453708062,-0.53848700841401,0.072610993050409,1.51799376394423,0.53137079870201,1.00882239773642,-1.11163670007995,0.568505907877769
0.662614378147004,0.242694604942372,0.234953487555314,0.73990882599266,-0.511883660827863,0.498603842379981,-0.346382342584052,0.88196536041959,-0.467933618802989,-0.254061792511208
0.91309469542497,-0.367682226344368,0.0813049696482793,-0.458942250973739,-0.0480116835750317,0.786750059870952,0.056674576266603,0.802503781738533,-0.543122813715424,-0.443542179840735
0.484935830865674,-0.636748647314788,-0.279403268346084,0.512627509769089,-0.703009548069498,0.518673570519032,-0.0254238952552345,0.945245136923876,-1.5394574394043,-0.00144802415404735
0.420085332497742,-0.989536506695564,0.196409902407236,-0.487241306402139,-0.224701605578355,0.708874452469408,-0.134941281833406,1.65078604834205,-0.661786914830856,-0.34634794809007
0.860854823114558,0.0658411155743959,-0.00914674816058527,-0.0440774525754137,0.319381846176668,0.16319890815306,0.0708417037974021,0.132114773332189,-0.168010581754291,-0.170176138217364
0.676566357997695,-0.593714406090067,0.157961046727221,-0.466842460126522,0.0918138722140492,0.968649009765992,-0.340716669971839,0.821765505489936,-1.26503906293242,0.159753684312586
0.958788309444171,-0.694526866720846,0.707618542483408,-0.733015265943087,-0.251148512774536,0.439492821613131,-0.692984707787415,1.03547707695761,-0.380047242651026,-0.0854471554700016
0.515823317358747,-0.875160790024619,0.585108487833435,-0.0530869161989027,0.100386820924882,0.748587427888295,-1.29878479776066,1.12675320396946,-0.485954613673758,0.342366283864667
0.556650581625192,-0.286903963281206,0.385787207626115,-0.420751009017772,0.467184349466622,1.1695229344997,0.136734951127104,1.19755090096445,-0.954427220029522,0.332215065574281
0.961146272670761,-0.389524953559887,0.264281383217097,0.476956713056805,0.0387559556805196,0.3897521407027,-0.268503235768916,1.51236544680867,0.233191509057998,-0.404048636092228
-0.129509753910586,-0.441651350983469,-0.0929788032758816,-0.597283606514578,-0.0983592015904645,1.36316935136053,-0.517666967512854,1.06952540059574,-0.849258132427042,-0.0712190791394384
0.914693841200409,-0.214006453372207,0.217441591533386,0.355055539874499,-0.243856574778599,0.751196588509717,-0.294812184239257,0.528539599054603,-0.163220110816441,-0.313589371230564
1.23601504518521,0.175007323122626,0.660952656840996,0.342838591176601,-0.366712128697349,0.844501399549209,0.408511628045587,0.72491088421463,-0.807277627559895,-0.306839415486895
0.24788704930485,-0.629182425424726,0.299384022531914,-0.45617305938514,0.499729924032595,0.921867024086895,0.0800553782812916,0.912833536475804,-0.572218391899316,-0.226338568573215
0.638104590416587,-0.892985286298423,0.800554597947617,0.581711835097804,-0.0553607639149618,0.713351961262742,-0.375280320331874,1.16427375346317,-0.790918619902063,0.0902823757967825
1.24061821046204,-0.847143816281812,0.102145300495848,-0.0580626085285422,0.291832480488961,0.102399239387704,-0.180394730887638,1.35893834925686,-1.38752758369561,0.466935855229047
1.14817392387421,0.480506355670727,0.973005105085068,0.0771619518672638,-0.739467500828762,1.34591419048763,0.120376444532213,0.247207978821742,-0.505194747623241,0.0553131938446263
-0.101785564119861,0.234440214047639,0.92383615181725,-0.435555423441727,-0.539559128339948,0.514941828205152,-0.93562360159746,1.10398368000646,-0.737675614556307,0.358440718523002
0.161963281808475,0.571090447771776,0.304722957020979,0.28965850262224,0.0214650948815786,1.42232580754146,-0.13606167537319,0.707909212689455,-0.211877702506475,-0.713575821762231
0.317413156710252,-0.684187510103378,-0.33465934120339,-0.771722611380008,0.261966904618616,1.09942168258118,-0.109840213298247,1.53250653122074,-0.551811582851459,0.0964745457351992
-0.0261546650156342,-0.371652559432233,-0.285746288663015,0.320120083268026,-0.473750097167454,0.584296633907296,0.127979208309218,1.02291185622407,-0.222996666421328,-0.568654990512533
0.54385122132204,-0.534578750460547,0.476763252437255,0.718615854346209,0.0760901499717952,0.547142177775292,-0.267376918482382,1.07589037745464,-0.49491163577283,0.309294713149617
0.82176495429914,-0.535346987277884,0.510996629944712,0.645419608684803,0.375399713786725,0.524703726630056,-0.324165382563446,1.13277589017019,-1.05998839772242,-0.207633648631005
0.274366898409689,-0.201542854647577,0.0832125673318696,0.257067200059106,-0.297680604674086,1.01524974487928,-0.661533592830946,0.928331049785911,-0.181028993063868,-0.750500274800383
0.733087980498651,-0.669416253406471,0.343400065780941,-0.116006869762556,0.0840182015695926,0.613355331393813,-0.281731168510406,0.828231396094534,-0.546369551941372,-0.193267728338972
0.781701564853213,-1.08479244946582,0.321661045797567,-0.948869279291517,-0.502740680083661,0.651777112815305,-0.10473784994395,1.46045508374585,-0.542279399324285,-0.273630715421251
0.789296426860354,-0.401947865530374,0.410571405568766,-0.753081977737915,-0.0107005717294281,1.00306041464373,0.381966986908527,1.07563176456036,-1.33705503662485,0.716338991535129
0.56800379616701,-0.388633851790277,0.863687292210947,0.192782667022112,-0.282723041032202,0.949489261962142,-0.466174950262242,0.993535735955989,-0.97737734487152,-0.0671774901566275
0.0497921850060762,0.291668496261202,0.712788626724546,-0.170588812211811,-0.184029393442873,1.09928038757508,-1.27829920543728,1.00042111688256,-1.06003446772797,0.406437763232578
1.22813012894164,-0.46204705413589,0.540977384921773,-0.247234558143431,-0.00584209189803681,0.407928337259977,0.22515239833776,1.60414733305771,-1.40887954027624,0.506095975367518
0.502003242142871,-0.378644032420104,0.544058238468901,-0.466797937635183,0.105518941407977,0.289719731118568,-0.245238024388542,0.830298002091538,-1.60267596585263,-0.340191602385012
1.44968208007044,-0.157808898060235,0.156350139214544,0.300454670624442,0.933188762651671,0.586100158383062,0.311447231891082,0.777077551158108,-0.526730845465896,-0.393449074481213
1.21889133310731,-0.180560570464286,0.355977264853258,-0.231850665440217,0.61478246406706,1.08417833595142,0.387981911335294,1.17241052903059,-0.602978320631207,0.405247672555134
0.56200946168448,-1.16541327508649,0.300493837108127,-1.03401770051484,-0.385799553009585,0.298847040672785,0.445454934209299,1.86352664817318,-0.460463718493691,0.0422300032236895
0.45574842078557,-0.205582438915346,0.256809416245146,-0.312558638721051,0.455382702535101,0.890224650439541,-0.46486601218631,0.959958682493397,-0.923743988427257,-0.173355847217522
0.678286363783388,0.753746574671139,0.150544488068796,0.346615814347486,0.436495648148756,0.875043141044435,-0.0885105221170854,0.746202366233806,-0.925617377638282,-0.259824901417993
0.289634318341087,-0.438512429983728,0.597735287866628,0.303573511614597,0.200576086287962,1.083946468882,0.249823333587145,0.636222453235606,-0.751384391938726,-0.407676598685287
0.70517063449403,-0.00803150656623795,-0.0064279168939969,0.816191595831267,0.229404144966903,0.319098358074118,-0.119797375427643,0.740363296167527,-1.25053338570481,-0.419632515184659
0.94144582026917,-0.060707193041896,0.21314362628802,0.135268649964542,0.0761688383651215,0.482349799918504,-0.128724349784545,0.840957124067825,-0.922302480371431,-0.60228936917823
1.09291337975231,-0.644328193102941,0.169475663344434,0.359951680392134,-0.414895553830045,0.0573561220384804,0.0596047848112724,1.2651580327442,-1.09678043225775,-0.793017258265224
0.952241048973622,-0.261335296672069,-0.0646189708681541,0.0151475610653576,0.582653794297729,1.06946333778479,0.0809705489279233,1.20331791137646,-0.607071640688741,0.23820919666532
1.04376923869615,-0.456420544992151,0.259204777023873,-0.192646855389557,0.0339922688813635,0.449073048117364,0.190702677955706,0.742526951552646,-0.903071024649162,-0.477284470923988
0.742950281441781,-1.08262070159928,0.213487409335494,-0.708910044389894,0.534293127950467,0.84834888674559,0.529616604895367,1.46287629993325,-0.228811131954011,-0.273433970779677
1.3299998998475,-0.679610173941263,-0.0870699442778755,-0.727787511237142,-0.302906486209332,0.887599646946781,0.903100155365188,1.1824505394632,-0.787244191207041,0.488545547071324
0.757065956215212,0.0975885708318304,0.216158770344266,-0.388499870860835,0.056370850430089,0.615078469308909,0.262565478281491,1.36354492355544,-0.851697867719941,-0.172577446439643
1.01412028653933,0.735649511692764,1.46457418489085,-0.521839560312633,-0.213102593115821,0.201626730413737,-0.318123316934024,1.16717189224969,-1.17605004056842,0.203863541193413
1.33257525914094,-0.724451416199715,-0.350827503404231,-0.247734188399356,-0.191236194347243,1.22046965869662,0.347555686877324,1.18346500638007,0.270177852762973,0.161946930227671
0.647870407880867,-0.90643790372433,0.575155885585827,0.166004939817119,0.216834182111979,0.873402351635967,-0.0846490577095393,0.381147049688156,-0.665003724112404,-0.218126670750613
0.637296735187001,-0.557583472209898,0.302340364015179,0.590257296818786,-0.211890485021361,0.789844495742567,-0.163634392166643,0.877317016844758,-0.999850649462431,-0.101729393838633
0.329230690252168,-0.552489334108792,0.363230754073401,0.597001567738241,-0.454601310816481,1.03135257600244,0.887752664890243,1.06275081674096,-1.2467094577429,0.201698414986226
0.518131415882993,-0.417599410104776,0.625458784206422,-0.371173540078865,0.290074442308598,0.775146194062321,-0.0294971218812407,1.10995550044246,-1.00413233129299,-0.125898419849179
1.77420850158321,-0.480651500274344,1.32350060538911,0.25913280279246,-0.667494159276602,0.659478062326307,-0.0817365164405031,0.74057782457033,-0.00552943625938079,0.220477485779835
0.692540288559772,-0.107011019501464,0.532523639149822,-0.0743894908582227,0.253249099858964,0.400001451884665,-0.0270894603023264,0.980241440078353,-0.916980633091184,-0.619992414199894
0.216647281788962,-0.171313804593951,0.379833203158803,-0.243154001318633,0.100070781602396,0.810550876836054,-0.059166467568885,0.911529189899056,-0.58666342126692,-0.262762467346538
0.462447400506239,-0.712595962202308,0.362649327739739,-0.0468744447586349,0.122532320731131,0.898975876346847,0.280574810769363,1.31892396242413,-0.722292900150339,-0.0502992851342225
1.17956508550943,-0.315385798814484,0.841271033639521,-0.423961676975048,-0.271041738158693,0.517529115831185,-0.378079726312185,1.04880766444353,-0.806333214828066,-0.469062952664756
0.116216096750282,-0.284025342597234,0.09143318229463,-0.161274069147243,-0.409288603207467,1.04633603148631,-0.337163103145842,0.486519130099507,-1.2478509765923,-0.493558500376173
1.24184151594818,-0.265353312932799,0.11679031833051,0.566061894598475,-0.354472458783164,0.315271543293272,-0.343619565053868,1.30928077307569,-1.23750611990741,0.109919789290752
0.552816648867235,0.0675510173606403,0.165943280588758,-0.0876938889742207,-0.222420253637932,0.933030454576622,-0.195343403696924,0.916266497910098,-1.53463310170315,0.602993186485675
0.434996391335551,-0.937296463412598,0.671131392643175,-0.371613605326299,-0.425671909413564,1.00013529423441,0.0475254940311018,1.25581012747666,-1.33780798869094,0.463540807231412
0.0808557071096797,-0.563203129663297,0.342261550754507,0.000425049524930868,-0.195496615664589,1.07004424504344,0.452889439852651,1.34610841810271,-0.964207049294213,0.11664084585792
1.27715127083227,-0.292360979922823,0.141357811886403,0.210279185720289,-0.0764903682345555,0.734682988929731,0.474563397030206,1.40611897073242,-0.49018772456584,0.183909847839213
0.633793298366231,-0.657534509803577,0.570646413868176,-0.953509405664084,-0.548986809877551,1.04177557019595,0.157439131519521,1.15391267266603,-0.546032779597623,0.160959016163373
0.597661876813894,-0.479296838540845,0.110023837469003,-0.345875668516583,-0.164272429080587,1.33958032844641,0.251076394241375,1.20791336518542,-1.0086452849711,0.683871698260698
0.58266926502914,-0.35276555552572,0.32357593672492,-0.173069369113391,-0.474196010436216,1.10576863575546,-0.644397271546155,0.744064135759338,-1.35348619092095,0.120628935588991
0.716182581510728,-0.120060713392626,-0.191055482488205,0.190367436542106,0.538530391548787,1.00653550341562,0.167922969930997,1.15759705784178,-0.553312468618782,-0.193481090593931
0.886365612607581,-0.172550272434749,0.552842095507449,0.696018449329562,-0.313664892173501,0.987581981331707,-0.465042073286913,0.943616203094538,-0.239521815834554,0.350890265466342
1.16246273525514,-0.717434164498363,0.231430018044083,0.305856667988621,-0.200513839900879,0.18256360849668,0.00199518601460499,1.45478264230907,-1.0337921728752,0.038152099485068
0.789879684481779,-0.666654059118211,-0.0535184956217876,-0.295717102462891,-0.308675553354687,1.54346537215214,0.275285583735292,0.859775236044092,-0.706370335444037,0.313277812844803
1.06891539575278,-0.455660618937306,-0.5912983622126,-0.300510361165336,-0.416044023278634,1.02896229192629,0.150638649503867,0.7924086710784,-0.820802318927337,0.0828717794994718
1.43294157608606,-0.849062398956592,0.692722147824067,0.376669179000747,-0.288393953409489,0.247563994186092,0.113207980422875,1.54797591923998,-1.16750786741724,0.211596618957675
0.107655501147858,-0.155366055550139,0.0704164408569067,-0.054962969295164,0.0561338109449165,0.0818405210428963,0.12251051852837,0.262425611943813,-0.177315094813744,0.0187583092524498
0.601133569706518,-0.937686032045288,0.193630252486667,-0.189112147565315,-0.541406228773664,0.853690835791712,0.0169864169048571,1.61553763395246,-1.07275465159706,0.385716540737744
0.991211722543032,-0.825225170811286,0.435136650178136,0.0389170773022646,-0.276264087639796,0.845374708565884,0.102875840543134,1.49662458530976,-0.978858165995435,0.268327038101718
0.876837028644101,-0.745082983364285,0.317877173268742,-0.420119950035413,0.568498966590612,0.649696502975097,0.268825195079438,1.05269027666935,-0.78166482123893,-0.357541790954353
0.968503572570157,-0.421411336896363,0.752345780034638,0.146655669544863,0.122462659922705,0.873875147053432,0.539580808553415,1.511745695263,-1.08592134832999,0.275744611650978
0.5925770958404,-0.103294757956982,0.356774993053251,-0.447900532386635,-0.409682606836241,1.23412660657781,1.07609460951668,0.454286183709668,-1.36853590982158,0.111037997214946
0.128323741456005,0.0849906038986447,0.750774408985738,-0.675569543300062,0.406650448714259,1.08511327903072,-0.366364737163788,1.13589828124368,-0.655274844636487,-0.35394297591607
0.43431023653696,-0.518868832535693,0.709015258763232,-0.622234264491118,-0.0366482357977728,0.338742775016363,-0.251683191463743,1.27222146937255,-0.632682523009982,-0.528892904935673
0.670949628349374,-0.320563360315126,-0.152712641636272,0.530628145557113,-0.790931821261597,0.806592109709696,-0.174268060262887,1.07806644852496,-0.778917352531712,-0.519275050286955
1.1835269092863,-0.632318819706714,0.230211377333067,0.263735943967838,-0.800522138823364,0.845548951651186,-0.739161321307788,0.811107289816396,-0.0497814584548066,-0.571161929684251
0.704030596115431,0.0923139186645185,0.402421962888453,-1.20121169025842,0.133541553330765,1.00073838131584,-0.149714281948286,1.20241917499446,-0.306507291184599,0.893676181772496
0.77440813495461,0.425407047720255,0.566962077818895,-0.138005995258259,0.157251122409273,1.61491305147473,-0.332285916281055,0.659314197799206,0.409057517095109,-0.538142872116925
1.45756586949763,-0.770054429068262,0.569939943405422,0.33947611152696,-0.431049075183963,0.572117276520609,-0.450319588206988,0.967968858672896,-0.217969818216078,-0.411502522922081
0.470512844079243,-0.424409830899171,0.530416169513674,0.0341415028089094,0.000714711426505039,1.1307298515189,-0.827883505450262,1.04674493108507,-0.896010584225035,0.590077967100302
1.04172207546126,-0.726530932789002,0.338644886197217,0.818018452127177,-0.487247302045702,0.743251346319302,-0.40144145542424,0.809179216475066,-1.05444707148463,0.155170910189099
0.318513309373058,-0.296425035134354,0.466154430730955,0.0112044367708876,-0.665135467998603,0.699739070868521,-0.134682114487718,1.23656644410079,-0.825267196010542,0.0340257166102916
0.328872860959043,0.0694264144888934,0.330192607016242,-0.103451024758601,-0.0171161469270299,1.04330532774948,0.0293268868075158,0.980967927009706,-0.781886485882613,0.00101149587619951
0.511656448641658,-0.633136441039153,0.713080296153932,0.125316187860895,-0.796344740876141,0.846350005513378,-0.0897318457561324,1.38687076275677,-0.526038558845864,0.218133162608537
1.19632015499517,-0.0978931383763113,0.146459320849845,0.41845598977376,-0.483842865436246,0.767408158524519,0.139052104643101,1.15804613145798,-0.873429021247125,0.272541602644799
1.2352871827146,-0.173904949978525,0.791539312630029,-0.243132379120441,-0.685625544567303,-0.00802745801103468,-0.236893309383371,1.43716588666046,-1.06769094813619,-0.0549795290206428
0.462680048331684,-0.372704665973213,0.325795369951796,-0.846445710505423,-0.410791850140583,1.07381154954196,-0.493620687156621,1.27664131278486,-0.113526280878575,-0.337781377727111
0.136836357596472,-0.319975157895026,0.460984290198214,-0.178597080541154,-0.499270457910325,0.33330297775079,-0.108620151063977,0.96695455676693,-0.830727271155487,-0.155192548768776
0.255291501538264,-0.226302656529469,-0.0521186899573939,0.0437569536304588,-0.49476490505841,0.752742075401399,-0.66978921165013,0.718178256588711,-1.09851980063052,-0.176758037563369
0.472870503612642,-0.451139468709297,0.357839262471801,-0.00926753655846582,0.00161337314976872,1.11295752626217,0.295384707694441,0.464803066167645,-0.929736303353811,-0.433041237206522
0.926750863506049,-0.200149799374163,0.912767473825486,0.461540904843823,0.190485706247778,0.626773526474297,-0.518280651574608,1.05707890300146,0.0586868059224235,0.298699283700109
0.622293383165948,0.0772492527059938,0.048169729338335,0.324515701335269,-0.0470324572878058,0.902110424877443,-0.00697213368863969,1.44192226489367,-0.380090773633746,-0.249682072566873
0.0772651348143373,-0.296189630950319,1.01105887053852,-1.30460269444946,-0.815394676238717,0.82476330456006,0.497975252599033,1.60461382935746,-0.498705326873484,0.361641929255411
0.612529094533134,0.0858957524696559,-0.166257842959236,0.0344200384604153,-0.226814937297038,1.03540925707594,-0.0686567971063719,0.920273389478399,-0.60485627129945,-0.0480915283617721
0.416053685212826,-0.495360132876251,0.75563012353971,0.77969292111959,0.0218008166302894,0.855090493197419,-0.441948295270188,0.818221609031041,-0.00511521633344492,-0.545373696392744
0.289429147826584,-0.423219950609499,0.272091902409471,0.0133078841227052,-0.207464850148147,1.12026613248474,-1.20342180053982,1.20017326390472,-0.523596953515318,0.848563702380991
0.115218495891016,-0.292631951755375,-0.14271728425998,-0.240171741135613,0.0785253992297221,1.53838187889032,-0.164229998110078,1.38687433699566,-0.756710466085274,0.595604957946133
0.481359835392797,-0.893900015218984,-0.106155300633692,-0.405646781177288,-0.191205566978856,0.402524109025176,0.123110921304571,1.83002399764912,-0.513809255000894,0.0854689912123726
-0.291603701592853,-0.611379220969665,0.608750218176593,-0.548989517653573,-0.363158773731257,1.00759012798536,-0.00162123922109305,1.26757591459667,-1.28395985246253,0.610496167626041
0.1850667597091,-0.437570542405783,0.499079480121757,-0.240487142012148,-0.336327389802388,0.270683849318076,-0.132896323614191,2.23208819495629,-0.40660439472522,-0.138111795408876
0.361593103134865,-0.11396883241176,0.602976791182943,0.309966674621186,-0.491599805980189,0.806635507471511,-0.563124740522929,0.967490522845561,-0.782085455309051,-0.282105127466923
0.47917199099631,0.31159987469126,0.286927754676704,0.379450763063848,-0.513592767049381,0.899894122547022,-0.20383100936311,1.08033730353197,-0.625466845218191,-0.0828034762321532
0.0345859770967348,0.18068688709919,0.374994120114692,-0.0954282618798787,-0.42109399642218,0.683268644987523,-0.202486780314176,1.48031792460431,-0.998681754888363,0.0925566275250076
0.405170040242878,-0.0461878161575265,0.0261898869495436,0.0897478761013966,-0.143017780781073,0.598343873384302,-0.524819967042211,1.06127649513365,-0.640478811367266,0.0314244329612188
0.24302825663648,-0.660800431706142,0.378563061997376,-0.585822842780548,-0.718009227355221,0.660379185615279,-0.353206836944872,0.290877329981815,-0.539073120461914,-0.521285558996547
0.09856399498789,-0.63522500137105,-0.0554198076689042,0.178881057091731,-0.0752605480410972,1.04120337841705,-0.351828142294225,0.394831095095732,-0.508020468161831,-0.249149189947041
0.967055048436884,-0.0493360452154706,0.380780026692208,-0.13007676119797,-0.244053927933454,0.700998988559403,-0.183918127464223,1.0633925184037,-0.88961214622078,-0.332630744231497
0.400329099039623,-0.544620104752344,0.433354951801647,0.18935195493608,0.031426521976048,0.512395434505038,-0.60449678546171,1.19197773790801,-0.292321055560875,-0.219894512773524
0.616318507699375,-0.425102586455474,0.468982627263699,0.488475772836599,0.0463433836049116,0.293022621971541,0.148837648817972,1.27917059017885,-0.692851395138657,-0.413771684151695
0.469189876566605,-0.590729001800908,0.928291459212346,-0.299773625238678,0.250445867915431,0.630675402604961,0.662522158820351,1.32096213531581,-1.30595176611032,0.0328140957647439
-0.149456256362836,-0.0787168435716317,0.290129964691227,0.160009788886965,-0.0766870322923659,1.1364100660317,-1.19441090327333,0.55591821643899,-0.910037038350466,-0.0258026091474754
0.534845791960877,-0.403649925576082,-0.0442625470255688,0.187341302301904,-0.336308992962228,1.13891296661591,-0.179708439238364,1.11947453604974,-0.505988507887391,-0.112325132318346
0.116400515334059,-0.348862267256036,0.167675407222579,0.216981828365687,-0.312033665689133,0.947451305895545,-0.192843459573228,1.1627042827555,-0.544549774417807,-0.190674735927853
0.784565351715006,-0.4270346741969,0.136083898723201,-0.155647478900826,-0.0586084020527247,1.05665442869475,-0.296959769367159,1.06611774363328,-0.400491441524578,0.0839654411564235
0.0923185797708574,-0.3002275417804,0.421479721579628,0.205033206670361,-0.448022440218449,0.948991859266976,-0.278600723640825,1.13723503671083,-0.323838379693785,-0.658613422665766
0.286236734464586,-0.304754795551505,0.495815531294943,0.374974172240216,-0.0203189520456748,0.938396830554713,-0.402232139478455,0.285261764293131,-0.611177898327094,-0.471100491570007
0.605247191787825,-0.397921316964697,0.452863635063854,0.0254646466225993,0.423610916562993,1.00246559438672,-0.135413876545171,0.36247772519831,0.00248444010352547,-0.448086077153577
0.687166061770965,-0.0213828994755758,-0.0370324581772986,0.236053782857304,0.140473599359814,0.702692578986907,-0.195930671074627,0.927823787526064,-0.849687678273236,-0.426438652721587
0.938645600819726,-0.0187829445741479,0.138991816557125,0.284895639744097,0.11030159162483,0.498313810724606,-0.142060705110415,0.991091947403981,-0.85047225220826,-0.397532340477845
0.546244186822188,-0.181444516935174,0.533108055022452,-0.00218448970812574,0.100843398247699,1.08786806106217,-0.260756860967987,1.10259795899019,-0.537835253785929,-0.0104031380520759
0.706789171956837,-0.345784813053243,0.250728840534729,0.120950712415449,-0.419123408420137,0.256830292111044,-0.592694452793092,0.40681378858323,-0.355895949449158,-0.123461397805421
0.900633202743978,0.238372288227122,0.636204056577081,-0.363546481936725,0.391389964033264,0.235800251490143,-0.679522584556827,0.150416051133631,-0.880037410819697,-0.589962715209965
0.688453080361499,0.162813217216811,-0.243437994193135,0.0697224700630331,-0.0521968755341163,0.146398963489311,-0.655562541350924,1.0324258311377,-1.03882937816105,-0.216843465931333
0.22295383309403,0.123385058557932,0.148897778079997,0.361201952219928,0.194399155023441,1.06345093410291,0.919638598442491,1.0501195449841,-0.441941683243971,-0.52275583290384
0.384470873048175,-0.469217887604721,0.00209686627310981,-0.407266997402336,0.138123910630986,0.957479616407294,-0.0547816823833469,0.789174686813581,-1.14022875323068,-0.0426096552086859
0.459119195023874,-0.118241769989123,0.595927420740958,0.214172906399391,-0.306805357066204,0.60426842976253,-0.575364921223409,0.622885887538583,-0.466809890336853,-0.5924537102879
0.352609188594968,-0.125242988941527,0.397854939457628,0.30393539141363,-0.0360718423763688,0.404384935841054,-0.409898522500661,0.85536625929752,-0.135780395361887,0.0311660541606113
0.308327403939317,0.0903633260882967,0.1223408188001,-0.171507535859924,-0.27854665596471,0.921519364318306,0.125922250221315,0.612235338792906,-0.21802091308408,0.270315696289682
0.898125091838999,-0.181543557266592,0.590798542948628,0.262701994078704,0.0118104759440732,0.379395597321074,0.130318883797295,0.55374562343536,-0.56462328356982,-0.289790178850867
0.583582763211968,0.178890265569309,0.174002654451562,0.421881371383507,0.0425256437556172,0.597562564234368,-0.280698817766318,0.387299685398174,-0.256441215546598,-0.239519566912554
0.796289705537639,0.249835186062522,0.812717442982965,0.549107879595371,0.920606187373955,0.892118355573352,0.305872921498212,0.722104849824928,-0.771470301820462,-0.509351048801528
0.624185660690736,0.259345104739195,0.0851046055648546,-0.486410606821712,0.0932659348194503,0.693482588990938,-0.445315733039743,0.97517016532523,-0.722559450030814,-0.292863679077318
0.760249710074223,-0.531061928524194,0.330537751294418,0.644666239448101,0.234577661485162,0.803721068734934,-0.142946455349018,0.581436782181978,-0.971140579782559,-0.18320477151421
0.477414593422374,-0.674361920701202,0.136861933026355,-0.491243166175329,0.262522293473775,1.28388516916341,0.484486731223487,0.653045888876938,-0.608832822828874,-0.118395234053841
0.468582773867523,-0.367287436891517,0.0938836976487207,-0.276079702003687,0.148002506422469,1.31515692947113,-0.143491407281709,0.862722478265328,-0.900567907552723,0.399298015190458
0.5182347732178,-0.194415782669418,0.156944082474312,0.158139219035614,0.00127974670684629,0.704865964988492,-0.511912599729331,0.501434521813737,-0.211851815908075,-0.18157767088639
0.81523329784565,-0.211300723739693,0.851028894304482,0.114499965439095,0.265981360230157,0.897643364100103,-0.161448948005456,0.244684462245909,-0.339706296244285,-0.246217564602165
0.600532091092784,-0.153762580641766,0.80478657542716,0.714170002754762,0.0102302036793256,0.797900877753848,-0.352409123176187,0.539275891738525,-1.32551130606516,-0.320958412694564
0.560761065540304,-0.478861905901942,0.475387958061053,0.150079989734472,0.364790382620591,1.1494019399643,0.182797250097809,0.593378694402978,-0.0372725634017592,-0.207843659909674
0.363394093636504,-0.137882076143226,0.0265528287221553,0.0401332962083288,0.150507960515378,0.997541461726566,0.277759836383688,1.33174215142548,-0.552006451183677,-0.0647976719869441
0.631646214517686,-0.176915956104465,0.711138901979138,0.23012182324344,-0.4511149118991,0.56782153713468,-0.18849297379071,0.407327348190787,-0.38034249496463,-0.44990458021504
0.740743327622674,0.147564404946517,0.145993429295732,0.251166887188033,0.447622678684639,0.872904313856081,0.29583317538092,0.574076639445929,-0.950625535792747,-0.288130056999221
0.174284206304948,-0.910754016766829,0.596613976962928,-0.315213739564045,0.332273488636896,0.794646128731623,-0.114118720179851,0.470661035696914,-0.280032334110618,-0.0976865625372393
0.423189330664913,-0.432750412930917,0.272716584479692,0.433837296483969,0.0700192066050897,0.886165401385512,-0.332799434916939,0.43329385791348,-0.483811395399028,-0.339930123061159
1.04348035937315,0.11074504031422,0.208760611561139,0.431180190171906,0.0749370697317514,0.477079819079704,-0.0318638337779743,0.953011300516902,-1.06637644319049,-0.457398845713858
1.0634655886452,-0.128819002978746,0.393611244058424,0.428900544162567,0.322188900173464,0.470662245409202,0.112267131749805,0.836993727035174,-0.961217187518538,-0.370433308388414
0.626402916951983,0.14818938460356,0.0877116926311196,0.203896059544286,0.264850511630379,0.873672893154906,-0.407829128218855,0.897842656631712,-0.579875868677702,-0.317212733362632
1.01755288324056,-0.549225551539366,0.145889262775428,0.0670273875981668,0.113433591878702,0.522269033560952,-0.465814868448565,0.260043335936917,-0.369081188262932,-0.436038508896765
0.162426657104926,-0.864713631483311,0.471281950226122,-0.531093501246431,0.314806501767373,1.06663527468081,-0.0238947709367047,0.508410275735828,-0.238317928026842,0.193327416544509
0.758127146815604,-0.215722830831817,0.507635691438147,0.352564964266236,-0.135852809406691,0.548913437819645,-0.139675250891895,0.268623149840394,-0.367373437806413,-0.569686969783231
0.375024783488907,0.179610586971031,0.198181192611211,0.373084572702755,0.110700255149193,0.651469494259863,-0.264432693323349,0.444417142291636,-0.449520616760561,-0.481314266109821
0.498849258531818,-0.451069117663996,0.152114091523644,0.524018533644473,0.197840595217476,0.985427940199237,-0.167930380863386,0.573560377939736,-0.982310299319458,-0.339288224974357
0.358520756865596,-0.284573691796752,0.00328177901341203,0.709481796153433,-0.426684552934439,0.614304616422186,-0.166938733330235,0.622146904878443,-0.353264111035943,-0.56548942859073
0.74966616869756,-0.606632738700306,0.58304354662336,-0.261817146788559,0.247664576134911,1.19044039116436,-0.125500348916194,0.379213033486919,0.210620857538423,-0.233822358840877
0.928716108207351,-0.00703734227739348,0.174241724555616,0.606045139197474,0.416641760478193,0.514133283047517,0.317264883775097,1.00920110575709,-0.938461972037801,-0.482510478181539
0.817810020731212,-0.605467212453001,0.821228828343397,-0.00215600666586679,-0.342626441553146,0.566038033711651,-0.30904561628697,1.11232978466513,-0.810998052572331,0.0890066328869938
0.561305038788551,-0.378710665324427,0.911171871017654,0.457595050533262,0.645634816146369,0.624389243036612,0.281637980091819,1.05296160833115,-0.62211135128054,-0.309249125130808
1.16893326560728,-0.396811006471006,0.816601844781509,0.251478347008775,-0.433788824723764,0.555338221819128,-0.0605628003941534,0.762935868573852,-0.828042810548674,-0.211453840524428
0.423531926161766,0.225176940309106,0.305631735185024,0.0561798008369079,0.14917221515803,0.59339080231936,-0.329715565849976,0.47578138011596,-0.923444253191335,-0.159959057711733
0.769202612478147,-0.652103388043024,-0.0252682561419922,0.0281821912799509,0.245761985825604,0.937256345939524,-0.20473553418411,0.118164529789652,-0.229035887433573,-0.357938411236116
0.926660049726576,-1.37733046010891,0.28269968420042,-0.062008694504701,0.490476241996862,1.41917095169074,0.143600624752441,0.778346507733969,-0.739445558163736,0.301306167058176
1.10983880451097,-0.380798447558307,-0.135848813448293,0.0138711015297172,0.0682173254710126,0.347309976630216,-0.374035177169914,0.807805386987829,-0.642241517713988,-0.698632987271976
0.720168682245935,-0.345638770049144,1.10104927338667,-0.937187324834452,0.112131125508842,0.147272820265914,-0.303331509896895,0.467554950078914,-0.715508436289604,-1.11456351419418
0.887831883262779,-0.0132791279265069,0.986103459958102,-0.366464249360092,-0.249447977352722,0.581977186369179,0.123364217920506,0.83961260420812,-0.217509894611827,-0.646715269460731
0.482949541165047,-0.800869903128372,1.04577016334389,-0.441432543719588,0.0455598328371275,0.582559954035175,0.030160082915684,0.361753182676237,0.101965604201582,-0.430999671232823
0.284803873046276,0.0126780196949457,0.467280411371558,-0.186282084304898,-0.414783813238698,0.842069133557002,-0.582126764614641,0.596096742748645,-0.733986347603294,-0.0885203264249333
0.0944899144917463,-0.791484660981866,0.271885422095599,-0.155558124126014,0.307230881621951,0.892708806696327,0.53017446079459,0.810458526443877,-0.980855603679772,-0.268966923933874
0.727046934698798,0.00752308755267151,0.112296086841844,0.264642703802578,0.259136822816228,0.730965234795408,0.172323153131013,0.62422799879867,-0.567712356643092,-0.283130289948596
0.462078652257556,0.171560149030026,0.433677262263951,0.359185614875164,0.820664114014046,0.759966394779961,0.411057974419238,1.05250059095071,-0.627231946223045,-0.664196581197415
0.915744338793305,0.0431627186485884,0.448892703011517,0.314813549338847,0.518206348615077,0.97601493879364,0.330745914934104,0.513947772598228,-0.503163542321468,-0.315178426742343
0.995704775840879,-0.0638780531318181,0.832550137314373,0.25643339226245,0.922161541457206,0.499520469156604,-0.179516550760748,0.889003511144231,-0.654492622630733,-0.185466361164692
1.1111819703404,-0.321883771406705,0.63193811701305,0.347482291162672,0.936665073407719,0.839292105515397,0.460471503554146,1.00898416244348,-0.276032301716721,0.0468657474165319
0.85754010636426,-0.529543958302283,0.732476372580409,-0.0421591463009993,0.403618946351808,0.818371338307114,0.33407777603123,0.776801213324019,-0.727426633451823,-0.126379606618261
1.19497574189786,-0.469342285613674,-0.0927205030537927,-0.693594408628097,0.434498615637809,0.5856436867697,0.0296127067888081,0.699261954961878,-1.03045935542788,-0.475703749377844
0.735344357719021,-0.608535228981455,0.139622728816283,0.0864756789925006,0.428577107151777,0.576239046957449,-0.342457174227417,0.613222774281532,-0.266526615207795,-0.25350365499401
0.807057495915774,-0.295673621718017,0.773232231015533,0.519406042051112,0.363671977954058,0.640631374070921,0.658711260147433,1.49589117187345,-0.61750868142058,0.0491637513214281
0.390249151271184,0.0537983137299624,0.0838898460579616,-0.035253888191972,0.134897340889421,0.269792314339613,-0.129135378747089,0.373182378482377,-0.367477849008244,-0.130053897617805
0.74771122228505,-0.468171630314094,0.45426087082352,-1.02117383692885,0.544210511511276,0.909254823150798,-0.0521422500691972,0.731504630513896,-0.719202291904826,-0.200385727428641
0.650410676912056,-0.283968291317625,0.455422841947221,-0.116312070512567,0.367388987925439,0.355887673045982,-0.788699625649527,0.937748730395693,-0.333259023634326,-0.515247156455407
0.709297669538713,-0.490324887544238,0.690213628832794,0.0278786927306217,0.464645204166271,0.892173107820654,0.769799217979639,1.25075952050935,-0.939391258202176,-0.0773750726627745
0.335227344473754,-0.99914882980558,0.0165927056301366,-0.358187503721366,0.736545167308815,0.746887460441583,0.342050835269398,1.18146057773416,-0.839997013569943,-0.0654281032721851
0.611994765206874,-0.505870966362438,0.798014654626538,0.169788914248861,0.773416431180648,0.740392001749271,0.156662726763114,0.800910205866132,-1.14024157910428,-0.373400911622429
0.17112193365409,-0.949175543826935,0.887650500999856,0.331192026507569,0.314057191869819,1.23335315340942,-0.176047109265022,0.680115593012034,-0.756995046415139,-0.348049408733806
0.464227185107626,-0.201598674189266,0.52039141088794,0.261549411041483,0.149259900082949,0.722466413152141,-0.498020227352595,0.684340455523214,-1.47937505358088,-0.0478027430540235
0.16668464304787,-0.0937458614312963,1.0056547591001,0.127775523517485,0.552153031147053,1.36275426520135,0.206152337293635,0.789896854408241,-0.752720261305289,0.0105237623200311
0.763074713549054,-0.275630794467114,0.50283045014169,-0.914567090678175,0.0348443782069841,1.05933163275367,-0.0733498891399647,0.581437341061496,-1.11231926798923,-0.226317217948688
0.314598276394547,-0.497886708030978,0.869870486955367,0.0940391993767914,0.684221738884842,0.851158791408802,-0.421336477455197,0.894659678569585,-0.859953833741364,-0.0782640174177129
0.4344736516403,-0.40101678993414,0.534303209020771,0.0891945783359711,0.856344176654906,0.645503005229669,0.263675026613676,1.05983108828355,-1.06324401606418,-0.585154353252664
0.384020362194744,-0.381398515641586,0.566127051042808,-0.185808737738648,0.422882638424491,0.807397947328451,-0.366394379779722,0.91517086533858,-0.923090669310415,-0.12233978248814
0.142257856688037,-0.19002433872842,0.17709548799131,-0.0302117641870546,0.0458275988711852,0.115466040514712,0.00681493618259143,0.187756837235876,-0.126163167095298,-0.0297831055717032
0.163709584398267,-0.15733309410085,0.174578977589693,-0.0762758807743759,0.0534852477418363,0.155435359411227,-0.0437979045217417,0.322987874776192,-0.194356377298294,-0.0491724210333129
0.14664291344846,-0.197005040954696,0.185330311266525,-0.027571291034277,0.0444395989043018,0.110744846391871,0.0147125394244225,0.187769596260919,-0.126552836192392,-0.0352359205907656
0.111995978036404,0.142944431109385,0.27755618641665,-0.114970971636905,0.049867366051949,0.339697381094676,-0.156142192148828,0.641956355788956,-0.0704055253510327,-0.463935596229489
0.479440316872751,0.262716382387356,0.326478923063805,-0.118290809914188,0.297254972933778,0.389075331114073,-0.171835023943343,0.774680209160806,-0.950671505402809,-0.2773016269759
0.181010041126302,-0.1696542809965,0.173596399020969,-0.0776446056528548,0.0592195201593164,0.142847619600707,-0.0396031773873169,0.317757172282886,-0.201605811883948,-0.0444612811333654
0.379326171599772,-0.731022040856086,0.69073906128742,-0.0269415894627364,0.590357340901308,0.6766977400366,0.197720372988345,1.21400450815032,-0.58707878758772,-0.393340793692023
0.194706216931669,-0.520339588346199,0.850647345921676,-0.254205414606862,0.61918119166152,0.158776420825429,-0.21227479481169,0.760921339949991,-0.727589265239778,-0.502059302523281
0.402249821488075,-0.597354826194715,0.837641382645691,-0.0156046729292229,0.110772629104092,0.803302266048957,0.0759485511549416,0.873556346375639,-0.75324331668746,-0.28060402679122
0.289443822222261,-0.16839246936017,0.367360637801043,-0.136950910455796,-0.057772714212462,0.7011512520826,-0.391601713060739,0.618457932642781,-0.573429211299777,-0.00229328040242874
0.462660971335962,0.0386152905293776,1.14029819624716,-0.136377654956673,0.225691440418806,1.06954631556456,0.142256650869838,0.967833068741792,-0.361102698065341,-0.288188370446346
0.69681294296031,-0.181715729801338,0.737047207104731,-0.173693127980672,-0.416092245907466,1.04336354644355,-0.0137326308477229,0.743619479310004,-0.845133204939264,-0.2027255763039
0.357214048249897,-0.580691536208366,0.208875410532279,0.695115911726982,-0.278506528939303,1.0656679294997,-0.076261041824929,0.962090473095899,-0.355653078716278,-0.214668007212655
0.120229712407724,-0.106557137168457,0.403286800356684,0.871884266962903,-0.169455134851954,1.05976114554159,0.142527389083389,0.555097071774845,-0.206641905217914,-0.690060899325607
1.57439574978833,-0.0651326675017322,0.240530362398456,-0.120723928867218,0.136280940716337,0.798250712854603,0.31763331043024,1.01319577592397,-0.356201974793723,0.059136550982118
0.976903437726989,-0.19733134838217,0.754372329756392,-0.0706793767723887,0.460836543416654,-0.052903087814728,-0.216332534840142,0.448364832081726,-0.585709535592501,-0.795567744018452
0.504735713997714,-0.0462862105474514,0.527295366136595,0.204844130944731,0.061885440359863,0.0690549106600359,-0.101626359788426,0.476489372007049,-0.503390963896903,-0.427046642772899
0.772282263212194,-0.110946079477582,0.0975127933412963,0.361709114019151,-0.0779974452989528,0.52269571205762,-0.00514609825376277,0.846549937766259,-0.340437831469374,-0.72725544063434
0.992556340978312,-1.30363223193925,0.777192551654962,-0.0145434724396372,0.0506785026340791,0.769938944494495,-0.681803352167405,0.346653978500584,-0.262658070986122,-0.266489076430441
0.888796053098542,-0.0927314912585375,0.729256975296415,-0.321114522587655,-0.334347791201543,0.494922934830984,-0.242877487244354,0.328187123965853,-0.274374995219047,-0.600022009297885
0.626883864044767,0.197287442664633,0.17071127095237,0.604406887214936,0.0334839326491333,0.606120701211719,0.022063112295639,0.693720206032512,-0.0551602246887366,0.019877445049568
0.637143944481051,-0.767826747170924,0.108154932019414,-0.153203849119727,-0.451337249152515,0.660153644519549,0.0485136897099773,1.43229659994181,-0.143659503247612,-0.719705594584587
0.95201241913374,-0.485088440477394,-0.194316216156607,-0.0428400399286559,0.336860244100012,0.969573032240627,0.105155736942961,1.15867432966366,-0.564618522766468,-0.0724916320210681
0.471119119455494,-0.351894865147514,0.500952207895204,-0.243970326496863,0.349816022936731,0.633137641511799,0.265231789887735,0.562502440107285,-0.600040817765054,-0.691960952238307
0.36104667106749,-0.848715203427249,0.592420875890591,-0.314044827002939,0.235165052010878,0.896900008867526,0.262857784329867,0.756271793775742,-0.707954770383563,-0.179076061345853
0.627380147248611,-0.677475020661218,0.013182242628131,-0.227837340823817,0.531868018878161,0.885653305854714,0.288621257528499,1.20950926282583,-0.767562363806681,0.0846708788409572
0.343427421571988,-0.414742149681673,-0.143478546245442,-0.240932660015437,0.642520013054658,0.912062019290612,0.17791348212735,0.986309252697539,-1.31374942510523,-0.186959525494105
0.435008133762523,-0.568980306379704,-0.0498779764513604,-0.0918427486312825,0.534058262646291,0.8817085470948,0.111340050372399,1.01800702014413,-0.628008523931741,-0.589562499136713
0.785703824464102,-0.110130512408717,0.354599027822919,0.279776089932909,0.924661723577885,0.900446463217154,-0.229009409081915,0.821166201998133,-0.406695992406386,-0.454111272195167
-0.156435024545494,-0.479879355122075,0.546570883717598,-0.0333502600371667,0.315072537889084,0.908453747621499,0.244783932384609,0.674244874737819,-1.14322995925167,-0.659247734503192
0.644845266715587,-0.636935175884968,0.554017214524707,-0.260060099937401,0.355580408116369,0.442586364342715,0.330569242948118,0.888353797945484,-1.13062958397105,-0.464110479578068
0.615010816272314,0.0919859139178723,0.482309254877039,0.734224183965687,0.0660509866268674,0.880384414418972,0.227450922460012,0.893366127992109,-0.73269204801238,-0.327710060549567
-0.0771358872674432,-0.366567105584999,0.577733339550281,-0.329638659447017,0.543735575174007,0.767978094709073,0.163462099593981,1.09992831785429,-0.755538322327658,-0.686833265881272
0.672978147408662,-0.50271544273074,0.199963756285269,0.297283692328829,0.413509246541801,0.516184025201418,-0.500527145958912,0.916496777026437,-1.18896012455997,-0.353999393468419
0.764591299986729,-0.230998898795482,0.481374839518249,0.273957180417391,-0.237449624347311,0.543507678976065,-0.182665702797803,1.19327146679535,-1.16310183953821,-0.0280888196165408
0.59858429292046,-0.138731825378497,-0.150317382165177,0.66344152467802,-0.135972691553386,0.527684549469465,-0.415091029554231,1.15420775808334,-0.802093125142371,-0.424643537028542
0.469753494544869,-0.460511747528222,0.475551639931038,-0.492215549837151,0.514992230662592,1.0489516614419,-0.000746306937653487,0.631826003384661,-0.475336469883406,-0.0733876591389337
-0.0676179348524358,-0.912092313804663,0.602775888711904,-0.251254620613156,0.817938313114537,1.25423967801685,0.197771101392253,0.888553986452017,-0.899356831429879,-0.0229705871042561
0.159469467281706,-0.769980669726213,0.742586257258401,-1.35386851189908,-0.445933785558077,0.923135394442204,0.147496687811247,0.757803943019683,-1.45070468125681,0.331639628724437
1.29135299193317,0.485453659966751,-0.0145979452176818,-0.00422003530326775,-0.0495506645064224,0.204731624501952,0.300890451572912,1.52964192809584,-0.55884033265835,0.0926577406287074
1.30522119599606,-0.442690619249837,-0.0856069759794918,-0.427586676034974,0.379045865850302,0.63512879150967,0.0435269122250712,1.02513461333397,-0.261919291446743,-0.31711034125612
0.827271498460281,-0.460355086709631,0.360731348874177,-0.0974009176313934,1.17480550475197,0.909475041427199,0.14714407473761,0.899271896481512,-0.857804603153779,-0.128784098787671
0.325497029496721,-0.866178644417646,0.557972547233839,0.210579163999283,0.700713047690721,1.11168093226405,0.49205504059707,1.04547238265816,-0.770693513961208,-0.242962864781816
0.443533248168947,-0.671248594520506,0.975847136600248,0.134818957146102,0.569157685919697,0.997415218397091,0.255816217405609,1.16653476751521,-0.784461998481852,-0.062270039013385
0.306948137197693,-0.126303702600193,0.724963432641267,-0.289347204003111,0.741909867632542,1.12965872677754,0.501286036143547,0.951236936320198,-0.563103968725565,-0.395029468756062
0.18326157261121,-0.23323630987024,0.978240256819951,0.315101780127887,0.481736360750288,1.0688212706387,0.573653029439717,0.981714148760373,-0.794153623636978,-0.508076195180629
0.574388455861941,-0.680579298242124,0.594146641978582,0.0774237795335283,0.659797039143079,1.10180343650175,0.247218885793671,1.44563884135858,-0.677920494289142,0.173497198307244
0.248052931159226,-0.792524566924539,0.546298386532593,0.20655369633821,0.693761129723522,1.25217069554106,0.0972033158250695,0.960809819781959,-0.733923392734502,-0.251250904427203
1.24376267602099,-0.18476931367715,0.534848098205362,0.110070049395197,0.986751621124997,1.02555803532048,0.382710776166554,0.924319345735314,-0.152917670952433,-0.143079626391198
0.716048921779573,-0.066295261945036,0.343495089466654,0.21783458698748,0.664242741704392,1.32137201844345,-0.0103563695354362,0.938791386214436,-0.557670356904477,0.294028083955514
0.86547302321017,-0.531779839987631,0.727931482288218,0.0703626965610961,0.753436621320258,0.983365707012869,0.288382203141434,1.07837351506349,-0.473776151216249,0.046634843947218
-0.0439629281433232,-0.175982441190696,0.706180165535641,-0.134842415512177,0.500171641278912,1.34945049274749,0.508204928580709,1.17105483284522,-0.416700984286615,-0.0854875472448624
0.460124610977458,-0.66336268511381,0.529663611406837,-0.143605566442638,0.761994552135143,1.04590864301104,0.554701575856522,0.819793246722265,-0.741820479597546,-0.0402030255753878
0.545635733002364,-0.647734204680739,0.385586098012799,0.0769645856562727,0.828690634708729,0.903261983636613,0.293332133437975,0.911976230970011,-0.91446988140404,-0.11473064646465
0.255181250550951,-0.458956601291548,0.434640398738992,0.259715451691957,0.873358410402078,0.866507175561634,-0.129182390481931,1.04262491173152,-0.69768388546347,-0.309516037910738
0.0355578134016949,-0.47174441839104,0.549992034247784,0.200469656558493,0.503096299471232,0.853149626560204,0.320816117332362,0.851622437840854,-1.17525628695815,-0.426630492913471
0.40258742110098,-0.531025461595747,0.275988290211495,-0.0882021809426485,0.914742090315095,0.868039593177083,0.249111292887078,1.30815701864983,-0.690509878705733,-0.224603626243827
0.213018676393222,-0.387097085170896,0.578229730362718,-0.0461633482465296,0.698068738202202,1.04492788649811,0.0305436630381732,1.08504431710445,-0.711570235641286,-0.138217575324973
0.433037671348675,-0.226504665189584,0.249622399535377,0.322657700787259,0.632854886383352,0.763099706394764,0.207842484424614,1.04071169281783,-0.89018933505176,-0.0672681170052899
0.954747850168621,-0.0491694052033203,0.795500907579186,0.512742462999018,0.804205475756138,0.756189903567865,0.584227287021331,1.24833449577366,-0.871081500982981,0.0709347055808227
0.527824340285328,-0.511921414644699,0.663824201659132,0.109019346479571,0.738713387964993,1.33957145198314,0.0640770012202296,0.532880931899279,-0.431333604089838,-0.568780549359443
0.543182408331848,-0.553815568632049,0.528313215493148,0.224762710230577,0.701936454436592,0.974463897412118,0.232841519709052,1.31807906466619,-0.643378297920424,-0.0792887793081679
0.611815738672442,-0.29959917842162,0.479972280513728,-0.437975159141274,0.66890531846404,0.830450665714548,0.216084205745803,1.11451108366556,-0.732752978359919,-0.108973979528935
0.597098009104914,-0.420398467000747,0.492031172066598,0.260432992867518,0.734234027024281,0.944974853098517,-0.0430667904386645,0.731429002787311,-0.637513962317219,-0.502243722683554
0.50035789048803,-0.271919058559191,0.946623703746436,0.22991193397438,1.0433540592962,0.697092251597325,0.17763032486653,0.946119606319787,-0.262872503736098,-0.51897827746444
0.299438682200179,-0.36983576954072,0.783048010712218,0.27955875654058,0.607091141435474,1.00829964587388,0.343486222438658,0.405470629027954,-0.75452569609193,-0.922790640343136
0.218391657881592,-0.413741934751557,0.467622539374778,-0.205322872266511,0.363626613586811,0.631773064339204,0.122768256798239,1.00978419066574,-0.95827219649779,-0.522249413954382
0.0486346496574983,-0.567439403496142,0.868301450344013,-0.137358427576073,0.344477380948783,0.821036466925096,0.30116620262639,1.18987071376698,-0.548321803806621,-0.596926487575924
0.23041897654777,-0.189306677684733,0.704971958830321,-0.062863729032739,0.392672797391324,1.11129633509215,0.389484898884797,0.916487485175267,-0.9950885594066,-0.148409730774958
0.277205853670043,-0.487945231902021,0.227085575929956,-0.0102435792099239,0.68982212105103,0.66633119818569,0.272096005091215,1.38625256188058,-0.652106847997289,-0.631972967393533
0.667418847900123,-0.151398037124641,0.339376709413008,-0.65323734662608,0.79925306154207,0.805714090230771,0.338003558762223,1.4411264044747,-0.428661268326218,0.0690706864959589
0.350581156452446,-0.388803516349625,0.716200231065873,-0.777850850162971,-0.227671496251206,0.523983257012524,0.0286456394304329,1.50363709773662,-0.770395046670614,-0.0858306682229384
0.322384724420462,-0.829039867072976,0.106243055950357,-0.100079693109994,0.493024772412634,1.01187725185789,0.174447060931388,1.27489759342461,-0.641834307582493,0.11118931037279
0.189464501797239,-0.808586227020776,0.541517585112907,0.252189459448436,0.900848088299109,0.861526042433871,-0.00266733960422892,1.17610780053362,-0.542906228072889,-0.459860545813664
0.205405867518145,-1.07974289684218,0.653676779451856,0.00632855828965115,0.520223219441324,0.759436059721655,0.273102636847517,1.43778711127605,-0.901698219934181,0.233118234523908
0.370783409679626,-0.521408323748632,0.286538326849905,-0.807448478280402,0.706920180769816,1.34598797468988,0.445473740669946,0.195283672592085,-0.929702723044092,-0.752711660372262
0.262960728441873,-0.971182825406877,0.404987228070952,0.0459474387340429,0.74850980428308,1.10866967221129,0.110480652929266,1.08914788743183,-0.821015356268539,-0.0454904674679982
0.00714001971235033,-0.760127800875727,0.507471690175577,-0.174170988594165,-0.06792364159042,1.40977427018635,0.771569215945912,0.801985775409456,-0.891807854364867,-0.197765512001564
0.801586502067078,-0.38528638805375,0.634691921564487,-0.311601992700813,0.560964990128075,1.04055021876845,0.114688329566029,1.22627202830579,-1.07161856989173,0.375426666851808
0.345111298990241,-0.565995210153199,0.0389701460976285,-0.0352211564979048,0.508844334932655,0.944282901182492,0.0466551504315472,0.602810768062933,-1.6801502780495,-0.474388804205407
0.350629640149258,-0.967344076615112,0.560815494448931,-0.510257892811512,0.399545571605151,0.846961663574366,0.54049360332096,0.866021964424173,-0.512879052313575,-0.487221023543161
0.376703035431004,-0.676709938227904,0.380829571757139,-0.685047413111472,0.477878664972917,0.604687492507392,-0.214933180980072,0.780188155063191,-1.16808437849857,-0.565753070401316
0.132202083843311,-0.840428852324044,0.684608391927881,0.205049959694437,0.777790941932265,0.983529006061422,0.118082341439457,0.869572422029679,-0.890046153778785,-0.354908064720489
0.636026572537521,-0.5556421185737,0.819302209375602,0.23338707097814,0.604316576301041,0.666010361546782,-0.220810641650934,1.28796363377744,-0.83954534096509,-0.334205022444711
0.223401654305313,-0.421792424536866,0.745721126400198,-0.468279919217491,0.100000005871332,0.50728016140256,0.775005478910542,1.02683619839238,-1.31072264912424,-0.580157587074622
0.117252645572309,-0.990146991986872,0.12128057566699,-0.489596642594125,0.529190158219951,0.892788486792745,0.537872532816526,0.735985614778299,-0.941388970491293,-0.19197033888414
0.238329158508492,-0.76310302489154,0.945630186200512,0.0551720197223973,0.594354272796977,0.733785724513554,0.186044005791908,0.900907811543544,-1.08646364682475,-0.341931897610612
0.414080659632763,-0.472945686979688,0.236285049667124,-0.155210547543459,0.608971512468008,1.2543817404646,0.104165529791779,0.99313599747544,-0.548676826479418,-0.451154808792896
0.202628850532616,-0.676354085910283,0.579611130571071,-0.00353660241626772,1.15054899739936,0.968358978423447,0.119770570659382,0.779534064831083,-0.74367697158362,-0.608322603549644
0.0683564048349114,-0.382964608170253,1.03728093770071,0.461950321118727,0.642505606644618,0.407491333640802,-0.260785944001778,1.5666300867024,-0.75552601778996,-0.0477064716046381
0.785241811533723,-0.720060052302948,0.55568882151345,-0.0759111375237641,0.430210033083954,0.577865946077508,0.326774041085762,1.37016392222771,-0.915681627948452,0.0497845616749737
0.0960487550580894,-0.742981803518777,0.429862421725398,0.276018000765947,0.642401191246677,0.934714527327773,0.313164551081521,1.39463197694048,-0.682870102730836,-0.119755027487862
0.142529292592338,-0.68663753983737,0.395214744470598,-0.261386951509551,0.421921515015302,1.31189404343046,0.333711976399936,0.746169553454696,-1.09341046310581,0.347694716814818
0.18584912933903,-0.965874034601508,0.681129502219878,0.0417381762494747,0.694687995985087,0.886850723237157,0.0284160657167582,1.0232533791626,-0.76558444718207,-0.119727886417089
0.74515088017124,-0.420850075168125,0.361945978452944,-0.25394144652363,0.0559859526762667,0.933569872714612,0.308238465432896,1.11954429955619,-1.06324310612744,-0.0652302685729589
0.512057081955229,-0.524388665789678,0.664891975627184,-0.349837514373963,0.143268769626789,0.75571677441819,0.0978345902566966,0.995050648876342,-0.614646208236518,0.0981409915090902
0.333449745653041,-0.476331195351328,0.102046749424502,-0.539379220321452,0.454156936647261,1.12326069975058,0.318386230461696,0.745830917534512,-0.53156153650421,-0.129430061778305
0.530700975088215,-0.309516777827384,0.620320333746363,-0.204847870405426,0.493051325502816,0.436135240505365,0.413354966494192,0.972152418644791,-0.604627496786577,-0.204780440579155
0.730749416188548,0.249129293304721,0.13576393116192,-0.246317333453676,0.110320437677186,0.35016981302926,-0.517576283359721,1.04066965257178,-1.08662479402699,-0.399046968152275
0.0370078576968109,-0.420752356149675,0.189240441463008,-0.127558709949456,0.240599050735333,0.760822442252483,0.51228201446898,1.0282108914778,-0.670643012111437,-0.0738240431892646
0.257671306026102,-0.612076971886725,0.0819247133173859,-0.389423677734472,0.36009597699158,1.00162395554473,0.389274833563833,1.13968326867863,-0.552397873859296,-0.189368060404608
1.3011443756694,0.11994217024784,0.225247784050589,-0.0444415863826284,-0.194110191941374,0.80487003902345,-0.244672213434249,0.736213711713686,-1.17324383163026,0.128292254706441
0.859020868823164,0.111210475510176,0.572867255463204,0.564745877349993,0.147986336805761,1.01812385979886,-0.296460310537321,0.743003021617334,0.0441088728331256,0.0963790648001028
0.359422972239719,-0.0658533336671844,-0.0484789910325973,0.303421988220458,0.0278358521732437,0.497893662530559,0.0591539892079683,0.870425381794823,-0.575506139933827,-0.526368564233572
0.854623630249029,-0.406947323346525,0.266023954721924,0.0549152752585286,0.0302013262025663,0.562129605343157,-1.10153481721735,0.61512865312527,-0.71191159175575,0.222198614166151
0.554232590771643,-0.150399221118074,0.285150384463222,0.533063770060557,0.115276991728726,0.826061032679224,-0.102051662087071,0.740760024734537,-0.0321374271018815,-0.290094949322177
0.352875084251447,-0.410712513604504,0.0597690071966642,-0.343828385828727,0.629775327619391,0.847442635095934,0.406787031260073,1.21660776392069,-0.682866843533861,0.069933043333743
0.364318220096961,-0.523527609856429,0.197108994909294,-0.493477640949951,-0.254571128378596,0.211758536510451,-0.396437454377808,1.25906161460216,-1.19139363599264,0.139387412417815
0.334841344683244,-0.223480588023612,0.111184479036579,0.14321673500924,-0.0118263463030172,0.340285355594271,-0.125707807354453,0.555900562770584,-0.3879849309148,-0.152466427526604
0.779892093351236,-0.160751114378031,0.643132224548913,0.20821726041358,-0.20460475180633,0.498355891804757,-0.136083188194006,0.502678993165391,-0.944378703629649,-0.784145797974281
