0.285443615432104,-1.68426508574498,0.262938768249841,-0.287317311435425,0.585725057068854,0.980187950712547,-0.0633745269592744,0.767232349642246,-1.10460164303701,-0.251867084777854
0.505013214197751,-0.454648461044761,0.317462441857217,-0.115086943260544,0.567703672072722,0.818905063384655,0.461648756841631,1.09306335736372,-1.20029435771549,-0.391616756434641
-0.431916561009679,-0.478804489464313,0.846711105762611,-0.0117312251746191,-0.138578100667135,0.742590698547965,-0.440276251067933,1.36333976169725,-0.325235419989781,-0.194682117104523
0.728598385125538,-0.271893905290186,0.326843604237052,-0.250724446029169,-0.471017069837073,1.21582657436246,-0.106128680776271,1.6158005123014,-0.67080502682709,0.129868033604415
0.0521192781180056,-1.3806969733225,0.637941157893498,-0.231979650926987,0.246336883663583,1.43887916855602,-0.860022496566043,0.668076876984028,-0.560330238313306,0.414958631409761
-0.0911941634169511,-0.600369813967916,0.697438665778438,-0.156221727690308,1.22754570278683,1.12223785644608,0.800300242252545,0.656096000360252,-0.842948505686026,-0.225737875017039
0.577267134088514,-0.472959248996993,0.60427318195803,-0.0867927213086687,0.772716119282621,1.00583746933396,-0.133795359946898,1.32552124707521,-0.713544171242899,-1.74079954757899
0.30138981964956,-0.868271908626485,0.682016059210549,0.0773676080122581,0.440339057228797,0.40738137630049,-0.076658417029303,1.4683355954221,-0.88576774184296,-0.241489754210692
0.59082742396667,-0.212940014085796,0.939582080433687,0.0461235906590883,0.27302708010529,1.12226626507889,0.0905513766603302,1.34428459092206,-0.719508405205809,-0.314508618350207
0.519812858666579,-0.189791907549957,0.606310363261429,-0.038693214051594,0.420681050905001,1.22749880990674,-0.0240943531848816,1.49216801638405,-0.771300733294313,-0.717131074940309
0.609570101212483,-0.483777621867501,-0.039685983527101,0.0206748887754924,0.137848856351166,1.21171105279227,0.0430753458131481,1.45529740501663,-0.579072760683504,-0.305770494744475
1.2359936873907,-0.572579182536523,0.249751785318882,0.165551850054303,0.155197791253364,0.868572237471111,0.525833314199664,0.861306282958242,-1.26759277801667,-0.39824740791544
-0.307531386038269,-2.37538328550485,-0.0514531101147885,1.0363954843984,0.302420523890105,0.639520548169775,0.738595697783738,1.12680050184472,-0.856374630139639,-1.47559799271308
0.599134087814574,-0.969915953607077,0.596169866236991,-0.285596561804697,0.512685699840691,1.72960050714189,-0.561236194618991,0.871978882522991,-0.262976671126274,-0.565257132735904
0.603399847244,-0.520944742666359,-0.695025662038658,0.685421544401998,0.401424856142504,0.547148166406531,0.864966296085336,1.2676172005795,-0.912038942573731,0.174957699023755
0.648819176606003,-0.320733845199333,1.35249244583517,0.171433612665361,0.517904573518365,0.972620858375332,0.0827299029180659,0.844862871841755,-1.2244983548463,-0.429996042304847
0.587602067296919,-0.681525922998682,0.674281615892196,-0.593972531389345,0.502209561676955,0.483816568196047,-0.253521731158346,0.738487238793992,-0.642725266474038,0.311642598916747
0.616433988865723,-0.530698559607739,0.0806261514562641,-0.384021993604216,0.336986015027799,1.31365676425452,0.455001371612071,1.2588801191334,-0.656593445233757,-0.331551155864511
0.617908568458653,-0.255049042274587,0.540137605556188,-0.0180633142457343,0.594329306887527,1.13975471083226,0.255288662371527,0.725062521613486,-0.797026582580569,-0.300958527061812
1.09206035852001,-0.258139705678906,-0.164437879854719,0.778439239356089,0.147414126819478,0.927110134364096,-0.320495866358399,0.984068893927273,-0.214590177216475,-0.266905416575878
0.722737185772911,-0.758773998560572,1.21149718643897,-0.780437316252044,0.822575632223993,0.71638441736724,0.0460245420845115,1.12787874590122,-0.238665222433444,-0.119087405154282
0.570932443484874,-1.27679917950634,0.569188470470233,-0.17709391865713,0.738909391422989,0.544899893314968,-0.270346843082377,0.274010213154703,-1.68895047323378,-0.181090580628005
0.332091240715503,-0.763721337597169,0.171545179548267,-0.177431291156796,0.805698999399969,1.43477378995159,-0.0808389297129636,0.577719296869126,-1.04218785604926,-0.0693292391842232
0.844719198568304,-0.392521995523259,0.41807275315283,-0.5164082280983,0.474299749794297,0.752603531408054,0.0433272368120552,1.30186885273131,-1.10225067065886,-0.673479999468125
1.00076523013082,-0.851173006231749,0.127923787994267,0.0740004005970374,0.28002846556395,0.992475075431713,-0.130263385394941,0.95541503883964,-0.959083211365415,-0.230553588456644
0.368634669132485,-0.412216989047442,0.587031624976872,0.0631933529758275,0.275984879267151,0.496932218403469,0.0908552429901963,1.36752776894486,-0.652348577612152,-0.16097501070791
0.656530581972262,-0.394827675105415,0.243880931057258,-0.20988998505705,0.269407906409106,0.389100741029957,-0.305126079484236,1.26193190337011,-0.732491392231034,-0.412275594403069
0.343374067649426,-0.450858481796565,0.831375715754884,-0.211204698461797,0.117653997360879,0.665057129299955,-0.459557905349638,1.08443019580838,-1.26948689429292,-0.125048197697693
0.628832499963127,-0.558907845676963,0.636278500429996,-0.417055275155512,0.0829492865965222,1.02288135967207,0.204099352110466,1.09831084393076,-0.658374988454835,-0.150190939798291
0.887984019571431,-0.238596961523387,0.604932610727418,-0.303559521759249,0.355807142835833,0.961851510349721,0.228383720300565,0.942881893359112,-1.15446923697482,-0.453815778247796
0.130410138497304,-0.323799661470938,0.576641612183667,-0.572716104786781,0.81586732085244,1.29096417635472,-0.117744485887325,0.928734804636755,-0.861805290737301,-0.680598368021471
0.544990053486869,-0.432658818733108,0.633584460601782,-0.448799760083457,-0.0101274478015853,0.390589255409029,-0.216424289908128,1.13333016665109,-0.815080585639458,-0.0994705978214607
0.594003841646116,-0.278435237736046,0.602821857097183,0.149170428034141,-0.49163586213402,0.717956637105805,-0.348679730481754,1.16110252959571,-0.72527336466963,0.0248753994785323
0.0626567731510823,-0.192893840103871,-0.161766431101613,-0.391599010105827,-0.474451443002002,1.21724560772566,0.159621816989335,1.25676301666705,-1.37420375074081,0.00398592688486153
0.947863809232779,-0.171730524093985,0.256604945218015,0.214830465502991,-0.601516302039717,0.740370978315152,-0.260005675855499,0.824084087472483,-0.43160905084516,-0.263620456790896
0.403117576222195,0.170366572293328,0.197198814727415,0.471644939134537,0.0823288282002128,1.50617529793517,-1.03523127634287,0.963712755072996,-1.02409739633778,-0.695962856805178
0.393719303106996,-0.297102536265206,0.890025361624377,0.00530530064838848,-0.109147882686746,1.17243774951738,-0.412017465928029,0.695254747875082,-1.08281946478339,-0.501106816749055
3.06737776098506,0.618377663265458,-0.0407573354532643,0.0375295815872086,1.1787070169479,0.593568480345577,0.112881294141726,0.605036043581182,-0.494151823155658,-0.701669623610959
0.700589941920031,-0.456799258991645,0.686761613723915,-0.230455786060279,-0.755689303260688,0.785924055170877,-0.115295736655031,0.822800815064548,-0.691741357073271,-0.192442815803127
0.585534223719472,-0.53614723984376,0.411979293525653,0.00407143572055401,-0.240524257977015,0.716185323522901,0.0662016996016403,0.795123480937294,-0.564287275002037,-0.763942376652677
0.18909246426411,-0.642231476106037,0.696918866473227,-0.259530354845588,0.452385765748026,1.23147064646833,-0.101160472104119,0.511011604514227,-1.03956906401944,-0.0786078545952972
1.12992471299985,-0.492406607206784,0.925906539712296,1.23919715276811,0.829814971756107,0.785545297754643,0.073390729417093,0.515717786504402,-0.717150095288829,-0.668627167168021
1.14450732478784,-0.307664802790185,0.317204734561445,0.469451637045351,0.128215338855009,1.01726261119131,0.410827028188552,0.820932523933714,-1.14178570170648,-0.183174334138284
0.470313317026445,-0.517951148279482,0.578805503589355,0.112276106678706,0.48952494413905,0.980136794023228,-0.485118118324081,0.955313782436091,-1.04245140866706,-0.178076050586405
0.59183960522946,-0.980152961272994,0.471882830340745,0.153297590214674,0.354536416055103,0.859284560206323,0.000848398973378519,1.32064448800108,-0.722539934034595,-0.572990607607061
0.680716964585771,-0.820484135763167,0.0242715808551109,-0.387514412981991,-0.0759610811979827,1.12617898149548,0.140035199961499,1.07273123168306,-0.947223751097159,-0.176792936562525
0.158692512082297,-0.627978386765976,0.261882789955173,-0.41660097981375,-0.145229273138033,1.01082683614655,-0.0188878772381556,1.14379926168653,-0.724780104932197,0.161044413409867
0.267689963667948,-0.376943541200238,0.816496890873323,0.30664985586389,0.444842586940221,0.990232266938744,-0.0611659698638221,1.18800547880457,-0.735991689009533,-0.26701025824781
-0.0170101626457466,-0.414608089553466,0.131587133706413,-1.22558240685398,0.711088501688563,1.57504817621975,0.624612198781334,0.621897993745608,-0.558845722353293,-0.424555828081429
-0.109076353855108,0.29669075389328,0.423365478273236,-0.964468896411064,0.112629238770478,0.959836919882081,-0.349825317477941,1.02235652716725,-1.2690421808414,-0.196453309041301
0.621024800108574,-0.471691063556508,0.692357991872532,0.251601411835074,0.233771499771347,0.249891260462921,-0.351724882955794,0.670312755429968,-1.26218577179949,0.0708401200985341
1.05856887257593,-0.492534290737635,0.0773802976854522,-0.304597807226337,0.587066357196238,1.1058901436882,0.15902584832016,1.15407279024114,-1.02432894310766,-0.323319184478014
0.761766336801732,-0.431090793895047,0.660830247661908,0.0222620753106492,0.210502458514901,0.447896083373537,0.155337126288162,1.17975568934122,-0.936767673196992,-0.541864288888996
0.926259886721087,-0.680032919499172,0.555882620102435,-0.312480263807448,-0.693460246743649,0.655394436028851,-0.436349863458594,1.23014390810615,-0.621538356211993,-0.225649798121478
0.224386055883631,-0.393687363265666,0.827009473228436,0.0245185090078221,0.198134710755121,0.159769279275259,-0.115965294980469,1.1146930374281,-1.03559975523988,-0.187811755161073
0.635143936044773,-0.318880202221856,0.820588081397179,0.272285661907892,-0.183183810887709,0.886331889577244,-0.395474758262345,1.17981000009992,-1.02171172059589,-0.362081658388893
1.09577046364006,-0.568472669893212,0.561018444764756,0.0324764313952436,0.120996306227528,0.626519506484687,-0.18005332450251,1.14150016211609,-0.784609298415355,-0.326237227662601
0.467432544039483,-0.870251742513047,0.671585791959935,-0.864570666889245,0.00605428916676556,1.19790525964895,-0.441571648528695,0.691242012590154,-1.12887819602626,0.412021807154815
0.0815468858103626,-0.887327037540637,0.542783969095441,-0.654702387170068,-0.244064667442567,0.863098834443762,-0.0262091506784538,1.59311164372391,-1.19043434367078,-0.520405899245623
0.354152020377169,-0.611474070849185,0.143622909405352,-0.0931291489938501,0.198597166832794,1.48896132122605,-0.0793081113554221,1.25294015491311,-1.01445557884446,-0.744142067539921
0.728485105579848,-0.573427230547383,0.109154849742989,0.38561446215271,-0.0731188545081287,0.0546491543068173,0.0404477391053379,1.3223004063188,-0.451247315604492,-0.130435649303284
0.724291166353388,-1.02177347047265,0.475310040613862,-0.516252294044801,1.06121356558841,0.64023231921145,0.0637657967705704,0.694541499893201,-0.843152929347117,-0.264292323635012
0.570835728531224,-0.345882914099346,0.353465889977682,-0.723975108854595,0.324101211998257,0.924513656324589,-0.169294480353272,0.775652328094089,-0.989874110883221,0.137129556252573
0.170895013794368,-0.404435221918224,0.76318845493134,0.0352164937979086,0.64090154697914,0.956687010974114,0.116302395414547,0.862109372039775,-1.22921457717055,0.118778593750612
0.787394126790272,-0.637949605130619,0.249338747621468,0.556778178252256,0.491503155021748,0.731906616179603,0.333881810618034,1.28724003463922,-0.666527682472635,-0.632432356972098
0.721222004076665,-0.165100252510533,0.796052490470701,0.143735981553812,0.063144420891272,0.324549538875781,-0.506968376898818,1.11305648236741,-0.877378994385731,-0.290434974249987
0.786970972537632,-0.14936756758138,0.417953627830488,-0.396490330772762,-0.0752099136088787,0.856187068677637,-0.689013790737083,1.30591547823749,-1.07591060449884,-0.614327233638135
0.893339540430912,-0.539223992307358,0.393915609059405,-0.587351011496139,0.425804023868091,0.443966880283874,0.284721473275025,0.72034605102748,-0.996443773942533,0.921747739106433
0.53443924296778,-0.579905078225198,0.752965044454198,-0.615752787506139,0.945797553554359,0.65184438318164,-0.0871876977145125,1.40388351206038,-0.629898954539431,-0.267456302033649
0.670834304422138,-0.388064922243029,0.597187487092899,0.0444892379114078,0.47338130323927,0.95340655562671,0.0066231647992941,1.0694070335564,-0.788513377557493,0.0503070731178599
0.139626331155299,-0.537911745457211,0.0865809126242762,-0.406888438733919,0.258963388374105,0.839741333223052,0.465393899804705,0.960565182933101,-1.23492154863892,-0.230650585392262
0.904465397229184,-0.165032305700235,0.26228125503943,-0.415877753149994,0.00840535399240742,0.938393167723697,0.569807486616362,1.45646626016531,-0.634605379673173,-1.39052530623628
0.112015677144567,-0.701904920069697,0.352949805412564,-0.769433000916663,1.05663343530249,0.658802422170563,0.245413782144288,0.782258604071525,-1.23000499268126,-0.242074935342257
0.759545658098868,-0.521506498496055,0.508210588801095,-0.0683484193874458,-0.256561528321795,0.717006962501123,-0.0808958667734373,1.15695566817539,-0.603628035678243,0.0479216560101225
0.412548452758662,-0.503934141830651,0.946141291475176,-0.637895073332906,0.858853494207584,0.727224817890029,-0.120381075298355,0.65255071674665,-1.44029632031438,-0.640154191609734
-0.05588315337215,-0.982771285464341,0.847859434204258,-0.51824960761357,0.67829692624195,0.909935859566116,0.407298394105948,1.35016332901061,-0.27534692732758,-0.091456564193576
0.0525812796689125,-0.834810924198943,0.513055837615325,-0.356234306761903,0.72618867596754,1.07399858369795,-0.30249989027883,0.488468851186894,-1.09963084168161,-0.401655674680786
0.56272969827365,-0.41942106684085,0.643414686392206,-0.147116223912075,-0.022380419604597,0.721999075149704,0.736875041383749,1.10853004799168,-0.757904150462073,-0.329432714181795
0.427094931618395,-0.334847900188487,0.212538655042615,-0.504933301391199,0.47379642800778,1.64942103610141,-0.0258571005347878,0.986133704141591,-0.844211654868813,-0.250375758699661
0.642497721025514,-0.768494027815007,0.478057809177147,-0.0271067058708742,0.0226982722755597,0.94127414537604,0.334226867929584,0.83251685530273,-0.811995346626865,-0.341103769246887
0.654633309794425,-0.613619900644427,0.316023896189803,-0.14856593630449,0.148864757469746,0.467435296835546,-0.0830618385407021,1.08757420826935,-1.03241504072381,-0.60885099557759
0.37346224538316,-0.578361877349349,0.475628522317607,0.417814309983377,0.603242166979151,0.813995212264805,0.59287037573059,0.749258194261073,-0.994600209895345,-0.434007994791031
0.86100219329072,-0.267068566412825,0.40339430386445,1.10751339469345,0.771074592070275,0.51496965658643,-0.223755395083062,1.10697863673885,-0.749017032532164,-1.08404391338013
0.834442997606114,-0.48858362160594,-0.0918133997998502,0.148306441969696,0.524922582764168,1.21288158834037,0.114817127037057,1.18649766558729,-0.944104326698546,-0.161581423450834
0.33160237221481,-0.603015450216421,0.482049770442958,0.00412520434288647,0.681594673371428,1.17441235490595,0.287604604819882,1.06185141826621,-0.559305265401812,-0.307741654155322
0.413587832772462,-0.321417721622751,0.369421132395207,-0.11364425796749,-0.0542322511243376,1.33782908569993,-0.0453920509329786,0.650034878702986,-1.03692977796203,-0.107355884127932
0.806080975615883,-0.250174267866041,0.722453509598185,0.816581097416543,0.621604330871577,1.13364764763196,-0.146637576225705,0.79360091559398,-1.11558180558647,-1.04834818155
0.792318195927952,0.273667717839004,-0.0372633460248481,0.144055088620631,-0.157495322959734,1.67056128139114,-0.305934161633848,1.00683698249409,-0.660969116170964,-0.239133373357448
0.797114252067876,-0.176802980428713,0.505080935143497,-0.282007424677889,-0.16861929920196,0.814237480061806,-0.364544992740632,1.33251894762912,-1.44294782772108,-0.0528699162547967
0.242493896157166,-6.75704732479774e-05,0.438751888795891,0.205831346561367,0.851910938036683,1.54748963719037,0.400176139035069,1.42556852663118,-0.861802357928934,-0.40864875626312
0.223560866520023,-0.33095206972094,0.385889807586768,0.409677783001011,0.00182181244556337,0.577565988011008,-0.305549879750974,1.8418471588239,-0.901422275956402,0.308997039300966
0.380344620722107,-0.688263593238393,0.422686416048716,-0.385014503213451,0.277111735740421,1.10367167992718,0.181887420101027,0.924281367376351,-1.10112836503905,-0.400692518595673
1.01588398512306,-0.177223080803372,0.444749171557694,0.196711137081142,0.0371770546800013,1.00016144678973,0.116557598928846,0.987103858954242,-0.381338773030412,-0.0262594342625923
0.345902528346022,-0.67962322227642,0.419082200144686,-0.810792187627675,0.845252038428969,1.27871587218884,0.146610819312349,1.4323979840561,-0.596392351593471,-0.248170435819982
0.985874768919862,-0.551280019987363,0.0944554746411646,0.393082945260735,0.714792060588053,0.976241596767199,0.0579380147454607,0.601368952815211,-1.4031135879928,0.236658633311878
0.479643943581159,-0.666030596500445,0.990609007161907,-0.0531072728654963,-0.317240239566005,1.36335999968532,0.0720259035593488,1.3030860027362,-0.488830785577844,0.151231272048221
0.0944206673315506,-1.1469717736854,0.514399897765939,0.288411896240183,-0.0462510140322968,1.01974189115175,-0.131349055204694,0.732580942191403,-1.33469417678409,-0.580510477222766
0.48637091369903,-0.702208290485514,0.111654812695836,-0.148445730354789,0.367756910473248,0.899741145701896,0.681919858991203,1.47059131521893,-0.46822192745206,-0.194316911870519
0.573640211906493,-0.628029892919942,1.27479740527034,-0.216876004366026,-0.102256412958669,0.498918929000179,-0.47193380427458,0.420782892416949,-1.51338013603251,-0.557518258013376
0.750164600499708,-0.626274561539383,0.0865015767808969,0.427121891840676,-0.133471118109881,0.846800166364941,-0.458224204632717,1.24464141133814,-0.133750313932292,0.699835698416833
1.01024809533835,-0.528315039301713,0.538547815627823,0.2831496996755,-0.334204209100547,0.50768040262481,-0.0778966342366247,0.725088197309544,-0.750463686805772,-0.396220827589127
0.320938159574323,-0.322057778672487,0.241760034501182,0.137172248376621,0.176573200077064,0.900861433912688,0.0657795579830162,0.789692953823433,-0.872930082146332,-0.324462322524579
0.925383090467559,-0.391603519635687,0.62485995809929,-0.326670488870664,0.0714709305934897,0.717723586746401,-0.0567898942041676,0.767638177607971,-0.9608838865964,0.0674213537178473
0.574950750720562,-1.34104907542904,0.631302652191326,-0.0564017578892697,0.24899771528178,0.283248346154801,-0.0578743266415118,0.73796417574291,-0.485532760300689,0.00601812463202039
0.663193397189091,-0.396606888758595,0.444149815331626,-0.313990791618886,0.105126071586236,0.397473059483609,0.101009960687745,0.991368618583057,-0.82751800724511,0.282999062195417
0.632155471305828,-0.198238760681473,0.422399637796013,0.143286334664291,0.543178482041105,1.07507649143604,0.380771016220417,1.1188475815175,-0.734129738594883,-0.292478901393345
0.233588091511941,-0.412761469951234,0.477320400243659,-0.665501714183266,-0.0423262270448518,0.958995071749805,0.142880398385954,0.881015867050382,-0.418213452552854,0.430066464090516
0.774568992497718,-0.497806058292506,0.342083928358609,-0.580377273031382,0.420934954120649,1.26483603031306,0.0700648294344184,0.82805727232022,-0.701291839651901,-0.122188724461462
0.807867081052638,-0.177409947640268,1.05168363644318,0.77557600087585,-0.253303138823593,0.853865552388675,-0.554941352540646,1.20666331074308,-0.557801530497495,-0.212453509900887
0.952885504768944,-0.0669937342107564,0.19807829843156,0.193080692819752,0.120951372537962,0.555615942937322,-0.0950107568397616,1.21997197683969,-0.646752620172155,-1.13072373234645
0.722473183870321,-0.341496344063552,0.279280818910447,-0.0789333431520225,-0.322186410564027,0.555255839551797,0.116923733796071,0.939212879116137,-0.846629087500817,0.267374267912565
0.782096215509467,-0.593736265660251,-0.219380791550542,0.00960542056773587,-0.747038594018399,0.840452056000503,0.382850032949846,1.02459632791866,-0.813474701048181,-0.0255279698656211
0.811295998429716,-0.436049383426128,0.598374455588914,0.219568265707508,0.257712739178616,0.895075526347392,-0.42110353531821,1.08194179055184,-0.958653445266841,-1.09012967675553
-0.107178002478215,-0.682250646522736,0.512170355519691,-0.161455541366783,0.725867293480596,0.854520046165335,0.0629333696604657,0.78077697273815,-0.990136898060018,0.200360366393687
-0.155210851123859,-1.48447651579087,0.673815292245363,-1.00637320792328,0.521151792359128,0.711355198851765,-0.469101605367239,1.02264751763883,-0.822735179652394,-0.546530383163294
0.122428064378163,-0.638936938280738,0.731227739695946,-0.0320364851501302,0.16392208186692,0.908205132494617,0.0574930966841394,0.90371350254333,-0.805681824448842,-0.466962129763265
0.549593933947668,-0.94800131296102,0.472681595520761,-0.0463478450207233,-0.079635481445779,0.938104895162078,-0.406314664802428,1.01329008423489,-1.27438968494918,-0.614468896353138
0.530339399352151,-0.660368071969293,0.775092174885567,-0.564259099246315,0.37625922375812,1.34329785848075,-0.561050550023801,1.14444750179895,-1.15758388133777,-0.259430770068821
0.773915945096722,-0.465892654111424,-0.2237070867592,0.0265832875017771,0.255491482726661,1.68697675594539,0.144312007076329,0.899738768400071,-1.30894592736332,-0.963767927754022
1.1244252815721,-0.459399825250107,-0.00266768759013889,-0.125419298149281,0.209818156017709,0.514712046436947,0.164301640426272,1.07608709137898,-0.773123372044358,0.0498798870488657
0.510818039989554,-0.769962880416573,0.426622649996444,0.115399510526054,0.749590935598676,0.855766879125804,0.544159900779907,1.16932069447766,-0.620480016746487,0.601283111220901
0.517381990189241,-0.710016477507027,0.0890291984223288,-0.57780997287902,0.149503414069292,1.41190893710057,0.1039945577269,1.64468321453856,-0.135565998273652,-0.652763345667453
-0.0163527294526337,-0.184609529746038,0.524533127114176,-0.815162733133206,0.75823170619785,1.04730145131508,0.618400158751664,1.05188125561611,-0.845672304883465,-0.108965284846237
-0.0391340895462932,-0.48516429267586,0.702750688393705,-0.219851896961925,0.0853344338683905,0.946012583847425,-0.455203745809045,0.608882367050357,-0.987170703840532,-0.57264149359353
1.36972610796784,-0.809267129404613,0.769732857732804,1.12780404350392,0.876632712038796,0.590649846102795,-0.526816290675321,1.00622838109778,-0.147861110686318,-0.180369765307794
0.430966169984999,-0.171098802693693,0.170258556463146,0.130115940390576,-0.118290677882132,1.75295599560477,-0.408278629202532,0.748183563426478,-0.842137137219634,-0.726599126271974
0.691651533278977,0.434771725555369,0.815851776177969,1.29335376982175,-0.0253634664270775,1.12155076520777,-0.867261193216457,0.748256994890063,-1.15123984652617,-0.291474192369544
1.10237073523547,-0.159377319263912,0.737889203401433,-0.61868223765896,0.648070020641602,0.856318610724423,-0.305307212258106,1.04189147918142,-0.673007537563527,-0.483254671968986
0.330638075188343,-0.508760769676352,-0.0346077695014967,-0.302794918807922,0.217446349248551,0.919558292321198,0.412346718936567,0.58401271501219,-0.686820813565001,0.410149622037775
1.14130220843621,0.197246100474219,1.27134528735935,-0.0459997466626285,0.288626702942184,0.970341497337335,-0.420774914727278,1.6025132668331,-0.429575535942481,-0.942380245143375
0.571125144971397,-0.5816332908099,0.334529868323049,-0.15144575576495,-0.211975254036042,0.760593700415936,0.577716099850581,1.27308402429565,-0.846329426551833,0.135719270567475
0.108504292565846,-0.581216070968219,0.564433704809356,-0.547960343510335,0.460109265622938,0.992787962454826,0.33573757704031,0.806122736020044,-0.713246633672602,-0.353913647118016
0.512565575432908,-0.163791237214252,0.318240875238577,0.0805113428242606,0.0709955196468016,0.672117349116523,-0.0226846433164327,0.954025678925841,-1.0078001094827,0.0736254171164837
1.27638183134348,-0.700426026858276,0.592962809400042,0.545225021270988,-0.0235169044369916,0.596202404455841,-0.310381270746414,0.755204315706998,-0.316850560260242,-0.224749078315573
0.536682832376878,-0.63054975861889,0.659895680158396,-0.243279163935533,0.13752820068722,0.98291448483386,-0.0287756291173612,1.08390587285204,-0.683842431489098,-0.27500254193345
0.609373563774521,-0.670622178361596,0.123220744876793,-0.519772898303238,0.55423228659602,0.939359559322943,0.42519539488313,1.09726310032889,-0.983455579705266,-0.153034689007863
0.745166172415819,-0.538263517470214,0.99065547897236,0.33152843462431,-0.320538306222766,1.18844459936795,-1.00752506265759,0.861398836182697,-0.854490973317523,-1.06436020468982
0.487994211459313,-0.710283944857809,0.639751864017196,0.0896539069609331,0.443447449068915,1.04598621685583,0.138119223359896,0.882821379176012,-1.12206570698283,-0.645812540005321
0.543181549511755,-0.63230847700314,0.365582754958889,-0.367058318487552,0.037131652163712,0.742429840735534,0.0340823408207165,1.17569790490393,-0.980126659359173,-0.446467224607046
0.629305942000094,-0.460722227296802,0.301630903703724,-0.192886007587343,-0.158114326913154,1.00414562376667,0.414943364633001,0.984079433725541,-0.618907963119345,-0.147375432595467
1.83812982614369,-0.142106168945829,-0.395518210221885,0.252540083420839,0.188019281080487,-0.0631155033256472,-0.904745256497536,0.945475744155262,-1.11186659513164,-1.05128383805156
0.458314697169882,-0.614950124784404,0.7639952341324,-0.490969334416439,0.271702653441794,0.739318241892197,0.0990797177576183,1.24232849055784,-0.673406713611902,0.202032336927348
0.52737435990603,-0.00989147141930855,0.837009020516715,0.185450941202819,-0.312765925565161,0.820888999761431,-0.509162176970021,1.41199024237576,-0.522459478637264,-0.347769919689157
0.65771417986969,-0.745645330846607,0.610005692177243,0.373227330241235,0.486812338982281,1.03049226852507,0.515416706503406,1.17302081889957,-0.478666995120159,-0.511360106402466
0.0884119619254917,-0.797277528504548,1.08377952889597,0.224845190315815,-0.0102928148298613,0.939698031720943,-0.597215925573761,0.688181613425952,-1.61551034725711,-0.123082228791981
-0.0101021908174319,-0.594652089857093,-0.0395100756541612,-0.144551582569113,-0.434313140556992,0.699786172715447,0.0343257380721677,1.23975582826567,-1.18772743611984,-0.222745105489228
0.631329918504093,0.0465914827403608,-0.17120316808227,-0.0818808405358352,-0.197530858830732,1.04507268402434,0.411517300558964,1.3937194491263,-0.854548975284044,0.0606464474910431
0.320379247021233,-0.521333122783213,0.380928751304736,0.0185611668879668,0.675979463105656,1.4579920129212,-0.206142217964806,0.564209136901709,-1.22720889550937,0.423152937424887
0.344215337460107,-0.568038529329478,0.463092214435437,-0.28168583240825,-0.312312215367674,0.698308376014217,0.404674624915938,0.923213668002196,-0.477447796907546,0.140817679306187
0.672653909981069,-0.535601816473283,0.645427399914027,-0.601532052495062,-0.192728402895773,0.616218029971636,-0.118651569783618,1.09149906685199,-0.995383812133584,0.020078413964066
0.631036172001952,-0.483016898870351,0.115261299789806,0.0185471112681252,0.985654416859945,1.4007521234653,0.590657760707757,0.88234101033703,-1.12851007185368,0.375834364225385
1.51256135725763,-0.261722475330576,0.30048352055675,0.55638481336924,0.754907647798795,0.874860717496435,0.15413745839756,1.09585473817549,-0.674998024923815,-1.48084310131269
0.459028239670071,-0.330880640558602,0.27928582946889,-0.418295001821665,-0.21742858163981,0.52140182606669,0.469908578046621,0.920393778830677,-0.761616533863429,-0.791419364108261
0.0612240470603859,-0.837863020278099,0.985047963858352,-0.522412474260077,0.636604122218546,0.753012131921131,0.0739243235359919,0.898102457224794,-0.858353721726207,-0.555818518829443
0.382671028787454,-0.335133171801192,0.428702776048864,-0.403766134152048,-0.242997870340718,0.708933571889647,0.305299846071054,0.859028695558848,-0.481231166432138,-0.0748869172281816
-0.00910698769799696,-0.517854758381872,0.663433840085956,-0.264622250494713,0.770144366847919,0.765393731232579,0.332699567771003,1.16873914112632,-0.459878419561341,-0.462547054228108
0.562998981858716,-0.908317985468102,0.786058557015283,-0.417955345403634,0.25729702184528,1.28523737892373,0.356806930634343,0.737015556090112,-0.908857788493962,-0.849264578112503
0.683570674220504,-0.382007997521676,0.36487712573528,-0.170949944974938,0.937539088914826,1.19226765518233,0.0095219578962443,1.18085369672182,-0.865418122572901,-0.565161416971265
1.43492977951547,-0.270939735331628,-0.0493134096738859,-0.170848257409556,0.0856435620158347,-0.0636824136883043,-0.971988409611414,1.37366266930322,-1.00558928292704,-1.14172135584362
0.273809291983927,-0.712128598621369,1.01095623417947,-0.830725086424755,0.103722910310072,0.868741398322239,-0.16740594768448,1.3986621611835,-0.558192285106461,-0.555819986411064
0.344637542061732,-0.518635408638826,0.290221460841317,-0.212046034578731,-0.548595248865669,0.289433740658979,0.468684173736088,0.872849354262296,-0.790611472239885,0.0641656891333898
0.747382198081702,-0.206278036454937,0.369629326361211,-0.0104196668486509,-0.0607719466700108,0.586992356369716,-0.329792419951415,1.31968418087895,-0.97417236467746,-0.522178638587082
0.441676559821773,-0.486463422328475,0.505996002185696,0.171938166364552,-0.0496266606412331,0.226769303405291,0.274489388091998,1.1034015362026,-0.725754042116947,0.0830447331105984
0.676380192514727,-0.410675258535804,-0.198227593074058,0.628684629037569,-0.39292224613166,0.70133281852831,-0.409352772922916,1.5170652996985,-1.29218820179773,-0.259075453848108
0.845340878223994,-0.566141751850916,0.343097660029272,0.0549458537099985,0.284093303818957,1.19792129820209,-0.227563785385754,1.05051218483777,-0.707504162887208,0.0581278467754291
0.734790519199602,-0.204012951367032,0.186746006670651,0.88569719314126,-0.353273928051864,0.314301427185048,-0.740641285868874,1.48570892590517,-0.399221649374868,-0.370765253114148
0.35057953472072,0.115632235173489,0.640093514151761,-0.00925797279181567,0.773259229348567,1.70694076821996,1.21630181902667,0.611322509126283,-0.670418140084228,-0.567840586064618
1.13149954997088,-0.825438246682755,0.444840437567067,0.807720218536736,0.802340650657583,0.276178922417693,-0.120962285481415,0.52308694315455,-1.20380608491961,-0.370047784215357
0.842408974261181,-0.64323580033793,0.207649033771024,0.295832245068645,-0.0499555594120405,0.96661047155824,0.0929895768439346,1.29102502770281,-0.772359936048034,0.0681479568836748
0.678915685423223,-0.32797181982143,0.116662971246764,0.6031808814744,-0.751416836738054,0.768756463998494,0.0194833321204861,1.20569299367157,-0.806176919293054,-0.393300196990749
0.28285018342485,-0.60664308963204,0.202975880420752,0.0067627284933092,0.0697236493294781,0.571528601103978,-0.00366272593922202,1.05905233130933,-0.986219316908993,0.0986919351486289
0.143365046201557,-0.529958412574276,0.183994780286879,0.370052985194937,0.34681167986984,0.666582685812301,0.00356779957634674,1.20747006865597,-0.73456137009852,-0.231120104444711
0.732316065571741,-0.565012362764461,0.457207312752581,-0.080882126981855,-0.32748212786588,1.2446943780231,-0.187974886638363,1.22458599242767,-0.914072171326354,0.0813284044491688
0.63216330493419,0.064170357497615,-0.885922100009071,-0.0647624641151106,-0.153965718250528,1.14097334120966,0.985111337614829,1.39563232778601,-2.04100625004544,-0.0480249932487597
0.922124149968167,-0.193609663239768,0.690077784384726,0.539600710315219,0.610461589815289,0.409576191784216,0.2933165759984,1.1264002632661,-0.724400995383474,0.128691696653386
0.298896425740941,-0.232777276528955,0.381138033426686,-0.844373899126207,0.156143732852421,0.778693121125937,-0.233058961693395,1.37541037143016,-0.976098003440222,-0.443157046257491
0.363828880600992,-0.690916680664022,0.908765191691596,-0.620805655008997,0.328193428046668,0.715314942008875,-0.0247791542548292,0.858737633498255,-0.934491299991592,-0.178948852536892
1.03550471210641,-0.505381871454153,0.466171961503377,0.54029529448363,0.691310017246845,0.558916519969311,-0.380804590493403,1.1003183848177,-0.986078727917126,-0.316737521693646
1.15546752418851,0.380808745927628,0.537948501046363,-0.191894180363843,-0.296110490761168,-0.249328079363613,0.113100009451836,0.830428642925339,-1.30883257831781,0.183645778416014
0.264575329180596,0.073111428447741,-0.444064061145221,-0.547059518072563,0.092306125217523,0.907680939392357,0.125534114795028,1.4553558049774,-1.8935662601246,-0.307445417084498
1.1142256501202,0.0849101483015484,0.549055034114005,0.257406492981592,0.244738310093471,-0.190547935209968,-0.052930543873145,0.822097484724239,-0.420203079144986,-0.108981613756963
0.621207145383662,-0.157866252761177,0.577657339031387,0.361998914420013,0.536615995242009,0.518240993623544,0.0563590715344833,1.09892341221118,-1.08785913317813,-0.0463845652246821
0.572441078100818,-0.148124598336141,0.551113871202141,0.135665732179492,0.519267080782258,1.31456237981114,0.542085581515986,0.597569475762923,-0.869904902669997,-0.715637568046664
0.338884809471507,-0.119513162192677,0.283774881124325,-0.383074287870158,0.515186282609299,1.50113850469513,0.265805753481653,1.51214469153298,-0.363485981258183,-0.227176818974061
0.713927542225633,-0.43440259010097,0.490997127455679,-0.102568889887429,0.173504617912578,1.03722130396858,0.468891606578869,1.29610823045296,-0.541972139616302,-0.223215856951286
0.511460903021921,-0.39595181409218,-0.0392400732115,1.10282903390234,0.039874338391767,1.40510346770738,0.317701050707271,0.98301498615218,-0.729791696155841,-1.2964686156525
0.854715930145473,-0.201217660938357,0.210492440791403,-0.492467486714587,1.01376162136585,0.724443790131174,0.00848556216119402,1.08548347245809,-1.15351632287892,0.171343854751718
0.952704450775566,-0.152199425886463,0.0492361163614557,0.054151134423867,0.375315218442477,0.990834916385728,0.0368298767498926,1.02103168292123,-1.23863884084332,-0.660613097925352
0.38798074207939,-0.26509730481473,1.04701536875643,-0.331195898508767,0.810961631714496,1.73097460821689,0.139297437118169,1.1587741532961,-0.0993653659816562,0.0112442379448203
0.832826776564124,-0.516210370859132,0.613572495581054,0.0631464534599559,-0.220945668694924,0.317306649134887,-0.233355320382662,0.781736278777743,-1.10992204513935,-0.215687705850444
0.499835622533368,-0.485126062054864,0.246956458583956,-0.0945266293599105,-0.234135254383466,0.712566241931907,0.0354342837345059,1.28028618495178,-0.547134519061342,0.194326892234935
0.445624888538727,-0.597101559095674,0.259041428548916,-0.4872033212559,0.260247461600586,0.97798866889821,0.106434398343522,0.877683464680271,-1.11739028991835,-0.287283136829792
0.643366669548128,-0.688112898133537,-0.10133407961315,0.231456724923312,0.663789710552282,1.09958323679191,0.638962739562506,1.19539194498694,-0.564545153516635,-0.998129169797928
0.363684660381717,-0.493811949236044,0.592910401735843,-0.273693269342097,0.660972871432171,0.267771791600116,0.325808122410032,0.923356682266294,-1.0615925364552,-0.382497076990686
0.522372058141641,-0.501056150497456,0.604195957185504,0.0153264123497379,0.153153071337339,0.891317120394966,0.108652113701985,1.52103996743935,-0.653081629621789,0.0557812479029301
0.887602892731652,-0.453141931894974,0.515924123821036,-0.219455765248073,0.259149677929265,1.06720004129898,0.715569333981776,0.763876464840547,-0.603029403804792,-0.868214135506078
0.245417533443972,-0.642462931753807,0.557184720957786,1.19639910116029,0.520013891060005,0.538858757997144,-0.00768560439367462,1.7919547646397,-0.309680453575312,-0.0935582502717758
0.128004724505946,-0.489030742981931,0.573165307995975,-0.0765929306419254,0.906771516334437,0.760761993427887,0.0235204152586975,0.938024506350672,-1.04210468601155,0.0664740868398657
0.335240861816585,-0.993057503136925,-0.194070930695403,-0.700953506691057,0.127895344011301,0.741588166683462,0.297086658655908,0.817770473616219,-1.05177127052698,0.0131847077121294
0.494966037611387,0.185694214448814,0.791797533040766,0.478027366807644,0.202833905203667,1.29478538733728,-0.545047580051684,1.7168638694551,-0.80727416538962,-0.53742120211695
0.0315006028044389,0.10717973548536,1.43778583830044,-0.534238270067,0.220017489947586,1.17921528352256,0.152241093103483,1.36174936674117,0.0214669421813197,-0.434883677110888
0.247579393946741,-0.32935712996172,0.26413582298276,0.59570502298129,0.1974909806319,0.568651734223,0.0177828081814134,0.520092459203405,-1.02363577963263,-0.00730455448674113
0.863957283679002,-0.021269563293816,0.319382616528968,-0.289365568753852,0.413330020114685,0.81223452080415,-0.581407069420771,1.14744807107307,-0.773692336679548,-0.0447115804269387
-0.374877432918824,-0.0576731227402459,0.196818000695149,-0.268757400040912,0.300725714829012,1.35881929250837,0.670400443476626,1.26723030676063,-0.910366654927736,0.0899769090907026
0.838763695380874,-0.301342733117227,0.238886085789788,-0.000173536961806045,-0.112207022074827,0.648652149151096,-0.0240476917570977,0.624258973583082,-0.593252233329088,0.106820391959069
0.590442252900127,-0.219379978235355,0.95041756135098,-0.376099168488564,-0.131208714992178,-0.196956469770966,0.453406191807774,0.758066401204741,-1.07203258968708,0.80749813991151
0.662717292332957,0.167433982186585,0.423542944035105,0.279922457746113,0.466204223521307,0.959247520394925,0.42363939563387,1.22952502390851,-0.652330122663563,-0.721539468536236
0.618894665545581,-0.36433897749909,0.252564871368038,0.678144877439821,1.02247990787732,0.672232009802747,0.565101421751881,1.04469562621802,-0.742842591954965,-0.858882706146448
0.23136108714926,-0.207728598863483,0.711818758517768,-0.0481942571559508,1.00385021898304,1.0777067349862,0.0038620288795238,0.955994205280062,-0.65767352917029,-0.349799066837203
0.679615392610349,-0.741438313966434,0.619345680036432,0.0813498993373832,0.309494915631715,1.11477721454289,0.323019433376542,1.25793887370577,-0.74304626336399,-0.330332718006702
0.433635676638907,-0.439205729206988,0.438054053028614,0.469966088722842,0.101042925095267,0.924686351995218,0.130361405366684,1.16179800019183,-0.336243837315315,-0.486679502266029
0.891338664270637,-0.99059359394198,-0.253459619102904,0.217970686941141,0.326054144233261,0.837517647309946,0.0437982224465616,1.32367094183205,-0.381914469295164,0.0277888523199304
0.721683104534661,-0.505742095121452,0.511599493646846,-0.260395447530802,0.529774157248453,1.02171535392666,-0.112924760579851,1.12835039351707,-1.08934601806704,-1.09300584523072
0.377196219353451,-0.127453807412713,0.544377855040892,-0.549760305729737,0.713877791453966,1.30069530849841,0.0650917135223069,0.83838986796052,-0.989984163920861,-0.585101280080721
0.352314281729257,-0.554156462361899,0.634415139117054,0.309113651037214,0.655874534422126,1.08517279828361,-0.0670790664591989,0.950785503501976,-0.791787752174022,-0.286132816439712
0.487111870342596,-0.747128030260391,0.658260157639738,-0.73568414397228,0.334303736963621,0.260901326941034,0.174940898715177,1.01969752426313,-1.44931945342195,-0.608605696344476
0.741115743606506,-0.552609638520785,0.375770625003953,-0.0668601767979091,-0.38174438210485,0.5951494093758,-0.127738371770921,0.846304099052431,-0.863076103294764,-0.67723667462391
0.226555566211164,-0.694270292779639,0.294938249298226,-0.308588962569441,0.564900074675814,0.644629892588614,-0.0252742885552887,1.0425164580745,-1.07217750757875,-0.346387441485492
0.357441281740531,-0.570763052844579,0.161443663192791,-0.60536743178467,0.556004977531962,1.34376201546138,0.06715795822161,0.61877522733913,-1.3451925290867,0.154569428474711
0.832114020778578,-0.227325921373559,0.403859898001629,-0.274641238452824,-0.364657172920526,0.702446561566112,0.204316982245086,1.01368228303408,-0.876101620523039,0.293178560967499
0.131679345460691,-0.839260656875158,0.727691329208353,-0.388572939358663,-0.469769592950098,1.13629407551844,-0.426300610403271,1.23215267699406,-0.779126315375799,-0.727340619670423
0.433801107954093,-0.701925778532808,0.509834910644039,0.249439062130743,-0.479437794377648,0.276622529628725,0.340450828639155,0.834999094533928,-1.80341591107242,-0.362043412587864
1.05145721995887,0.0724887721024627,0.801417725130454,0.894290847286788,0.263392191793481,0.82068774229283,0.0190865713668347,0.426754440459519,-0.913887776338886,-0.292586285543257
1.06872317940571,-0.157521529148649,0.149016032751313,1.21487144768745,0.534846386578848,0.391361752790311,-0.027140589944152,1.30251583382556,-0.470702096323538,-0.301949778350678
0.446295139291963,-0.704876364272749,0.836088738150912,0.221830105028214,0.697303383372809,0.881171065308477,0.355706273677312,1.13264447001471,-0.813480933687146,-0.341775342391724
0.597686614248168,-0.633502837551267,0.322494962685966,-0.206260745797566,-0.112833761315273,0.709597334839449,-0.0982657137792401,0.978341351156313,-1.28405038945377,0.491161252790037
0.479554964508166,-0.460112950092081,0.373195520625325,-0.460044549185639,0.749331268899536,1.05483838991969,0.464396181492873,1.08193468758645,-0.712076261423072,-0.438451073216996
1.34973594583542,0.0576790044511074,0.211023181940529,-0.20211941357813,-0.242370013133219,0.343267465762797,0.57316784254578,0.964869814667012,-0.450354747890857,0.05790901965219
0.622606266890811,0.396449034534886,0.172990460652484,-0.518509121189949,-0.463333979165838,1.39584290524346,0.48034221468228,0.336290082833766,-0.610886401731517,0.132771245127268
1.53410835106401,-0.372434490609833,-0.185941899812743,0.501317580877953,0.375151145580193,0.882465198049274,0.273329731130876,1.38570278485778,-0.549620740910146,-0.373850159379087
0.889139469223131,-0.374035539204037,-0.0921807574391181,0.348494601692594,-0.197570730389218,0.545783259617828,-0.244763954418381,1.27589813885697,-0.684208238573281,-0.330894955306823
0.142485017317309,-1.08154219159928,0.305503125746303,-0.0232306483213793,0.364837951455085,1.52531727722978,0.116601161723623,0.890607661594583,-0.629575759563529,-0.320571620149331
0.70725890623546,-0.209398789964995,0.22771496211404,0.0285022565159125,0.0963878088066321,1.29027094072906,0.443627027669484,1.69567475573393,-0.592823088782139,-0.834609581669199
-0.0145666405156946,-0.339425620251221,0.43178862918159,0.466210110337912,0.96613597855558,1.29129438525269,0.658519193041878,1.06465491758833,-0.373119664015061,-0.0850316824551751
0.148193814375539,-0.636134867562038,0.693471502675648,-0.203481074381163,0.668566637159822,1.27506684343475,0.545738101788919,0.915195443529578,-0.799010906430935,-0.335219758716603
0.361138365346766,-0.314390826833093,-0.158952884810294,0.41876988977235,-0.533243654939069,1.1410071435507,0.666003160319626,1.77012527619116,-0.488242962577726,-0.136870220739732
0.163213205595987,-0.849196509347952,0.513419180737497,0.149681947063946,0.368791133814741,1.20317448054591,0.108780421515758,1.07767078232554,-0.688114499231867,-0.168815606462434
0.904042011407479,-0.338307148315696,0.180190743738102,-0.0678679284635582,-0.375760633057052,0.636778383931407,-0.189668076690227,1.09257664205529,-0.68175436020455,-0.278913879155156
-0.372069894502327,-0.0195457384810079,0.365619945522835,-1.24330714503568,1.74803095235253,1.09011356236485,0.0203668539173286,1.29076972725883,-1.00425501474069,-0.224785878397279
0.837997673595607,-0.179866413414634,0.237966888354464,-0.583084439842687,-0.217608527655335,0.68114945207037,0.162347313600093,1.02586314230657,-1.03723063202789,0.427300258283277
0.628533968242322,-0.484839673192305,0.426821699663693,-0.167506875110711,-0.230820995633723,0.483069846478028,0.399468259377553,0.819715479857643,-1.03519650537532,0.0153899999122083
1.20878777977993,-0.367628769076878,0.0672094852636165,-0.0943174019879049,-0.0568275288280047,1.06760884055637,-0.039928490034313,1.63420135254084,-0.446182195829189,-0.133253985340505
0.504795918998362,-0.666471516842442,0.086558377437302,-0.187692966669,0.564502021249822,1.19107686227253,0.279405718915212,1.2648768030738,-0.321840863213541,-0.452264008924584
1.12227851644905,-0.348137452230898,0.0643264969267421,-1.26177501352051,1.00556056199246,0.873206913359186,-0.184314513922238,1.14571461283871,-0.825484534347426,-0.538956084645217
1.23383346212516,-0.0401656249830293,-0.0036899870091928,0.220538524147964,0.181611227348825,0.687833266760849,-0.447945761654259,0.649228649388751,-1.05008583472539,-0.461849654607021
0.292642277958052,-0.149050545093299,0.492193262258953,-0.902828356844495,0.953323770952297,0.824008843451174,-0.611186293853921,1.26149768720198,-1.01071698607544,0.826508239573169
0.770348734034443,-0.425640495682702,0.518423794789386,0.111099389046494,0.554281314492785,0.777792459144503,0.308587051568492,1.02928626147932,-0.870788554784877,-0.102862559370159
0.397369357608388,-0.482554386979054,0.962554083170134,-0.827486375957697,0.0118429120722185,0.524245034323832,-0.500820191781844,0.710004531144889,-1.10128272143779,0.247094793629752
0.537764485761483,-0.452625973545315,0.37108872625424,-0.736102396784704,0.327767298687296,1.28468306878962,0.0722896243348298,1.08951492372683,-1.23530283612394,-0.471267816866283
0.283124195641229,-0.133950813677033,0.140272502908294,-0.249016509688609,0.828060549995644,1.02936206571477,-0.246105634776365,1.76656702326707,-0.831435293162682,-0.912393727245199
0.795378674929853,-0.626272408458374,0.886949062914441,-0.219107076195452,0.60024502108517,0.682422985222596,-0.0205288569383616,1.11912438592136,-0.678801151146931,-0.54594702269321
0.813270361828976,-0.601931091429338,0.748535798099167,-0.601167583038315,0.127854944946386,0.941974389514528,0.102420084710409,1.12722319654665,-0.836652056278397,-0.119656349798459
0.636013002137438,-0.227161107861238,0.340509155780226,0.56704924207039,0.756514704522546,0.986147031627304,-0.026170380774339,1.32505080721469,-0.981637874551183,-0.0129784180467385
0.519016035747254,-0.536426107053372,0.382025481717336,1.37358203093259,0.280425133528232,0.651770306816792,0.282250435516226,1.09757815255737,-0.636098496956638,-0.394137810287915
0.468562728314213,-0.343870208620075,1.3123404702327,-0.891104092199242,-0.391554234952225,0.215985960614815,-0.087041714936509,1.06449420493506,-0.505401772427064,-0.0733140326527716
1.2564967177886,-0.0550243157285262,0.26277064210175,0.108925441015439,0.506282826757193,1.48373207010973,-0.380002277750641,1.00034201029785,-0.940767109331178,-1.1617709044676
0.416517167446712,-0.770982347728695,0.288601763143307,-0.493024441606371,0.366182884851923,1.36066774077082,-0.00310442188501384,1.26583633394952,-0.590007563494451,-0.167422912696701
1.09762278963935,-0.421104559218926,0.161343260783341,0.65254112638416,-0.576083497030702,0.892865767769565,0.335198622197409,0.746651360774726,-0.613714629723984,-0.0957450619091935
0.463829906544052,-0.476384934222537,0.63196725656443,-0.18157494918303,0.277507866819327,1.05683605740163,0.0355139756221329,0.912107369253616,-1.12058753837438,-0.523127990699753
0.362139715074457,-0.467871697671697,0.60644780267178,0.447171654640738,-0.829503294551123,1.29507063341012,-0.283167868884675,1.5881375808478,-0.0158033495030626,-0.352417828780342
0.864265097482803,-0.0412174372989889,0.348519739384118,-0.140905294616982,-0.698252761016616,1.07436192536013,-0.492373454582028,1.3441758556298,-0.749219463825126,-0.829125548946603
0.719074179686252,0.0834860440287486,-0.109119350887464,-0.21840484472359,0.326261357844824,1.19056518398237,0.126484350763586,1.18009769343412,-0.724773991576527,-0.257300183477113
0.500111569318424,-0.481913141676547,0.207275849781194,0.343566403651487,1.10238590743368,0.848366654027614,0.365518645964537,1.27763535793987,-0.980209046310494,-0.171776182116782
0.760394815133551,-0.655234133792834,1.17983612822971,-0.428669184980302,0.830670462071954,1.19044801945714,-0.219944805050689,0.920153889452426,-0.792812439037798,0.010664332005555
0.87003182204913,-0.324419636305124,0.779105465139314,0.00194149799531741,-0.892670909328079,0.33461073643681,0.0549248826931193,0.870523970131254,-1.08483391787643,-0.742378848080785
0.573679929087377,-0.623334273314055,0.439167335428772,-0.456419101223675,0.378853000329071,0.535983926825365,0.30827790950948,0.982326628752498,-0.428791088488273,0.228103261249318
0.395321346511905,-0.835452276019365,0.617756645787914,-0.480366346608152,0.409925100808866,1.15957378321694,-0.254711672932802,1.1629601356286,-1.02923703852855,-0.563620196293669
0.112147978787976,-0.661712666880435,0.655788256598851,-0.380967248982079,0.336575488333268,1.08017230506976,0.00830374463359902,1.00754245761242,-0.826244974450411,0.112864824164612
-0.41086811317865,-0.85798443251671,0.419107853449163,-1.31642926987607,0.85159112204481,1.26797661295967,0.650683376747017,1.13283253379729,-0.0297609161737164,-0.353094449234796
0.561935042903893,0.447381507529047,0.157599997651667,-0.620549897506509,0.80952373239166,1.35461763975853,-0.34678252177571,1.19536759593048,-1.82083090301259,-0.995479104414734
0.157993600374619,-0.507269029820059,0.570884144329569,0.338837488121633,0.497579768531054,0.799899508247725,0.870995897060415,0.972158889247826,-1.26402285101769,-0.151325430054747
0.346605382071528,-0.823356217434568,0.79688467801521,-0.372312941693808,0.441155727767657,0.733204655176602,0.26963860009285,0.951872953687917,-1.18301001740211,-0.409927753952766
0.463814113542514,-0.580737667398035,0.42881886930198,-0.337540675417531,-0.21687264285743,0.937323311624416,0.107942549345794,1.03497069353398,-0.441250806185302,-0.123520498781105
0.906260206400813,-0.739950972868643,0.405452461245769,-0.173535163331744,0.410062279468611,0.830961183314069,0.270018538728557,1.15821310244049,-1.20955923185374,-0.0600920960263586
0.480897177460933,-0.241965879420405,0.640178764414613,0.374555795376216,0.0629364575389068,0.807492116722519,-0.268679981051523,1.01891741284307,-0.602239423285834,-0.303452572051112
0.587575579850132,-0.569843214170194,1.13949420547574,-0.487831603924854,0.535655101879141,0.959627223585787,-0.143092087718809,1.09614956646772,-0.902704511696822,-0.00955244097152535
0.898368496468442,-0.409606618257164,0.492326980089109,-0.50957699087142,-0.0950612865555222,0.674769434293619,0.443420259734669,0.869473078777192,-0.960916587266292,-0.577171626580581
0.98462309573831,-0.280120780928195,0.617098766477448,-0.308248138309569,0.398536215859536,0.980635064895487,0.051120729891048,1.12460394175042,-0.709860619194572,-0.102265783076718
0.380001985112743,-0.412441828218824,0.504112078681858,-0.0730893467957341,0.545095080222898,2.60333999396992,-1.70269958574495,-0.693928275328127,-0.742018355177674,-1.93395602842204
0.764261162660644,0.748798119702016,0.0505555745069116,-0.566574949221958,0.407679354371611,1.94441949536346,0.0362427517400876,0.995027067077507,-1.12126939179994,-0.613667729721578
0.733857908383952,0.076401829940723,0.00971620402859493,0.00790270587102945,-0.742944933409252,0.880366663630031,-0.15500431613438,0.82078422627634,-0.949562922080672,0.302727323651581
0.565298657822661,-0.664229261151504,0.587869431351286,-0.236513281462623,-0.0212743028459441,0.806058287704656,-0.264757179345424,0.911554386346116,-0.717379708632077,0.499333640830845
0.781856780761032,-0.894779694665098,0.743817758974464,-0.117717246502077,0.468318029915933,1.21518877263447,-0.223903361862189,1.01741229735646,-0.658860208815555,-0.780912240892465
0.322919246071521,-0.438957035271397,0.230819240413783,-0.282316964914385,-0.154206958971581,0.918682492316786,-0.183081938145575,1.21669191737275,-0.844162698583893,-0.00428935993679246
0.734666210405343,-0.272987447474888,1.04026573087377,-0.419844736174084,-0.00971305750594761,0.800639121335991,-0.361079505930044,0.846172375526941,-0.87790284332969,0.0118708485013155
0.348001631789608,0.69213210214427,-0.189856779154393,0.10231033432316,0.186585195682384,1.77839563476574,-0.535639496637837,1.68421900532155,-1.29638080201297,0.62136039149435
0.505417685280896,-0.601546461012453,1.10471311009906,-0.147767374877744,-0.102298354967315,1.30049817214638,-0.0658328749439756,0.755912774728366,-1.14574082993897,-0.411609872387077
0.345843934817515,-0.127146304204406,0.444706190084733,-0.3741592749125,0.00567410750793882,0.0175537312078191,0.501864145624772,1.90554569501287,-0.95335456651122,-0.403508680297641
0.667666349329103,-0.462281645944328,0.508104321255759,0.173920043924332,-0.311870067029155,0.69447982951805,-0.545318949577912,0.503081197823991,-0.788098044158479,-0.423388348887927
1.01422027773619,0.0559538271793891,0.438295081740963,0.892259306995584,0.458154144909637,0.655892751361735,-0.226821765178299,0.923905790633382,-0.859432380359916,0.12049923527186
0.638389402094543,-0.770703678134458,0.838442587623087,-0.479837874628614,0.240620111319829,1.19360071994343,-0.0396170770247506,1.15328448296806,-0.827731324448648,-0.815355452469955
0.399791978119578,-0.485550917769192,0.870103483282799,-0.314562433542972,0.502782277626362,1.15566003668707,0.0863297920890251,1.12071308231917,-0.973438299446242,-0.578767960540965
0.05476272727429,-0.54772343355787,0.787684216347266,-0.387995533727041,0.998125395286008,0.631738832803357,0.37701556469931,1.05553918987052,-0.80214737739593,-0.0913228986867072
0.882027294590369,-0.295186266971484,0.956104454375928,-0.458641573913276,0.264252671041522,0.720317246113402,-0.402065899941884,1.16730946778932,-0.839851423843291,-0.104373771242507
0.946273899653659,-0.652215139440922,-0.180927146046824,-0.034176208705427,0.113576540504339,1.86964059576683,0.0735636958088022,1.16194287191978,-0.898894648679256,-0.816072023814265
-0.0476577687473587,-0.799282753937427,0.109743799180942,0.360246606776315,0.65442303660461,0.970509544224279,0.709439089358589,1.39702628845654,-1.43940592242693,-0.103140632812072
0.869705424781989,-0.557322420956835,0.267175019536419,-0.640662901282962,0.246425481786596,0.859357705217407,0.355036039992716,1.03083966652057,-0.836232572635686,0.117687174949976
0.716106247753987,-0.399183067863351,0.792211136328045,0.354335524480862,0.543898065373983,0.834067807723168,0.219884939029438,1.18754181208145,-0.710325808151708,-0.606137295957362
0.424607237897417,-0.377775606712284,0.0637007604847847,-0.519264907535536,0.708090015184864,1.05931000493959,-0.143251542398598,1.16991901672194,-0.868341060295831,-0.562523385256256
0.63881962340257,0.167160792418953,0.634570704220344,-0.199416280333895,-0.513983919227262,1.02816038360184,0.0947873986548193,0.91711564248503,-1.15549819109353,-0.936499499026224
0.794600849298741,-0.438274281038014,1.08572148438282,0.247544366762413,0.0838110610303938,1.05437699703259,-0.593474587653474,0.832656882724587,-0.653866309321856,-0.431753615659992
0.295733904540108,-0.00507167674140158,0.0425912637791109,-0.205360341937457,-0.017425986847036,0.713382483909177,-0.535591725181969,0.803965852995275,-0.666605742324267,0.196742233316696
0.521488163242413,-0.70952513207089,1.35246506725355,-0.612998179133127,0.664845130670669,0.717850198685457,0.505395142591046,1.21999371325593,-0.682526701746475,-0.113602864616466
0.933210515876816,-0.127148942154827,0.58529951335064,0.366215955667745,0.209153038708731,0.420539629564518,-0.461369690638375,1.02113502986924,-0.834443098639614,-0.4638830017419
0.267886410908337,-0.662564510455855,-0.142645068720733,-0.246990939691376,0.641150112230813,1.34626710962462,-0.078628480353223,1.16688198568147,-0.601917193028708,0.483226707791598
0.496697983786164,-0.524637423991408,0.443608717251749,-0.500734385171096,0.184298171643499,1.05700000466929,0.438493446248111,0.847948147503834,-1.0339872055296,-0.0231219958378292
0.416856524999925,-0.71517308309389,0.428671744145598,0.0801547744512453,0.735235137709462,1.34117896047161,-0.243137253648853,0.49426572530108,-1.22947939153658,0.110019217123781
0.516860702371865,-0.448700243392842,0.81766100311296,-0.575336776966235,0.353031274722788,1.46147659416099,-0.31675747941291,0.847722450591811,-0.625499198597925,-0.939228008465375
0.813083520775552,-0.522503881156397,0.460492082483229,0.132615808676279,-0.479715704585132,0.867114827767642,-0.0948407058511582,1.0453873406404,-0.418861389684581,-0.247530285672602
0.347204103415473,-0.530631612831692,0.289301273023318,-0.195442327384355,0.493871455825788,1.1239043877273,0.431812812826003,1.21688911882309,-1.02675659006365,0.0205563229437241
0.351427933499396,0.0256208585970481,0.424012396102039,0.689123999157726,0.103423122754308,1.12325992970609,-0.0152555289976119,1.36826363403452,-1.18165793392722,-0.41469397948311
-0.229055900993086,0.280399543334741,0.395271278498174,0.185057770482626,0.639470679150202,1.80498358561169,0.147494770200913,1.93518739965741,-0.573318482283008,-0.0765800940075642
-0.219392826701624,-0.446137744642349,0.860477269500008,0.439035341547604,0.30711400943778,1.02784999259821,-0.0558891299688297,1.42066222254144,-0.724744759445284,-0.629966003946621
0.911942005319379,0.682857541336123,1.26200382106652,0.996397636112677,-0.0680671326670013,0.645589845691502,-0.57586331041937,2.02361227109075,-0.0790263309219868,-1.12982918693215
0.635721015514706,-0.801708627656535,0.420644520537993,-0.739773840912556,0.411515011296146,1.17720064726032,0.316210958948103,0.857207438355707,-0.804695485076429,-0.234717111263689
0.568387392390169,-0.271149740669312,-0.871544164286547,-0.18162264101737,0.31468273759956,1.22545569589016,1.2864925444219,0.652496874665753,-1.24237307521646,-0.267361727311254
0.38812977508086,-0.278952932653283,0.482722873950437,0.229840911751351,-0.343214383723538,0.71070352679211,-0.264080481053279,1.04862136896138,-1.16008748275706,0.17109146366522
0.900378945079761,0.39014764638058,0.281130207782903,-0.0890743797796944,0.546277583792551,0.719000581858513,0.260266401711632,1.66296087049284,-0.887351179262673,-0.527237276750504
0.688251177600892,-0.369607544411201,0.231984709612964,0.126703248222525,-0.280975134436404,0.784814179586149,-0.233544359036978,0.947897345330029,-0.954685230993376,-0.222143376107454
0.655523312306691,-0.228686508184104,0.63284059291114,-0.0306907582107508,0.130778243980149,0.821057687887168,-0.752313095040357,0.818907949170366,-1.47191558112869,-0.886535753087464
0.378307250866517,-0.293724642786846,0.588256610424635,0.00336982378796146,0.597815296740638,1.45347842999711,0.376932100816624,0.830312364871231,-0.494625011227399,-0.185977380581204
0.191731934096092,-0.855165571705399,0.62169590900889,-0.390716068758778,0.568682705578157,0.609020619004457,0.364543887287583,1.23317661355931,-0.798151077033213,-0.63732274070712
0.44868919406527,-0.539312367437754,0.894401464006025,-0.28357042382336,0.61186442291801,0.48365339346852,0.181672640409088,1.17215746849384,-0.932288837627564,-0.326738181935906
1.19635750357378,-0.237432845532728,0.851610189193695,-0.458770717253657,-0.360627314278192,1.09246769110558,-0.0745377740264222,0.880251175164379,-1.21516703282205,-0.435224670168765
-0.590472290223136,-1.0849196395816,0.206725991479005,0.0251479643333214,0.817254434560669,1.31135155397878,0.594302447555346,0.869660691697604,-0.756048172368033,-0.117096751031321
0.481802309229172,-0.706283545519705,0.50707795102151,0.978064527625609,0.976687136657916,0.947657300347056,-0.516341037504334,0.973685434333844,-0.270803998294292,-0.187661894851109
0.302597114153423,-0.0440914921871944,0.862177841863537,-0.426809512038109,0.522228751733069,1.40199961737013,0.325033004286326,1.0281590589825,-0.327350286068337,-0.438633436128587
0.627844510088577,-0.621611504003982,-0.0251668404631304,0.215951101484,0.401441193823889,0.613825012565645,0.0374904605161877,1.67576133105179,-0.687109104358429,-0.318034374504296
0.41793923301384,-0.705066578258149,0.147092916204808,-0.178223058600034,0.174215284900787,0.737730493226548,0.338739449169051,1.11578304912646,-0.842963193402399,-0.0526584035505369
1.3109060356981,-0.337620587837447,0.235246745473986,0.348030115791523,0.165258148378266,1.4005307529759,-0.0344147747778562,1.32462446539536,-0.821067571222998,-0.661802155181457
0.713827596090676,-0.419720409751454,-0.0595324284632996,-0.857956699300233,-0.323330949704792,0.963892389366022,0.010587969725999,1.46838876717521,-0.662490752762935,-0.589277564306855
0.862195837755822,-0.204807137815923,1.08439001287602,0.0962491829443802,0.00774144946169751,1.08656103327858,-0.553211809179826,1.16064428294556,-0.987990927395943,-0.860229905895769
1.03132529678386,-0.685864849466246,0.104638741247875,0.627871677780927,0.311864377794137,0.662686304769225,0.0438964035486308,1.07996662711871,-0.738300353373548,-0.164812398417726
0.131715601483128,-0.579209943075949,0.289692962917666,-0.397207829494938,0.421299358054738,1.25292570795225,0.0843776223726068,1.04835636902897,-0.972762934762969,-0.387363424753648
0.173153913349671,-0.211242543936846,0.422628935573891,-0.153902484059906,-0.925042348882683,0.848866235755279,-0.295245074440581,1.23876395493587,-0.775891177166599,-0.314286555900394
0.726938525966628,-0.588876064072111,0.965359341893491,-0.500366612522805,0.772798240245671,-0.352857951679632,-0.100354187551814,1.15175672106558,-1.06843405652918,-0.456445260556454
0.80506984153604,0.0734703681243395,0.633650126371391,0.435001528619725,0.410696985317924,1.10395418026524,0.140325958399998,0.891143204449971,-1.38190770865912,-0.280946081086371
-0.21352829060199,-0.760169217926537,-0.0217886031349765,-0.214075853069236,0.289980590484014,1.33044193828065,0.521321107022447,1.36811015778829,-0.761125787247635,-0.221543010264409
0.218358650932252,-0.556009747953933,0.485375507041044,-0.740505799999966,0.771414109617003,1.33382654477985,0.0958668633850735,1.32157005056927,-0.787195647594394,-0.208046267192923
1.49437885620132,0.191427673615461,0.704973467027447,0.711544312273295,0.626293711423725,0.802004981539042,-0.164483051574391,0.898894409038476,-0.613801135204146,-0.24971571525365
0.454574521838073,-0.24969045545152,0.33478910231603,-0.0708689921456769,-0.59400033485881,0.994035901804857,0.447470721700541,1.1970511456008,-1.23718689292362,-0.363754737237793
0.216162936726064,0.0261784378598015,1.57348997945143,-0.501192056737001,0.257360108810188,1.88979229539641,0.411567041689629,0.517306170329431,-0.517811289220765,0.203010101887913
0.493551057104761,-1.13017158232283,0.52079301277666,-0.551685017518904,0.447258449089998,1.30277939932355,0.160669458151453,1.19737335835476,-0.564787111453869,-0.263770157374702
0.139888888834276,-0.493465812318898,0.63895342772853,-0.304338119269446,0.72800036537932,1.27427489563121,-0.0488369231936135,1.20943003991487,-0.792210128696443,-0.00306849917452328
0.672281162348473,-0.636332735700393,0.455171286096894,-0.345280014135209,0.635748710181034,0.945449301857467,0.3563539830786,1.04733582087948,-0.978646822028395,-0.264836466203924
0.0347150212427346,-0.549188363124491,0.852406768304272,0.948482704632444,0.0603059658487143,0.890733283215942,-0.245999205644771,0.769514995097202,-1.24241533667297,-0.506977791095967
0.0863227144533169,-0.530274887273098,1.06372229714787,0.100524682268838,0.110353543179682,-0.228471168355216,-0.385238052736681,1.11682276471474,-1.68335770924684,-1.06986612868048
1.0291849092013,-0.00329132964708326,0.430782439835464,0.0970149440885948,-0.135244654025061,0.795020357902071,-0.668823064779464,1.43474140835291,-0.997667572624235,-0.572009351131602
0.326630477476972,-0.274422306533488,0.114142662536601,-0.5169546017793,-0.106721971781456,1.13245522250752,0.308810877565668,1.37324164965582,-0.551476924365213,-0.505275439503343
0.360055378923263,-0.395101848521915,0.97949011596837,-0.257886363684607,0.56652581418852,1.22362902368515,0.419498469709994,1.09015726328335,-0.631088810559736,0.0822069183801037
1.22221905541728,-0.400174920097285,-0.434054985459355,0.342808079338223,-0.416720374566813,1.08840001293291,-0.356066257438683,1.31355666813733,-0.598312003094193,-0.421739967798831
-0.133296187943522,-0.235503675335716,1.11144986710085,0.393377335003541,-0.0664248201951636,0.566827682096406,0.383764118618205,1.45235103070829,-0.81796755920949,-0.191187124959843
0.788493041942403,-0.598836609524095,0.183905506448467,-0.232784508504352,-0.210316838317072,0.234250743298573,0.504987759031099,1.05232898077434,-0.878811250952279,0.284197819811227
0.100032525826767,-0.708678607587059,-0.207943767658484,-0.266474379972514,0.436020413308649,1.92092149824795,0.0272446549488384,0.971477572079754,-0.488526909639236,0.084903331304057
0.863712394152336,-0.0991637231630058,0.445192472608414,0.0174856500032775,-0.373573246607734,1.27319950659631,-0.0885871667207928,1.05975999717368,-1.06062076742869,-0.139237674956109
0.567455619311551,-0.389448800986062,0.203925104798119,-0.0039815819414758,-0.340498091959572,0.109773331865385,-0.30060792540509,1.0331070783416,-1.23637836124345,0.0687352938197973
1.1952546779823,-0.194126731282307,0.692872467686783,0.240698816299496,0.171756691333055,1.11125022392183,-0.290150651289839,1.04118442735937,-1.30359090645056,-0.466209638635359
0.695860293908046,-0.309998552936668,-0.31527076725585,-0.53549981236044,0.644003240184427,1.67705974030716,0.463450737469715,0.959034157330536,-0.127238692525774,-0.59780379349321
0.923975023907501,-0.59281801669438,0.347317733074717,-0.0440237630727291,0.147251706922661,0.829208935183562,-0.40069493240018,1.01922914326941,-0.913692099365773,-0.0340967404218481
0.453981137753792,-0.740102702336198,0.256695764456529,-0.551732077602113,0.509552272362003,0.957424744431261,0.322253198714618,1.40736547357251,-0.56975100834543,-0.209646319754584
0.103408778719544,-0.543079553056572,0.597202098537895,0.0258966736555032,0.693941318191307,1.28677101950448,0.91427620269587,1.05884514804051,-0.773802721601952,0.0244891223588532
0.595817842317987,0.200395534799722,-0.108756726121112,-0.176761376502371,-0.519009298543755,0.214450605594718,0.0359963648940005,1.51775306580392,-0.971025588028662,0.28487069098191
0.705135933300654,-1.11264887495982,0.210274677610872,-0.518586293675586,0.648481528192653,0.772858847978855,-0.499114309700481,-0.150478966362762,-1.67394008714958,-0.317136433093068
1.05111825210446,-0.0249568774424931,0.601324714793092,-0.301067883734038,-0.309621837982967,0.80968923490897,0.265165987285237,1.01192236275394,-0.470820775787401,-0.284120069118474
0.295691005257208,0.0430445410120636,0.434885935538556,-0.545091933612291,0.402442266521643,0.64673729005815,0.164684310063284,1.34242829884298,-1.25912613561969,-0.10914516291129
0.542533829537521,-0.196816812308498,0.869584961396236,-0.634100961560507,0.0466632204869987,1.58366485138871,-0.41365407005484,1.28834280727798,-0.717788147035712,-0.644332546661229
0.737382061445761,-0.288284010803337,0.848002398843048,-0.422564697268453,0.265857588997398,1.29053579017861,-0.753789475815598,1.00901199017759,-1.10567608933852,-0.291780208593024
0.625096419182147,-0.535279726039301,0.243818547338413,-0.42436616338865,0.436785652702594,0.75711167071845,-0.613121483403354,0.797652595315821,-1.17775966982579,-0.0437242165958674
0.76202873397209,-0.592828294991679,0.465938791550492,-0.10427739935818,0.0195394993725627,1.10143829956524,-0.387684614840643,1.08820950774076,-0.87710133734077,0.0505264381182275
0.212500311781501,-0.137075901242191,0.158073715448318,0.0910524216468547,0.435289228046735,1.00411683337552,0.208078639266194,1.50814116259966,-0.831448697997844,-0.0533721312306188
0.599293856047095,-0.367251019159804,0.668072587236106,0.472634275765663,-0.159434597982608,0.72306188408731,0.144791031261741,1.28370334124051,-1.02508842234807,-0.349107120231071
0.757756899237017,0.290973754220296,0.626014693124996,-0.0276532511495707,-0.0503228505829284,1.25577560639558,-0.223151281079605,1.61196710489826,-1.07926983516788,-0.833997988070033
1.1574336013789,-0.0855319923284537,-0.0384109316140702,0.221106866666119,0.738789683237164,1.48264560710423,-0.428626244093653,0.494364764768523,-1.31063325936165,-0.0915123682063078
0.564301091507572,-1.01825322424262,1.10297149508204,0.929359564379687,-0.0269517242140017,0.304415985214688,0.64696625515878,0.770556784846608,-0.687134991342782,-1.98991649705519
0.584099265500478,-0.343518247199814,0.860497158909012,0.325935100809162,0.3593587625188,0.626336609683814,-0.188952129277876,1.39658393873449,-0.776937071488927,-0.262569978965364
0.621970141733962,-0.404990013696948,0.354867091181883,-0.234004707473676,0.380960401348658,0.845491508780686,0.225220559835384,0.867943294777611,-1.07329096959591,-0.00325747851392053
0.793383878484835,-0.176599372713282,0.937610360376625,0.0493382104390574,0.572234634051461,0.799072649917024,-0.141171882375462,0.87048518968568,-1.15543027098704,-0.161719310057367
0.616481722324311,-0.507083532408149,0.364673813312799,0.0517557100773202,0.320276177816979,1.25840770411722,0.234325390012264,1.37102853407935,-0.455970396677499,-0.246149228078351
0.647090375117686,-0.897810044948026,0.761954613257249,-0.091736144603128,0.56012102042959,1.24662950379868,0.486954726155942,0.894954546611029,-0.717259570939065,-0.443288567208754
0.775744742068447,-0.774931524865193,0.144333101675038,-0.381563762442146,0.580316040321986,0.801165013152838,0.105852646591308,1.06524278418102,-0.382855277191669,0.0929680798629124
0.293398035661519,-0.612271464202467,1.05497164320243,-0.341357730649235,0.669881425931614,1.78940787647792,0.273477103601011,1.0768104404213,-0.0541660065439768,0.089330333670319
0.397999190520671,-0.21234511464065,0.920519994412048,-0.476272644020957,0.158117375430583,1.65351019617665,0.122596160095298,0.563059066847744,-0.313921139766553,-1.05560603310629
0.422621695291885,-0.483322537131486,0.827582165460641,-0.43476660388982,0.758561264257788,1.14133704372549,0.477471653935653,1.34504429084883,-0.296279012852648,-0.501513130312657
0.901591383091368,-0.458304985638085,0.172112840719476,0.0175541153765675,-0.242979201932384,1.04347921337598,-0.269971049754067,1.24259701590621,-0.689565809826607,-0.236538697326771
-0.434726179004585,-1.53702202341248,0.872809424729421,-0.658037193955053,0.281389656272157,2.11951308788674,0.498167389538811,0.413693226215468,0.608389693307024,-0.764767688663977
0.826686017390304,-0.306430320737727,0.355891791274984,-0.0933058444734934,-0.218627170190296,0.964566665012049,-0.0441414175390459,0.905369068588198,-1.07617501631776,-0.269522093732882
-0.375203070055061,-1.02371081300858,0.992467663083399,-0.836956516126723,0.847269212605698,1.07604541332017,-0.73127602091043,0.788160750365174,-0.779465050269378,0.211060866399115
1.09176486299753,0.0841789731726759,0.655482993633412,0.0461011970665817,0.0155265277146228,1.02061169322357,-0.742509016308519,1.11388690328215,-1.01876023722766,-0.62684743505823
-0.0312523880675286,-0.258444748407852,0.83847943881542,-0.210132949521259,0.646371766204047,1.65020741978044,0.181454388962268,1.31313694783182,-0.415435396017019,-0.130369308401684
1.04426522466293,-0.211698064243972,0.17043266952471,0.316283163073012,0.225380737955295,0.598029602936741,0.369826863271804,1.28468269775622,-0.885670413705302,-0.15569298888623
0.411579933904015,-0.809086083861884,0.455722948495845,-0.412320226176667,0.472392873125309,0.936283105628594,0.59082194580985,0.902825602869342,-0.904154750189189,-0.666665744838867
0.322785185298738,-0.895479645363018,1.04049345804592,0.0945298389669098,0.428100730849193,1.23047448532023,0.732040747248472,1.06438333388826,-0.606142990659559,-0.268355520552643
0.922448443629554,0.226199044945223,0.333565357990071,0.464937382930755,0.116202385558807,1.1025968384052,-0.669192239931253,1.04681372075457,-0.840708372864521,-0.921255776033364
0.772440827217357,-0.132217195427736,0.761031625477999,-0.126547628201303,0.211464050657998,1.34205159265149,0.0220224176503518,1.04914869550381,-1.14246773505038,-0.267847615559379
0.404213069201355,-0.899946640072376,0.452278741604169,0.434548528470174,0.625201445081558,1.16767759078523,0.0357633932430936,1.25787235292591,-0.641160465828886,-0.148076526564501
0.837831089669469,0.105326039191825,0.309376030092846,0.593589688654106,0.0609236291833471,0.84569570139891,-0.497428789857257,1.16663874081176,-0.788104606337118,-0.540942686273858
0.322763561671254,-1.06236363646026,1.07841361210432,-0.300980352371474,0.880246166651051,0.650528740391855,0.284497719481582,0.975641038685213,-0.718999004495772,-0.247511953559846
0.7526463048644,-0.308012357584467,0.627946366281663,0.394777092599593,0.798696800858549,0.487193443782703,0.453463853487073,1.17333768079077,-0.908056546009547,-0.019639447979875
0.828963091194374,-0.103545004522908,-0.0212363242910599,-0.0689583084468608,-0.0901008507878519,1.47429791560651,-0.0523878558395006,0.887445738878259,-0.565846210953698,-0.619818443925197
0.726032892503356,-0.297072926310451,0.484668687395655,-0.222294699618169,-0.16878651278983,0.483684494218869,-0.259940385272579,1.26741029896069,-0.679517056415518,0.0354400044289621
0.575698147942867,-0.157700889045933,-0.46789688454996,0.653590740835595,0.403140706897009,0.789542808005658,0.712651976594734,1.2859124594111,-0.795364384341498,-0.171909996817007
0.822676695627489,-0.500156431876762,0.732003141078144,0.0995601632155558,0.498291047051756,0.900990131199164,0.32594015382791,1.31378136798075,-0.571408959093879,-0.132021080982269
1.15053204448523,-0.383202421852616,0.291897752708379,0.327244097152277,-0.573931698026486,0.911345673717637,0.0743734025923657,0.942797468217662,-1.08922736619865,0.205346710322973
0.940675894871196,-0.326219834345914,0.76879282939973,0.60656268956655,-0.263112470606735,0.761909862431766,0.0355380934938469,0.326874980763358,-1.11747812919545,-0.441854010430617
2.53118283219081,-0.38972267832338,2.33601549576342,-0.132620049754277,-0.824666439876288,-0.760967809469565,1.41700320094493,0.177075224197639,-0.381466589621044,-0.075673599608812
-0.105055737575579,-0.342390425423846,0.531436627321636,-0.121968141803343,0.467936740636198,0.874285041999235,-0.703416002486381,1.93938300004851,-0.435903608963109,-0.528219832150828
0.666409556863266,-0.521796565111106,0.726103009780265,-0.240307139464815,0.364309406018656,1.10755987229578,-0.0877026469100918,0.758606993105773,-0.898229117533218,-0.0137561797710501
0.530534929610722,-0.264399426895443,0.731607282089961,-0.176141527410181,-0.476146707052675,1.14062791536895,-0.0352609935183842,0.702407372791094,-0.964691601469041,0.335984794703069
-0.251213594278757,-0.514574911134777,0.443656226415429,0.0157545084879123,0.612203089328764,1.31512673375049,0.906724721677621,0.785828945999247,-1.20836812938557,0.342867952580293
0.893243885940061,-0.183481231087128,0.519393125527488,-0.121397816802195,-0.237944227145604,0.629239694576825,0.173695482324765,0.520272051329701,-0.87186371629856,-0.0469821746943371
0.937783729511068,-0.763089979677014,0.537805588894572,0.0838099047540231,0.543101994381484,1.00184209084435,-0.0654914026512203,0.835875688000712,-0.572176933048473,-0.0822038290429037
0.485190276840887,-0.585884764785624,0.666791269000253,-0.116687346521705,0.00286201933371856,0.667806095450551,-0.131208522569967,1.12176006598437,-1.12120758527383,-0.0685337349532465
0.737293906669735,-0.446738331757692,0.274815065585089,0.115531218872868,0.756829512252506,1.04810013373522,0.371228832536341,1.31057170569534,-0.531685293216131,0.0253813004189556
0.498496900369334,-0.24327724757411,0.58018725986893,-0.479463705344596,0.163066683337295,0.737292580375001,0.0986515448218639,1.07408814451968,-1.24717511647705,-0.0134064655407459
0.63692964914359,-0.702300229684392,0.550032065252374,0.0411317684863235,0.17516764047495,1.05137158115502,0.215330468780435,0.886653489737668,-1.18876906590585,-0.180676379320374
1.03507017039145,-0.0886909394824156,0.170783649451986,0.191173509144415,0.945093750880887,0.565368887595094,0.0389617910851614,1.43619175576397,-1.38491896004919,-0.449901055904195
0.989995107627827,-0.329951742655122,0.377170234849983,-0.256878738818976,0.540410534232363,0.87074851256935,-0.13011916009236,0.521197608902277,-1.2657367948143,-0.798915060021477
1.13211345812093,0.305716900443647,0.56256303607897,-0.638001415734766,-0.151949859448727,-0.0614304433430017,0.249493318290797,0.83525869986623,-0.717522989446833,0.0324859705940845
0.717847901626991,-0.487175922808959,0.565260331953215,-0.0280592613307198,0.76909254493851,0.947977347925406,0.350389588971623,1.10551548869218,-0.707896072716751,0.173807779218252
0.424626750790366,-0.401247653307322,0.230908252746759,-0.453629310141659,0.435666221430115,1.28090306841106,0.374050225930202,1.14410928192032,-0.76580054018074,-0.252925331368632
0.096727598642592,-0.698215044400604,0.649420701088797,0.202153364987382,0.165324891383437,0.469553112290906,-0.403216432198906,1.21644574087267,-1.14979492871921,-0.746394151715193
0.689741557058215,-0.674204449273126,0.720287229339716,-0.997777534806437,0.541616834605054,0.640352952339143,-0.289016568014073,1.17394180792412,-0.525555109434424,-0.335318264927605
0.620789335726075,-0.580851621371966,0.0769941645286193,-0.440246547454088,-0.170877375807531,0.748427062466192,0.443086839909592,1.24829592461297,-0.798602147826392,-0.336110507632227
0.877001556719754,-0.252264854588556,0.10498128546863,0.0209389795643435,-0.438845367029786,1.2564899922185,0.572787265178368,1.19219510808863,-0.120088601327823,-0.5056379320925
-0.506440510676372,-0.3504456162695,0.854252812468698,-0.464985923361506,-0.160792501233064,0.756388518592841,-0.792596780953383,0.938974523836258,-1.21715048150072,-0.194210435285482
0.134994689088887,-0.462932554635676,0.658250779441445,0.285094307148416,0.639120258804708,1.35684352998873,0.602659142709075,0.977834921687245,-0.394292754191217,-0.289490228358703
0.961590260479224,0.0818502518864775,-0.183783241962869,-0.103353513611485,-0.696123863168425,1.40700961750193,-0.541871806727828,1.63612788022762,-0.614498687226473,-0.615964378666917
0.872838882208707,-0.217157428481995,0.292390433909836,0.0329359839396621,-0.565344119479734,0.773217659326744,0.0235613022140449,1.28729665158108,-1.02456941684965,-0.436754175567752
0.509386816406498,-0.866229476068839,0.562158211624609,-0.366057290733586,0.352349595514582,0.632897005425325,0.0151777908599063,1.22524788769811,-0.900400608933594,-0.0758278741295738
0.442242143916933,-0.406383807082142,0.819065495408876,0.267219222944023,0.504874113460012,1.00444575978347,0.768263530424292,0.625665493576767,-1.10503440692989,-0.0599674598386262
0.922607065701177,-0.335461366145561,0.330308170411123,0.301243570628749,-0.491087116246722,0.652991983778643,0.00331465823987762,0.789486722175474,-0.706448509032355,-0.0156024948406739
0.745282269245359,-0.314635781332044,0.890866073615364,-0.0743326294283192,-0.205916075420867,0.203676504669467,0.194124366026755,1.30257475402445,-1.05337580362386,-0.620508135330685
0.52468742218184,-0.837715161377575,0.259197284469105,-0.403403872812192,0.613303736756333,0.985754804777523,0.462784073699697,0.757733198719252,-1.04337993555802,0.0246989777374195
1.6164499103214,0.701409912369276,0.956224466020551,0.265164699052413,0.434266229908725,0.404573332267049,0.0859478381128592,0.784912576663241,-0.630966036623609,-1.40253775071019
0.654026927912895,-0.741894741970555,0.622839398536173,-0.554038607170861,0.0188818536707783,1.0507352650518,-0.577945893886798,0.718689198061771,-1.11693070290014,0.00179393647570082
0.935478017056395,-0.468604607465918,0.149426494179824,-0.318172813404927,-0.602929339390766,0.956781136313055,-0.315719200658106,1.36703313570771,-1.04550643949336,-0.878828415819941
1.20851494252984,-0.85726821258997,0.566628637870859,-0.203311661980604,0.839212892355877,1.34493783801858,0.992457087694674,0.757980190115769,0.112868837491663,-0.400791145220534
0.827314788642847,-0.166265087646933,0.524123714527356,0.528886015079052,-0.201517780908431,0.401823380396388,-0.131723525474449,1.4823343413775,-1.01413529669145,-0.40726550192666
0.964147327237822,-0.434291140377911,0.483577713739461,-0.260926105976469,0.105002899454214,1.1557945552595,0.362964064136845,1.13122054249926,-0.420684912611292,-0.115524620957126
0.00282711928709811,-0.311757296258526,-0.378885079468687,-0.0856050378761471,0.54520449829767,1.57556073349492,-0.519143405102079,1.66304986730367,-1.00105732867102,0.405694666120706
0.784702959951437,-0.59025111026098,0.622742404285282,0.352762237021001,0.154894236900781,0.861098328544853,-0.259371565703543,0.875420237260749,-0.512774568783402,-0.158456582439282
0.195299345785113,-0.409882446308147,0.882022421114251,-0.417612041516763,0.404772760425394,0.644413455968149,-0.288803496102471,0.69736561533941,-1.11498833357803,-0.622692393104897
1.09470301445654,-0.498599566417654,0.492331648998411,-0.0220680451637722,-0.20521947860634,0.686128828797065,-0.0676614041424754,1.06757458111362,-0.459003941524183,0.665283971542488
0.250559103617486,-0.594164362556024,0.486157399954876,-0.0301413580264448,0.158235916292639,0.837073890279167,-0.100471966255792,1.37735101132125,-0.807615172751398,0.0434460219845878
-0.0597135170356294,-0.300086463736771,1.10533278319162,-0.0614795853416741,-0.123120635041768,0.704312009989286,0.590838246120653,0.545953388522665,-0.410815866939754,0.238289722169652
0.20030090165902,-0.410866849124501,0.0340543990885021,0.100045808142061,-0.0693450324631112,0.509666287302357,0.00819319711423859,1.05128001006,-0.91965695161075,-0.178946022017577
0.221310848121794,-0.713936447974215,0.516200239915944,-0.135892679273503,0.402615448697679,0.730243872786822,-0.48140135741708,1.25223524940516,-1.10324350676304,-0.416500144827834
-0.525226680941003,-0.400283141353415,0.39620859177955,-0.389434183644558,0.281108610903115,1.09554397404165,0.348966805801275,1.32025244251646,-0.773001529745457,-0.388283381525844
-0.0917763194086463,-0.636272284466204,-0.0199360477002726,-0.689240130122424,0.6147653948359,1.14453678171629,0.222660255373837,1.2502667325577,-1.08359201533246,-0.545510546053974
0.762028404756885,-0.0755614786318081,0.334294925188554,0.245011708266658,0.33573918504413,1.40024621696837,0.244458459512604,1.13595360257945,-1.03270107378271,-0.944486872882123
0.690130153225931,0.337689735017174,1.21571514138192,0.507629747133296,-1.16945369946502,-0.027522032100258,-0.558679770964499,1.42879530215643,-0.514636296960758,0.200087058700192
0.12862680830536,0.161213786310423,-0.137621904669921,0.365731132614827,0.790600571326533,0.894676871021047,-0.332907800659428,1.58853966733955,-1.22295394516543,0.097147688709269
0.58475293530879,-0.735525982668686,0.827536415974767,-0.615365900241751,-0.0495572951946102,0.426361495985907,-0.294692372697402,0.930044786382019,-1.11569714639932,-0.0893166078426779
0.948304339016985,-0.545261608487672,0.580320840676987,0.773982793680396,-0.169367003771758,0.718662519718578,0.201553548099248,0.852824483184363,-0.367404193029775,-0.00369745665413444
0.406523851045715,-0.62750404961458,0.319718517213121,0.162496929048342,0.353797520140762,0.818434643220939,-0.12177053604333,1.35248564867494,-0.780113425679461,-0.367911507158682
0.201348572736835,-0.339252539190526,0.0639373097392807,-0.635375380003904,0.649376357941493,1.08912837750821,0.0505791208199668,1.16635440189179,-0.973481460084332,-0.825449360731237
0.528208048388461,-0.474057480479618,0.426809562412276,-0.0330540403472882,0.833123132543751,1.13378187236687,-0.0703950612856799,1.33612141386705,-1.17875353405694,-0.51210797326991
0.396063785206173,-0.556979765721341,0.652180743027055,-0.628919509781891,0.404966124564103,1.48223874643246,0.258861816603197,0.777006279637286,-0.622999221623559,-0.579855252162627
0.997485747956515,-0.00586034599922049,0.329430429260485,0.791003842979374,0.0839864035696579,1.0534040801219,-0.458574566760707,1.02747376313741,-0.657451098950575,-0.136746878140729
0.292449259710124,-0.83528962634788,-0.041443227880416,-0.677149684028598,0.100577788977746,1.03153421824524,0.394224610962815,0.796264803336767,-0.905515701739376,0.0300703834310023
0.571676475015379,-0.522958117823552,0.149173514062654,-0.268284169799411,0.392735961498672,0.703443950887796,0.126224852328827,1.25240574026089,-0.308541333495905,-0.200657814079932
1.39501065576819,-0.140140640902964,0.346825949857793,0.253858428211993,-0.153901514075731,0.369741587416119,0.529997877030069,1.30875681320721,-0.870725536149472,-0.3508280797237
0.710452696747821,-1.12932141650557,-0.270539846314431,0.0423125207627615,0.0286441837652155,0.922042743745881,0.230575315630847,0.762203498779989,-0.817637096422213,0.223280613484511
0.783869876850943,-0.249028431791178,0.570416922117255,-0.0787627066247136,0.395970327993452,1.23892010120619,0.226374939765248,1.04496513339894,-1.15675274518574,-0.396361559637717
0.720266894124228,-0.453712743867311,0.310022995372851,-0.340215540682936,0.379155841447629,1.06158013641958,-0.0157271573299991,0.872518394014956,-0.605477044619858,0.0845723261349701
-0.0345405294268939,-0.796354499986586,0.626304779042717,0.0861787638835314,-0.738808981021195,0.878511639437334,-0.596953710919038,0.64918785747505,-1.36742799245576,-0.163629065553989
0.334241330837881,-0.655408538453985,0.774921876468608,-0.434341533519572,0.293361020808804,0.988283534564326,-0.158026856038244,1.133947717195,-0.51673762561799,-0.235882172162616
0.576207500713421,-0.698321509694462,0.901326638620825,-0.16390726403491,0.792895067408917,0.923767819476944,0.325974142060029,1.11159419347837,-0.70867838246761,-0.365209670241904
0.568896983008913,-0.466561105969733,0.372998752225962,-0.125600021046587,0.753151805318196,1.39598234297832,0.471769472541588,1.22654678359406,-0.659795790973058,-0.0410175217018701
0.905099681541219,-0.371423704892443,0.698037236978528,-0.285393536210516,0.311784379667863,0.460314850683684,0.220892307950342,1.15513205034224,-0.848083031834392,-0.416219123326581
1.73635509881769,-0.764505603797733,0.0254672537068425,0.464193192806739,0.283422576639569,0.513529500995937,-0.776268274338217,0.784166607111908,0.140033934953466,-1.16586421028454
0.839377667532338,-0.466663257730431,0.240818918091047,-0.0786508042961175,-0.712687795703462,1.92136436302627,-0.75072574623391,1.26335319934967,-1.12643104475291,-0.649811328579278
0.631397335500767,-0.939930115096365,0.387792914133994,-0.350702586668624,0.467928381478786,0.499607378400784,0.226988318404273,1.04264539527339,-0.967636769326643,-0.142249892798602
0.201507202341211,-0.790882540197276,0.41302734896523,0.0792385024756425,0.32997531406286,0.80563583110425,0.355221848790017,1.47077342977345,-1.18479136889405,-0.447371811132082
0.32480804348394,-0.350978221047531,0.920138049137739,-0.204721332358839,-0.0279524109659997,1.35872003269618,-0.0862159251779943,0.830487290289748,-0.244170682894078,0.213945710344035
0.681010266362083,-0.839136283141252,0.659504269413102,-0.114372856750813,0.533574273641924,0.479862223018112,-0.509622712336037,1.13432546138698,-0.959550284491414,-0.370528578115778
1.32714413958672,-0.201943717730327,0.163768144404865,0.0406300691914169,0.412791300776027,1.32154472656675,-0.131470352693356,1.18024497109263,-1.01495386667211,-0.55280836874118
1.12523679112192,-0.33952928967869,1.00291599810387,-0.645826796272236,0.83218229330217,0.355072219994186,0.860100786058798,1.03252637793874,-0.370858344260138,-0.534573768897938
0.482322249853585,-1.38558205489468,0.346663478928011,0.0275216818267253,0.92471108190093,0.422242815718064,-0.333450594662057,0.881266152681097,-0.949165836662145,-0.321996845085779
0.12500693586897,-0.511637210151879,0.206858214936425,0.135505309087665,0.815628187097184,1.22592837314073,0.150689063235809,0.850427390713949,-0.979109956597931,-0.0326608888549682
0.531832152284645,-0.605076816205391,0.0638149901006391,0.309708120003946,0.617387225743072,1.17062184019309,-0.102769156344261,1.17324878691172,-0.861669891713273,-0.379287232257981
0.720739696941889,-0.310138659354913,0.564100798651279,0.294047425256362,-0.319052402096018,0.993574975933516,-0.0160563172224965,0.80544934261003,-0.790687066671406,-0.225498159921302
0.712501753365713,-0.374174472497019,0.182543820886522,0.714253459187281,0.578801006531759,1.30975999836728,-0.119820183603969,0.613228398983792,-0.401834336758025,0.171206759094487
0.589032712840221,-0.543027816324933,0.662662887561653,0.832699447514861,0.403646817437678,0.973997055237566,0.0154366154178785,1.13016546387523,-0.979299225593334,-0.359548451329712
0.105140283484528,-0.161341230909166,0.258821787066679,-0.240892144315092,-0.0156794555690532,1.07162128970553,0.0827496756134388,0.790576482994127,-0.932683724852499,0.0212869770973917
-0.0704228705646859,-0.311061309905388,0.922508447416524,0.0558770862937027,0.943638987474761,0.790676144149453,0.756736906417409,1.32252444935744,-1.09498185081293,-0.307259731121035
0.629664529701441,-0.253587861386723,0.708492287771069,0.322608344822558,0.924434008117489,0.70222240310452,-0.247015176533897,0.579262164907934,-1.60017612311754,-0.796118109841636
0.615166297731872,-0.253434551003731,0.210350412006503,0.779753722271335,0.474700854142474,0.457296807376618,-0.34202143026497,1.11349398596732,-1.0410942955945,-0.309625356138052
0.373841737786103,-0.357162695190387,0.129277687294658,0.66661705021472,-0.46665641129756,1.02967115354214,-1.10553093465015,1.77419195847621,-0.532008000901374,0.249527254367218
-0.192702447353054,-1.08425770816068,0.875074216199672,-0.542649523014892,0.149333771405592,0.777723331335226,-0.65052050048156,0.841752924580038,-0.319201534434054,-0.0708712003586018
0.413070063532946,-1.16455302612571,0.00485800075747373,-0.148998451476134,0.440017265613332,0.774794776097348,-0.297601892023118,1.17666147132032,-0.886606965422468,-0.239993684305843
0.0583918443675566,-0.756891774164903,0.488180346857598,-0.321918393319764,-0.0482481401608445,0.626909634583301,0.407452928810609,0.833771903352495,-1.26983513817587,0.0635016980607289
0.863819699697465,-1.14441722722364,0.499198578099045,0.332059950812884,0.788958775502505,0.406754300088368,-0.650959202251028,0.932666351885815,-0.88509064640765,-0.921402633722819
0.924158513027397,-0.168685981350599,0.767607495934323,-0.2027644417141,0.470188313252117,0.291542828218716,-0.214560292861485,1.19590978276169,-1.12497894157632,-0.340964986105826
0.254953141306989,0.131712081356093,0.338175031969263,0.21070618636389,0.0168845890459754,1.39396645989569,-0.569792985673336,1.19663785911171,-1.73638342419104,-0.583534402623996
0.478017730387241,-0.487789407442387,0.112443951210878,-0.941568822789589,-0.148106663456387,1.41731360152604,-0.828044872195835,0.997474665031461,-0.746738333702747,0.545928347559984
0.693125332964783,-0.806663138460923,0.133694310306457,-0.144106172042591,-0.142546825883531,0.658760586674476,-0.627973728419389,0.997896577333322,-1.15671924068413,-0.522000472138711
-0.123096343644718,-0.41794566783068,0.637025323886019,-0.465245620457553,0.563732370774638,1.20847465946572,0.100014627446253,0.598947720763687,-0.851417265019313,-0.694308204709779
0.416164721204558,-0.828091004750914,-0.16134158985427,-0.0392720194095107,0.0497180323225899,1.15649202865221,0.396992948215967,1.11100501922418,-1.15155647365341,0.0396197664858525
0.0587970130136907,-0.522636122324724,0.224234915669083,-0.633030460833533,-0.061949580691579,1.35146820866533,-0.170830612793273,0.989237047650166,-1.09443604081595,-0.85786609886842
0.45702386410023,-0.520029669445948,0.792789518142453,-0.545652211369364,0.380280832318819,1.04465802828027,-0.337284242565426,1.01341659638903,-0.965160322088818,-0.80654764957432
0.586659038978174,0.131290371426689,0.915629571920767,0.105369434365871,-0.419344730873462,0.687974653249582,-0.988936745448832,1.03321157080111,-0.259192684631966,-0.0379551436851773
0.694410455934066,-0.710930555330866,0.696671029673672,0.267864124402973,0.396205918837635,1.71323644056856,-0.102460400757034,1.64262294163698,0.340198264057175,0.259157910878181
0.676465416641799,0.049218824450459,-0.0816707463164466,0.100509556306824,-0.0534568828765559,1.35247575274085,-0.140653742191897,1.40448225725312,-1.03158132092559,-0.898223500912287
0.755390768247682,0.6173312245791,0.0760911094111552,0.792219571463138,0.364530493880807,1.05516017963359,-0.0648037206386404,1.27967667795996,-0.76280664316808,-0.00703908138430632
0.339154307246023,-0.0331635220787444,1.38715261539838,0.781122283153385,0.736376710853687,0.754496079920892,0.00105378850176141,1.08075502748831,-0.910936064279785,-0.670077075012326
0.862268899706956,0.0537505972637338,0.404966470513088,0.889971081937049,-0.441127205497019,1.51145868939844,-0.65077429221721,1.87018090139488,-0.422027954517295,-0.40036814107473
0.226170647412469,-0.338024975621113,0.518050546579205,-0.39658665169939,1.2851929363925,1.17772089208093,0.327975097849105,1.16976169778127,-0.631128851855235,-0.122002140037099
0.45893010465465,-0.273729618932594,0.995910197561622,-0.165466589028189,0.522653961068805,0.540372097948753,-0.232154681714794,0.648173043728112,-0.63401075131694,0.389540363356301
0.789117807635938,-0.43980372643918,0.288530050482658,0.526254987161385,-0.405422949060141,0.246809427680303,-0.0639755209489668,0.982041383105804,-0.704463330974637,-0.28080172243106
0.524071204999907,-0.20300327550489,0.716509461365772,-0.206450232581197,-0.497570172025464,0.708810475369333,0.276512679999239,1.04563810105989,-1.26194966181836,0.125059321079117
0.401120145709986,-0.42566066793952,0.572242208727841,-0.213542659676311,0.276827909616309,0.948460974762011,0.087020080450243,1.00334622072704,-1.30875241647813,-0.280791407866457
1.00468127681222,-0.426733397984129,0.379217287876985,0.677906902548116,0.109533441434184,0.764917256362996,-0.259296825706449,1.22777075993005,-0.85431049936813,-0.582178762704538
0.989306028521504,-0.316325002305076,0.525932167588968,-0.174048153213832,0.462087763920346,1.00989136892138,0.101988695252179,0.673966893770092,-1.23772798975417,-0.17519654503332
0.51082747925744,0.319828488247542,0.594962077586019,0.241503849267616,-0.233441114675851,0.512744929372023,-0.512722819493276,1.15355896755967,-0.76310995879713,-0.264218952916126
0.71544808255895,-0.775347119536512,0.187761136917149,-0.0902323743025602,0.0824645779249376,1.27626071802555,0.203434817065074,0.934817014460748,-0.741904976336187,0.0865436368246458
0.586254482204221,0.0340143663250651,-0.000539948777375898,0.0688034813929057,0.635211495501912,0.708627007482914,-0.642832505148235,0.939486775514432,-1.43085353328604,0.133716864223401
1.08180697763124,-0.913521493087128,-0.0585860035766016,0.239448350883829,-0.144655120343319,0.650336818263815,0.0218313181553478,0.929501105627174,-1.31810987003014,-0.528488904563922
-0.573675090598732,-0.680056229086399,-0.100396001391842,-0.402039444059142,-0.567633205493045,0.975555282492805,-0.996875197558764,1.79632505828027,-1.40931379487622,-1.24179996419203
0.902890155844461,-0.237800560126352,-0.10411744672737,-0.158427575186644,-0.183214603013771,0.792213290629015,0.639173724525577,1.11852938904098,-0.668734894880726,0.19677544230792
0.341500953391739,-0.632676475870118,0.415604380837747,-0.226632714317468,0.163383731880742,0.598477271038506,-0.511467059908187,0.692135425574788,-1.20958080180624,-0.351166090087322
0.210190912538725,-0.740589785863369,0.838555502702013,-0.481005935566812,0.738801406590093,0.795346534060938,0.094561920128983,0.959708476962024,-0.890484344717983,-0.403776582888714
1.23086817454697,-0.127141677782521,0.229392194494515,0.258765519666877,0.487773812214156,1.49892577626306,0.102817288842341,1.29072626914276,-0.811452652135444,-0.524773016310188
-0.222549707957707,-0.257056940553275,0.00917530171828523,-0.152544957152091,-0.718503349576652,1.23392864710007,0.351472505541088,1.88482395226386,-0.886440055979502,-0.686511685771604
1.02048219171514,-0.471309765713226,0.49206033623068,-0.294000169193311,0.201367375594539,0.380142850431247,-0.0961406473327397,1.09219634609171,-0.789335330847778,0.0120238305504066
0.620818881340307,-0.431691218862304,0.761397937812729,-0.449636744517083,0.495692672484575,1.01535193735912,0.624418289024557,1.11018760886571,-0.441083619468474,0.179007467108935
0.319124365130706,-0.640752033625457,0.760209908926807,-0.388368469980838,0.796081103192576,0.730225323328938,-0.101275947121669,1.29138259534459,-0.5151092889603,-0.493990652833901
0.620979448190035,-0.897111202294877,0.678412040490109,0.117281708121359,0.52162576879974,0.617623269871513,-0.329319299610889,0.700018913741309,-1.10074582406186,-0.246707609270875
0.84129488543519,-0.306625602589263,0.557333618132417,0.133367158893602,-0.363280352936565,0.907174528419272,-0.371415982255144,0.852742997032111,-1.04271362849432,-0.559711006725913
0.806754679730886,-0.129287039145399,0.17489751828245,0.0379961259579117,0.284378995705729,0.925314093930246,0.267481080054036,1.49022573960409,-0.705721648737831,-0.436920161493751
0.782392676062113,-0.938978047872632,-0.375288560544628,-0.0166413121852669,-0.699119072846795,0.746411580375376,0.434222743553632,1.09169129916757,-0.804346419611717,-0.360432444244108
0.87543884580207,0.0585147831568923,0.610997272373354,0.200779447305633,0.750158651396422,0.80234903683189,-0.271668839115928,1.43526523603015,-1.38168044828526,-0.996145310318948
0.631805755055824,-0.53889493164584,0.193017367528473,0.959580706873197,0.474563679515333,0.770984454945068,0.464865915147301,1.1697375104296,-0.714949221431718,-0.646669809395831
1.23455273891706,-0.620612116732759,0.548037464047161,-0.217104676818808,-0.312134991894257,1.2210902335833,-1.16615509471502,0.952281216806069,-0.741636206105272,-0.735456148682678
0.912536859414112,0.0529952474230546,0.314407106282089,-0.199721766219448,0.487280973737836,1.56511787139637,-0.143828775947414,1.15406165574951,-0.58078912582996,-0.826366103826938
0.812663276074268,-0.494592607273295,0.361567421545955,0.838409940642948,0.798741982573021,1.21680123443784,-0.168988389157405,0.651281299317631,-1.0780635267119,-0.00685859834621839
-0.14601131730304,-0.707819768003455,0.400717619793626,-0.518579569571395,0.478511912889138,0.707789725955036,0.578978515232292,1.12545626650472,-0.673724851347844,0.0154420350200477
0.147410456152752,-0.396568906643995,0.961561029544944,0.318667943491691,0.513236015082598,0.693126690919763,0.547954594377946,0.948514423706609,-0.926983348249086,-0.182879400464085
0.569521370901093,-0.374038850485214,-0.033070371374347,0.275158417190789,0.425830583522211,1.45202294444697,0.514393483156676,0.960185002427256,-0.924786297157588,-0.218782627190863
0.621736135443363,-0.508296468320043,0.509763868084566,-0.160588181580938,0.209211654487388,1.17800358262264,-0.0550549154613704,1.23189254124716,-0.695416112064385,-0.266338705606573
1.04509048451031,-0.409782954821345,0.459545981320428,0.297774497443015,1.12109464273533,0.995173247073821,-0.459472639797107,1.22656946627642,-0.256105319208079,-0.417908973469632
0.429711152822474,-0.615563736169726,0.959716869146504,-0.195597617832683,0.456555028933887,1.21646239758027,0.196687654547919,1.02393462507848,-0.268837085198256,-0.544899858952988
0.240284311872735,-0.172908138117398,0.61289851204406,0.104554104781758,0.281366411347778,1.50008164267675,0.212823499109729,1.07015892398395,-0.6562286284416,-0.704782775618481
0.2423093662384,-0.637610330015407,0.356119756298131,0.101297227240021,-0.268013877073953,0.554501892182405,0.19459795057592,0.904243890834963,-0.801061483758044,-0.0359437033309845
0.8019393589276,-0.248326693804967,0.242103818965352,0.362768296179926,0.0588645532967155,1.13234115293816,-0.625541657185343,0.88296609166862,-1.14985941573265,-0.0923932938910339
-0.0238116822405907,0.220325154750187,0.503422942316989,0.0895114907374569,0.24887306527226,1.11854306464229,-0.909047397806627,1.09463069534139,-1.84974349927343,-0.87595058768458
0.43160914500329,-0.644965686522983,0.155123990395016,-0.160637716909389,-0.29454586556326,0.402155087198745,0.0417478334608592,1.23911695091319,-0.961663334271859,-0.21836111671803
